<?xml version="1.0"?>
<MethodSetup Method="BDT::BDTG">
  <GeneralInfo>
    <Info name="TMVA Release" value="4.1.2 [262402]"/>
    <Info name="ROOT Release" value="5.27/06 [334598]"/>
    <Info name="Creator" value="cerati"/>
    <Info name="Date" value="Wed Sep 19 12:04:52 2012"/>
    <Info name="Host" value="Linux cmswn1925 2.6.18-194.11.3.el5 #1 SMP Tue Aug 31 10:13:43 CEST 2010 x86_64 x86_64 x86_64 GNU/Linux"/>
    <Info name="Dir" value="/tas/cerati/TestMVA/TMVA-v4.1.2/test"/>
    <Info name="Training events" value="42018"/>
    <Info name="TrainingTime" value="2.65273330e+01"/>
    <Info name="AnalysisType" value="Classification"/>
  </GeneralInfo>
  <Options>
    <Option name="V" modified="Yes">False</Option>
    <Option name="VerbosityLevel" modified="No">Default</Option>
    <Option name="VarTransform" modified="No">None</Option>
    <Option name="H" modified="Yes">False</Option>
    <Option name="CreateMVAPdfs" modified="No">False</Option>
    <Option name="IgnoreNegWeightsInTraining" modified="No">False</Option>
    <Option name="NTrees" modified="Yes">400</Option>
    <Option name="RenormByClass" modified="No">False</Option>
    <Option name="BoostType" modified="Yes">Grad</Option>
    <Option name="AdaBoostR2Loss" modified="No">quadratic</Option>
    <Option name="UseBaggedGrad" modified="Yes">True</Option>
    <Option name="GradBaggingFraction" modified="Yes">5.000000e-01</Option>
    <Option name="Shrinkage" modified="Yes">1.000000e-01</Option>
    <Option name="AdaBoostBeta" modified="No">1.000000e+00</Option>
    <Option name="UseRandomisedTrees" modified="No">False</Option>
    <Option name="UseNvars" modified="No">3</Option>
    <Option name="UsePoissonNvars" modified="No">True</Option>
    <Option name="UseNTrainEvents" modified="No">42018</Option>
    <Option name="UseWeightedTrees" modified="No">True</Option>
    <Option name="UseYesNoLeaf" modified="No">True</Option>
    <Option name="NodePurityLimit" modified="No">5.000000e-01</Option>
    <Option name="SeparationType" modified="No">giniindex</Option>
    <Option name="nEventsMin" modified="No">40</Option>
    <Option name="nCuts" modified="Yes">1000</Option>
    <Option name="UseFisherCuts" modified="No">False</Option>
    <Option name="MinLinCorrForFisher" modified="No">8.000000e-01</Option>
    <Option name="UseExclusiveVars" modified="No">False</Option>
    <Option name="PruneStrength" modified="No">0.000000e+00</Option>
    <Option name="PruneMethod" modified="No">nopruning</Option>
    <Option name="PruneBeforeBoost" modified="No">False</Option>
    <Option name="PruningValFraction" modified="No">5.000000e-01</Option>
    <Option name="NNodesMax" modified="Yes">5</Option>
    <Option name="MaxDepth" modified="No">3</Option>
    <Option name="DoBoostMonitor" modified="No">False</Option>
    <Option name="NegWeightTreatment" modified="No">ignorenegweights</Option>
  </Options>
  <Variables NVar="11">
    <Variable VarIndex="0" Expression="pmet" Label="pmet" Title="Proj. MET" Unit="GeV" Internal="pmet" Type="F" Min="2.00004139e+01" Max="2.00619049e+02"/>
    <Variable VarIndex="1" Expression="pTrackMet" Label="pTrackMet" Title="Proj. tkMET" Unit="GeV" Internal="pTrackMet" Type="F" Min="2.00018749e+01" Max="2.66367920e+02"/>
    <Variable VarIndex="2" Expression="nvtx" Label="nvtx" Title="nvtx" Unit="" Internal="nvtx" Type="I" Min="1.00000000e+00" Max="4.70000000e+01"/>
    <Variable VarIndex="3" Expression="dilpt" Label="dilpt" Title="pt(ll)" Unit="GeV" Internal="dilpt" Type="F" Min="3.00000229e+01" Max="2.63176331e+02"/>
    <Variable VarIndex="4" Expression="jet1pt" Label="jet1pt" Title="pt(jet1)" Unit="GeV" Internal="jet1pt" Type="F" Min="0.00000000e+00" Max="2.99998913e+01"/>
    <Variable VarIndex="5" Expression="metSig" Label="metSig" Title="metSig" Unit="GeV" Internal="metSig" Type="F" Min="3.57940108e-01" Max="6.78488159e+00"/>
    <Variable VarIndex="6" Expression="dPhiDiLepJet1" Label="dPhiDiLepJet1" Title="dPhiDiLepJet1" Unit="" Internal="dPhiDiLepJet1" Type="F" Min="-1.00000001e-01" Max="3.14157128e+00"/>
    <Variable VarIndex="7" Expression="dPhiDiLepMET" Label="dPhiDiLepMET" Title="dPhiDiLepMET" Unit="" Internal="dPhiDiLepMET" Type="F" Min="6.40612900e-01" Max="3.14158130e+00"/>
    <Variable VarIndex="8" Expression="dPhiJet1MET" Label="dPhiJet1MET" Title="dPhiJet1MET" Unit="" Internal="dPhiJet1MET" Type="F" Min="-1.00000001e-01" Max="3.14134765e+00"/>
    <Variable VarIndex="9" Expression="recoil" Label="recoil" Title="recoil" Unit="GeV" Internal="recoil" Type="F" Min="2.63428748e-01" Max="2.70152069e+02"/>
    <Variable VarIndex="10" Expression="mt" Label="mt" Title="mt" Unit="GeV" Internal="mt" Type="F" Min="6.00003090e+01" Max="4.21752960e+02"/>
  </Variables>
  <Spectators NSpec="0"/>
  <Classes NClass="2">
    <Class Name="Signal" Index="0"/>
    <Class Name="Background" Index="1"/>
  </Classes>
  <Transformations NTransformations="0"/>
  <MVAPdfs/>
  <Weights NTrees="400" AnalysisType="1">
    <BinaryTree type="DecisionTree" boostWeight="1.0000000000000000e+00" itree="0">
      <Node pos="s" depth="0" NCoef="0" IVar="5" Cut="1.5065935850143433e+00" cType="0" res="6.1950638890266418e-02" rms="4.9614727497100830e-01" purity="5.6195068359375000e-01" nType="0">
        <Node pos="l" depth="1" NCoef="0" IVar="-1" Cut="0.0000000000000000e+00" cType="1" res="2.5729591026902199e-02" rms="2.6978072524070740e-01" purity="9.2097312211990356e-01" nType="-99"/>
        <Node pos="r" depth="1" NCoef="0" IVar="1" Cut="3.9811820983886719e+01" cType="0" res="-2.6575163006782532e-01" rms="4.2352813482284546e-01" purity="2.3424836993217468e-01" nType="0">
          <Node pos="l" depth="2" NCoef="0" IVar="-1" Cut="0.0000000000000000e+00" cType="1" res="-3.7676948704756796e-04" rms="4.9997586011886597e-01" purity="4.9508795142173767e-01" nType="-99"/>
          <Node pos="r" depth="2" NCoef="0" IVar="-1" Cut="0.0000000000000000e+00" cType="1" res="-2.7400260791182518e-02" rms="3.0040869116783142e-01" purity="1.0030683875083923e-01" nType="-99"/>
        </Node>
      </Node>
    </BinaryTree>
    <BinaryTree type="DecisionTree" boostWeight="1.0000000000000000e+00" itree="1">
      <Node pos="s" depth="0" NCoef="0" IVar="5" Cut="1.5065935850143433e+00" cType="0" res="5.8425866067409515e-02" rms="4.8776838183403015e-01" purity="5.5969601869583130e-01" nType="0">
        <Node pos="l" depth="1" NCoef="0" IVar="-1" Cut="0.0000000000000000e+00" cType="1" res="2.4750778451561928e-02" rms="2.6553052663803101e-01" purity="9.2366677522659302e-01" nType="-99"/>
        <Node pos="r" depth="1" NCoef="0" IVar="1" Cut="3.7915122985839844e+01" cType="0" res="-2.5392624735832214e-01" rms="4.2270919680595398e-01" purity="2.3706878721714020e-01" nType="0">
          <Node pos="l" depth="2" NCoef="0" IVar="-1" Cut="0.0000000000000000e+00" cType="1" res="-3.1145727261900902e-03" rms="4.9767711758613586e-01" purity="4.5629313588142395e-01" nType="-99"/>
          <Node pos="r" depth="2" NCoef="0" IVar="-1" Cut="0.0000000000000000e+00" cType="1" res="-2.8531430289149284e-02" rms="2.9187685251235962e-01" purity="9.4034597277641296e-02" nType="-99"/>
        </Node>
      </Node>
    </BinaryTree>
    <BinaryTree type="DecisionTree" boostWeight="1.0000000000000000e+00" itree="2">
      <Node pos="s" depth="0" NCoef="0" IVar="5" Cut="1.5649980306625366e+00" cType="0" res="6.5937153995037079e-02" rms="4.7799694538116455e-01" purity="5.6837218999862671e-01" nType="0">
        <Node pos="l" depth="1" NCoef="0" IVar="-1" Cut="0.0000000000000000e+00" cType="1" res="2.4980759248137474e-02" rms="2.3415811359882355e-01" purity="9.4178044795989990e-01" nType="-99"/>
        <Node pos="r" depth="1" NCoef="0" IVar="1" Cut="4.0184242248535156e+01" cType="0" res="-2.2628706693649292e-01" rms="4.3052604794502258e-01" purity="2.5715917348861694e-01" nType="0">
          <Node pos="l" depth="2" NCoef="0" IVar="-1" Cut="0.0000000000000000e+00" cType="1" res="3.3793309703469276e-03" rms="4.9687844514846802e-01" purity="5.4237747192382812e-01" nType="-99"/>
          <Node pos="r" depth="2" NCoef="0" IVar="-1" Cut="0.0000000000000000e+00" cType="1" res="-2.4540191516280174e-02" rms="3.1869179010391235e-01" purity="1.1604158580303192e-01" nType="-99"/>
        </Node>
      </Node>
    </BinaryTree>
    <BinaryTree type="DecisionTree" boostWeight="1.0000000000000000e+00" itree="3">
      <Node pos="s" depth="0" NCoef="0" IVar="5" Cut="1.5842596292495728e+00" cType="0" res="6.1259590089321136e-02" rms="4.7079378366470337e-01" purity="5.6502056121826172e-01" nType="0">
        <Node pos="l" depth="1" NCoef="0" IVar="-1" Cut="0.0000000000000000e+00" cType="1" res="2.4997640401124954e-02" rms="2.2136574983596802e-01" purity="9.4832712411880493e-01" nType="-99"/>
        <Node pos="r" depth="1" NCoef="0" IVar="1" Cut="3.6949535369873047e+01" cType="0" res="-2.1158941090106964e-01" rms="4.3206501007080078e-01" purity="2.6570090651512146e-01" nType="0">
          <Node pos="l" depth="2" NCoef="0" IVar="-1" Cut="0.0000000000000000e+00" cType="1" res="9.1140136646572500e-05" rms="4.9617591500282288e-01" purity="4.9818658828735352e-01" nType="-99"/>
          <Node pos="r" depth="2" NCoef="0" IVar="-1" Cut="0.0000000000000000e+00" cType="1" res="-2.6619875803589821e-02" rms="2.8834792971611023e-01" purity="9.2070981860160828e-02" nType="-99"/>
        </Node>
      </Node>
    </BinaryTree>
    <BinaryTree type="DecisionTree" boostWeight="1.0000000000000000e+00" itree="4">
      <Node pos="s" depth="0" NCoef="0" IVar="5" Cut="1.4644963741302490e+00" cType="0" res="7.0367038249969482e-02" rms="4.6134561300277710e-01" purity="5.7658046483993530e-01" nType="0">
        <Node pos="l" depth="1" NCoef="0" IVar="-1" Cut="0.0000000000000000e+00" cType="1" res="2.1443273872137070e-02" rms="2.7995684742927551e-01" purity="9.0967667102813721e-01" nType="-99"/>
        <Node pos="r" depth="1" NCoef="0" IVar="1" Cut="3.7072147369384766e+01" cType="0" res="-2.3192445933818817e-01" rms="4.1325208544731140e-01" purity="2.3418782651424408e-01" nType="0">
          <Node pos="l" depth="2" NCoef="0" IVar="-1" Cut="0.0000000000000000e+00" cType="1" res="-3.2603093422949314e-03" rms="4.9597474932670593e-01" purity="4.5147696137428284e-01" nType="-99"/>
          <Node pos="r" depth="2" NCoef="0" IVar="-1" Cut="0.0000000000000000e+00" cType="1" res="-2.7236947789788246e-02" rms="2.7590438723564148e-01" purity="8.3027340471744537e-02" nType="-99"/>
        </Node>
      </Node>
    </BinaryTree>
    <BinaryTree type="DecisionTree" boostWeight="1.0000000000000000e+00" itree="5">
      <Node pos="s" depth="0" NCoef="0" IVar="5" Cut="1.3788028955459595e+00" cType="0" res="5.9134822338819504e-02" rms="4.5585712790489197e-01" purity="5.6540787220001221e-01" nType="0">
        <Node pos="l" depth="1" NCoef="0" IVar="-1" Cut="0.0000000000000000e+00" cType="1" res="2.0499603822827339e-02" rms="3.0924701690673828e-01" purity="8.8106942176818848e-01" nType="-99"/>
        <Node pos="r" depth="1" NCoef="0" IVar="1" Cut="3.4522949218750000e+01" cType="0" res="-2.5388783216476440e-01" rms="3.9135780930519104e-01" purity="2.0317034423351288e-01" nType="0">
          <Node pos="l" depth="2" NCoef="0" IVar="-1" Cut="0.0000000000000000e+00" cType="1" res="-8.6928438395261765e-03" rms="4.7755211591720581e-01" purity="3.6427363753318787e-01" nType="-99"/>
          <Node pos="r" depth="2" NCoef="0" IVar="-1" Cut="0.0000000000000000e+00" cType="1" res="-2.7625858783721924e-02" rms="2.3078866302967072e-01" purity="5.6450016796588898e-02" nType="-99"/>
        </Node>
      </Node>
    </BinaryTree>
    <BinaryTree type="DecisionTree" boostWeight="1.0000000000000000e+00" itree="6">
      <Node pos="s" depth="0" NCoef="0" IVar="5" Cut="1.4986164569854736e+00" cType="0" res="5.9199374169111252e-02" rms="4.4922539591789246e-01" purity="5.6642055511474609e-01" nType="0">
        <Node pos="l" depth="1" NCoef="0" IVar="-1" Cut="0.0000000000000000e+00" cType="1" res="2.1492827683687210e-02" rms="2.6956158876419067e-01" purity="9.1876709461212158e-01" nType="-99"/>
        <Node pos="r" depth="1" NCoef="0" IVar="1" Cut="4.3137145996093750e+01" cType="0" res="-2.1006710827350616e-01" rms="4.1234624385833740e-01" purity="2.4106127023696899e-01" nType="0">
          <Node pos="l" depth="2" NCoef="0" IVar="-1" Cut="0.0000000000000000e+00" cType="1" res="3.6748913116753101e-03" rms="4.9650788307189941e-01" purity="5.4277449846267700e-01" nType="-99"/>
          <Node pos="r" depth="2" NCoef="0" IVar="-1" Cut="0.0000000000000000e+00" cType="1" res="-2.1869422867894173e-02" rms="3.3221215009689331e-01" purity="1.3248188793659210e-01" nType="-99"/>
        </Node>
      </Node>
    </BinaryTree>
    <BinaryTree type="DecisionTree" boostWeight="1.0000000000000000e+00" itree="7">
      <Node pos="s" depth="0" NCoef="0" IVar="5" Cut="1.3552749156951904e+00" cType="0" res="6.2358070164918900e-02" rms="4.4200682640075684e-01" purity="5.7099604606628418e-01" nType="0">
        <Node pos="l" depth="1" NCoef="0" IVar="-1" Cut="0.0000000000000000e+00" cType="1" res="1.9044470041990280e-02" rms="3.1598687171936035e-01" purity="8.7168872356414795e-01" nType="-99"/>
        <Node pos="r" depth="1" NCoef="0" IVar="1" Cut="4.0184242248535156e+01" cType="0" res="-2.3785312473773956e-01" rms="3.8652282953262329e-01" purity="2.0126426219940186e-01" nType="0">
          <Node pos="l" depth="2" NCoef="0" IVar="-1" Cut="0.0000000000000000e+00" cType="1" res="-4.2841872200369835e-03" rms="4.9607348442077637e-01" purity="4.4285821914672852e-01" nType="-99"/>
          <Node pos="r" depth="2" NCoef="0" IVar="-1" Cut="0.0000000000000000e+00" cType="1" res="-2.3370835930109024e-02" rms="2.9234275221824646e-01" purity="9.6328109502792358e-02" nType="-99"/>
        </Node>
      </Node>
    </BinaryTree>
    <BinaryTree type="DecisionTree" boostWeight="1.0000000000000000e+00" itree="8">
      <Node pos="s" depth="0" NCoef="0" IVar="5" Cut="1.5660654306411743e+00" cType="0" res="6.6923797130584717e-02" rms="4.3437105417251587e-01" purity="5.7840842008590698e-01" nType="0">
        <Node pos="l" depth="1" NCoef="0" IVar="-1" Cut="0.0000000000000000e+00" cType="1" res="2.2234281525015831e-02" rms="2.2310166060924530e-01" purity="9.4723749160766602e-01" nType="-99"/>
        <Node pos="r" depth="1" NCoef="0" IVar="1" Cut="3.8347282409667969e+01" cType="0" res="-1.8138150870800018e-01" rms="4.1697663068771362e-01" purity="2.6273602247238159e-01" nType="0">
          <Node pos="l" depth="2" NCoef="0" IVar="-1" Cut="0.0000000000000000e+00" cType="1" res="1.5679774805903435e-03" rms="4.9103656411170959e-01" purity="5.1654273271560669e-01" nType="-99"/>
          <Node pos="r" depth="2" NCoef="0" IVar="-1" Cut="0.0000000000000000e+00" cType="1" res="-2.3018125444650650e-02" rms="3.0210778117179871e-01" purity="1.0482882708311081e-01" nType="-99"/>
        </Node>
      </Node>
    </BinaryTree>
    <BinaryTree type="DecisionTree" boostWeight="1.0000000000000000e+00" itree="9">
      <Node pos="s" depth="0" NCoef="0" IVar="5" Cut="1.6058170795440674e+00" cType="0" res="5.8882784098386765e-02" rms="4.2988365888595581e-01" purity="5.7129460573196411e-01" nType="0">
        <Node pos="l" depth="1" NCoef="0" IVar="-1" Cut="0.0000000000000000e+00" cType="1" res="2.1827083081007004e-02" rms="2.0685526728630066e-01" purity="9.5520424842834473e-01" nType="-99"/>
        <Node pos="r" depth="1" NCoef="0" IVar="1" Cut="4.0443897247314453e+01" cType="0" res="-1.7471498250961304e-01" rms="4.1674989461898804e-01" purity="2.6744818687438965e-01" nType="0">
          <Node pos="l" depth="2" NCoef="0" IVar="-1" Cut="0.0000000000000000e+00" cType="1" res="2.5628455914556980e-03" rms="4.8932346701622009e-01" purity="5.3863358497619629e-01" nType="-99"/>
          <Node pos="r" depth="2" NCoef="0" IVar="-1" Cut="0.0000000000000000e+00" cType="1" res="-2.0404186099767685e-02" rms="3.2475042343139648e-01" purity="1.2634520232677460e-01" nType="-99"/>
        </Node>
      </Node>
    </BinaryTree>
    <BinaryTree type="DecisionTree" boostWeight="1.0000000000000000e+00" itree="10">
      <Node pos="s" depth="0" NCoef="0" IVar="5" Cut="1.4103713035583496e+00" cType="0" res="5.0340704619884491e-02" rms="4.2468699812889099e-01" purity="5.6199032068252563e-01" nType="0">
        <Node pos="l" depth="1" NCoef="0" IVar="-1" Cut="0.0000000000000000e+00" cType="1" res="1.9008917734026909e-02" rms="2.8591254353523254e-01" purity="8.9729219675064087e-01" nType="-99"/>
        <Node pos="r" depth="1" NCoef="0" IVar="1" Cut="4.1498294830322266e+01" cType="0" res="-2.1461021900177002e-01" rms="3.8536986708641052e-01" purity="2.0647549629211426e-01" nType="0">
          <Node pos="l" depth="2" NCoef="0" IVar="-1" Cut="0.0000000000000000e+00" cType="1" res="-3.3243463840335608e-03" rms="4.9605721235275269e-01" purity="4.5240312814712524e-01" nType="-99"/>
          <Node pos="r" depth="2" NCoef="0" IVar="-1" Cut="0.0000000000000000e+00" cType="1" res="-2.1666554734110832e-02" rms="3.0333694815635681e-01" purity="1.0636503249406815e-01" nType="-99"/>
        </Node>
      </Node>
    </BinaryTree>
    <BinaryTree type="DecisionTree" boostWeight="1.0000000000000000e+00" itree="11">
      <Node pos="s" depth="0" NCoef="0" IVar="10" Cut="8.5921577453613281e+01" cType="0" res="5.6391980499029160e-02" rms="4.1894876956939697e-01" purity="5.6989336013793945e-01" nType="0">
        <Node pos="l" depth="1" NCoef="0" IVar="-1" Cut="0.0000000000000000e+00" cType="1" res="2.1610680967569351e-02" rms="2.7696731686592102e-01" purity="8.9348477125167847e-01" nType="-99"/>
        <Node pos="r" depth="1" NCoef="0" IVar="6" Cut="2.2962524890899658e+00" cType="1" res="-1.8327571451663971e-01" rms="3.9634174108505249e-01" purity="2.5115674734115601e-01" nType="0">
          <Node pos="l" depth="2" NCoef="0" IVar="-1" Cut="0.0000000000000000e+00" cType="1" res="-6.1434606323018670e-04" rms="4.5510357618331909e-01" purity="4.6146368980407715e-01" nType="-99"/>
          <Node pos="r" depth="2" NCoef="0" IVar="-1" Cut="0.0000000000000000e+00" cType="1" res="-1.8895257264375687e-02" rms="3.1364518404006958e-01" purity="1.2582536041736603e-01" nType="-99"/>
        </Node>
      </Node>
    </BinaryTree>
    <BinaryTree type="DecisionTree" boostWeight="1.0000000000000000e+00" itree="12">
      <Node pos="s" depth="0" NCoef="0" IVar="5" Cut="1.5653300285339355e+00" cType="0" res="4.9521140754222870e-02" rms="4.1347834467887878e-01" purity="5.6447505950927734e-01" nType="0">
        <Node pos="l" depth="1" NCoef="0" IVar="-1" Cut="0.0000000000000000e+00" cType="1" res="2.1021010354161263e-02" rms="2.2296401858329773e-01" purity="9.4615441560745239e-01" nType="-99"/>
        <Node pos="r" depth="1" NCoef="0" IVar="1" Cut="3.7476928710937500e+01" cType="0" res="-1.6667321324348450e-01" rms="4.0499791502952576e-01" purity="2.5672203302383423e-01" nType="0">
          <Node pos="l" depth="2" NCoef="0" IVar="-1" Cut="0.0000000000000000e+00" cType="1" res="2.2686820011585951e-04" rms="4.8479276895523071e-01" purity="4.9518159031867981e-01" nType="-99"/>
          <Node pos="r" depth="2" NCoef="0" IVar="-1" Cut="0.0000000000000000e+00" cType="1" res="-2.1186776459217072e-02" rms="2.8373154997825623e-01" purity="9.0584263205528259e-02" nType="-99"/>
        </Node>
      </Node>
    </BinaryTree>
    <BinaryTree type="DecisionTree" boostWeight="1.0000000000000000e+00" itree="13">
      <Node pos="s" depth="0" NCoef="0" IVar="5" Cut="1.5667325258255005e+00" cType="0" res="5.4596181958913803e-02" rms="4.0783262252807617e-01" purity="5.7383042573928833e-01" nType="0">
        <Node pos="l" depth="1" NCoef="0" IVar="-1" Cut="0.0000000000000000e+00" cType="1" res="1.9710842519998550e-02" rms="2.2266702353954315e-01" purity="9.4628536701202393e-01" nType="-99"/>
        <Node pos="r" depth="1" NCoef="0" IVar="1" Cut="4.1498294830322266e+01" cType="0" res="-1.5970245003700256e-01" rms="4.0584129095077515e-01" purity="2.5910532474517822e-01" nType="0">
          <Node pos="l" depth="2" NCoef="0" IVar="-1" Cut="0.0000000000000000e+00" cType="1" res="2.2093500010669231e-03" rms="4.8797026276588440e-01" purity="5.3756678104400635e-01" nType="-99"/>
          <Node pos="r" depth="2" NCoef="0" IVar="-1" Cut="0.0000000000000000e+00" cType="1" res="-1.8993077799677849e-02" rms="3.2334017753601074e-01" purity="1.2651222944259644e-01" nType="-99"/>
        </Node>
      </Node>
    </BinaryTree>
    <BinaryTree type="DecisionTree" boostWeight="1.0000000000000000e+00" itree="14">
      <Node pos="s" depth="0" NCoef="0" IVar="10" Cut="8.9056404113769531e+01" cType="0" res="4.6505354344844818e-02" rms="4.0492004156112671e-01" purity="5.6412702798843384e-01" nType="0">
        <Node pos="l" depth="1" NCoef="0" IVar="-1" Cut="0.0000000000000000e+00" cType="1" res="2.0821584388613701e-02" rms="2.5553101301193237e-01" purity="9.1018855571746826e-01" nType="-99"/>
        <Node pos="r" depth="1" NCoef="0" IVar="6" Cut="2.3092052936553955e+00" cType="1" res="-1.6229453682899475e-01" rms="3.9613658189773560e-01" purity="2.6119896769523621e-01" nType="0">
          <Node pos="l" depth="2" NCoef="0" IVar="-1" Cut="0.0000000000000000e+00" cType="1" res="-1.8837818061001599e-04" rms="4.5517009496688843e-01" purity="4.6498030424118042e-01" nType="-99"/>
          <Node pos="r" depth="2" NCoef="0" IVar="-1" Cut="0.0000000000000000e+00" cType="1" res="-1.7114881426095963e-02" rms="3.2317513227462769e-01" purity="1.4310348033905029e-01" nType="-99"/>
        </Node>
      </Node>
    </BinaryTree>
    <BinaryTree type="DecisionTree" boostWeight="1.0000000000000000e+00" itree="15">
      <Node pos="s" depth="0" NCoef="0" IVar="5" Cut="1.3617615699768066e+00" cType="0" res="4.3811261653900146e-02" rms="3.9919698238372803e-01" purity="5.6397271156311035e-01" nType="0">
        <Node pos="l" depth="1" NCoef="0" IVar="-1" Cut="0.0000000000000000e+00" cType="1" res="1.5530378557741642e-02" rms="3.0084490776062012e-01" purity="8.7117570638656616e-01" nType="-99"/>
        <Node pos="r" depth="1" NCoef="0" IVar="1" Cut="3.9938884735107422e+01" cType="0" res="-1.9788075983524323e-01" rms="3.6844369769096375e-01" purity="1.9289143383502960e-01" nType="0">
          <Node pos="l" depth="2" NCoef="0" IVar="-1" Cut="0.0000000000000000e+00" cType="1" res="-4.6177404001355171e-03" rms="4.9025955796241760e-01" purity="4.2883312702178955e-01" nType="-99"/>
          <Node pos="r" depth="2" NCoef="0" IVar="-1" Cut="0.0000000000000000e+00" cType="1" res="-2.0566815510392189e-02" rms="2.7170372009277344e-01" purity="8.2854554057121277e-02" nType="-99"/>
        </Node>
      </Node>
    </BinaryTree>
    <BinaryTree type="DecisionTree" boostWeight="1.0000000000000000e+00" itree="16">
      <Node pos="s" depth="0" NCoef="0" IVar="5" Cut="1.6058170795440674e+00" cType="0" res="4.5600999146699905e-02" rms="3.9490178227424622e-01" purity="5.6697332859039307e-01" nType="0">
        <Node pos="l" depth="1" NCoef="0" IVar="-1" Cut="0.0000000000000000e+00" cType="1" res="1.9137335941195488e-02" rms="2.1209383010864258e-01" purity="9.5145094394683838e-01" nType="-99"/>
        <Node pos="r" depth="1" NCoef="0" IVar="1" Cut="3.4523498535156250e+01" cType="0" res="-1.4474342763423920e-01" rms="4.0029975771903992e-01" purity="2.6612854003906250e-01" nType="0">
          <Node pos="l" depth="2" NCoef="0" IVar="-1" Cut="0.0000000000000000e+00" cType="1" res="-1.0912687284871936e-03" rms="4.6954518556594849e-01" purity="4.5979470014572144e-01" nType="-99"/>
          <Node pos="r" depth="2" NCoef="0" IVar="-1" Cut="0.0000000000000000e+00" cType="1" res="-2.1012300625443459e-02" rms="2.5578242540359497e-01" purity="7.1895383298397064e-02" nType="-99"/>
        </Node>
      </Node>
    </BinaryTree>
    <BinaryTree type="DecisionTree" boostWeight="1.0000000000000000e+00" itree="17">
      <Node pos="s" depth="0" NCoef="0" IVar="10" Cut="8.1783302307128906e+01" cType="0" res="4.0353663265705109e-02" rms="3.9173835515975952e-01" purity="5.5845761299133301e-01" nType="0">
        <Node pos="l" depth="1" NCoef="0" IVar="-1" Cut="0.0000000000000000e+00" cType="1" res="1.7504755407571793e-02" rms="2.9849547147750854e-01" purity="8.5662555694580078e-01" nType="-99"/>
        <Node pos="r" depth="1" NCoef="0" IVar="6" Cut="2.3091285228729248e+00" cType="1" res="-1.8595772981643677e-01" rms="3.6784753203392029e-01" purity="2.0505516231060028e-01" nType="0">
          <Node pos="l" depth="2" NCoef="0" IVar="-1" Cut="0.0000000000000000e+00" cType="1" res="-3.1540500931441784e-03" rms="4.5037490129470825e-01" purity="3.9613544940948486e-01" nType="-99"/>
          <Node pos="r" depth="2" NCoef="0" IVar="-1" Cut="0.0000000000000000e+00" cType="1" res="-1.8200855702161789e-02" rms="2.8749689459800720e-01" purity="1.0248778760433197e-01" nType="-99"/>
        </Node>
      </Node>
    </BinaryTree>
    <BinaryTree type="DecisionTree" boostWeight="1.0000000000000000e+00" itree="18">
      <Node pos="s" depth="0" NCoef="0" IVar="5" Cut="1.3516525030136108e+00" cType="0" res="4.2725078761577606e-02" rms="3.8572773337364197e-01" purity="5.6621259450912476e-01" nType="0">
        <Node pos="l" depth="1" NCoef="0" IVar="-1" Cut="0.0000000000000000e+00" cType="1" res="1.5364820137619972e-02" rms="2.9576805233955383e-01" purity="8.6971205472946167e-01" nType="-99"/>
        <Node pos="r" depth="1" NCoef="0" IVar="4" Cut="1.4984741210937500e+01" cType="1" res="-1.8770021200180054e-01" rms="3.6089992523193359e-01" purity="1.8555822968482971e-01" nType="0">
          <Node pos="l" depth="2" NCoef="0" IVar="-1" Cut="0.0000000000000000e+00" cType="1" res="-5.4990234784781933e-03" rms="4.5104521512985229e-01" purity="3.4704247117042542e-01" nType="-99"/>
          <Node pos="r" depth="2" NCoef="0" IVar="-1" Cut="0.0000000000000000e+00" cType="1" res="-1.9065860658884048e-02" rms="2.8982475399971008e-01" purity="1.1005420237779617e-01" nType="-99"/>
        </Node>
      </Node>
    </BinaryTree>
    <BinaryTree type="DecisionTree" boostWeight="1.0000000000000000e+00" itree="19">
      <Node pos="s" depth="0" NCoef="0" IVar="5" Cut="1.5971006155014038e+00" cType="0" res="3.6235865205526352e-02" rms="3.8533180952072144e-01" purity="5.5912899971008301e-01" nType="0">
        <Node pos="l" depth="1" NCoef="0" IVar="-1" Cut="0.0000000000000000e+00" cType="1" res="1.7566926777362823e-02" rms="2.2030995786190033e-01" purity="9.4669365882873535e-01" nType="-99"/>
        <Node pos="r" depth="1" NCoef="0" IVar="1" Cut="3.4522949218750000e+01" cType="0" res="-1.3817341625690460e-01" rms="3.9461338520050049e-01" purity="2.6017758250236511e-01" nType="0">
          <Node pos="l" depth="2" NCoef="0" IVar="-1" Cut="0.0000000000000000e+00" cType="1" res="-1.3665698934346437e-03" rms="4.6721860766410828e-01" purity="4.5122930407524109e-01" nType="-99"/>
          <Node pos="r" depth="2" NCoef="0" IVar="-1" Cut="0.0000000000000000e+00" cType="1" res="-2.0041894167661667e-02" rms="2.5249123573303223e-01" purity="6.8488895893096924e-02" nType="-99"/>
        </Node>
      </Node>
    </BinaryTree>
    <BinaryTree type="DecisionTree" boostWeight="1.0000000000000000e+00" itree="20">
      <Node pos="s" depth="0" NCoef="0" IVar="5" Cut="1.2824951410293579e+00" cType="0" res="4.7716237604618073e-02" rms="3.7855684757232666e-01" purity="5.7302594184875488e-01" nType="0">
        <Node pos="l" depth="1" NCoef="0" IVar="-1" Cut="0.0000000000000000e+00" cType="1" res="1.4413034543395042e-02" rms="3.0260613560676575e-01" purity="8.4651052951812744e-01" nType="-99"/>
        <Node pos="r" depth="1" NCoef="0" IVar="4" Cut="1.0908864974975586e+01" cType="1" res="-1.8238428235054016e-01" rms="3.5769692063331604e-01" purity="1.7971000075340271e-01" nType="0">
          <Node pos="l" depth="2" NCoef="0" IVar="-1" Cut="0.0000000000000000e+00" cType="1" res="-3.4538053441792727e-03" rms="4.6487531065940857e-01" purity="3.6850777268409729e-01" nType="-99"/>
          <Node pos="r" depth="2" NCoef="0" IVar="-1" Cut="0.0000000000000000e+00" cType="1" res="-1.8320905044674873e-02" rms="3.0615457892417908e-01" purity="1.2427665293216705e-01" nType="-99"/>
        </Node>
      </Node>
    </BinaryTree>
    <BinaryTree type="DecisionTree" boostWeight="1.0000000000000000e+00" itree="21">
      <Node pos="s" depth="0" NCoef="0" IVar="5" Cut="1.6680854558944702e+00" cType="0" res="3.9355222135782242e-02" rms="3.7747043371200562e-01" purity="5.6632882356643677e-01" nType="0">
        <Node pos="l" depth="1" NCoef="0" IVar="-1" Cut="0.0000000000000000e+00" cType="1" res="1.8661106005311012e-02" rms="1.7934013903141022e-01" purity="9.6539223194122314e-01" nType="-99"/>
        <Node pos="r" depth="1" NCoef="0" IVar="1" Cut="3.4522949218750000e+01" cType="0" res="-1.1980522423982620e-01" rms="3.9797857403755188e-01" purity="2.8649413585662842e-01" nType="0">
          <Node pos="l" depth="2" NCoef="0" IVar="-1" Cut="0.0000000000000000e+00" cType="1" res="-3.9834144990891218e-04" rms="4.5766207575798035e-01" purity="4.7566670179367065e-01" nType="-99"/>
          <Node pos="r" depth="2" NCoef="0" IVar="-1" Cut="0.0000000000000000e+00" cType="1" res="-1.9975645467638969e-02" rms="2.7513459324836731e-01" purity="8.6324088275432587e-02" nType="-99"/>
        </Node>
      </Node>
    </BinaryTree>
    <BinaryTree type="DecisionTree" boostWeight="1.0000000000000000e+00" itree="22">
      <Node pos="s" depth="0" NCoef="0" IVar="5" Cut="1.6735402345657349e+00" cType="0" res="4.1608113795518875e-02" rms="3.7365016341209412e-01" purity="5.6727820634841919e-01" nType="0">
        <Node pos="l" depth="1" NCoef="0" IVar="-1" Cut="0.0000000000000000e+00" cType="1" res="1.8613426014780998e-02" rms="1.7925418913364410e-01" purity="9.6577316522598267e-01" nType="-99"/>
        <Node pos="r" depth="1" NCoef="0" IVar="1" Cut="4.3239387512207031e+01" cType="0" res="-1.0962464660406113e-01" rms="3.9834901690483093e-01" purity="2.8994563221931458e-01" nType="0">
          <Node pos="l" depth="2" NCoef="0" IVar="-1" Cut="0.0000000000000000e+00" cType="1" res="5.9769884683191776e-03" rms="4.5967492461204529e-01" purity="6.0516959428787231e-01" nType="-99"/>
          <Node pos="r" depth="2" NCoef="0" IVar="-1" Cut="0.0000000000000000e+00" cType="1" res="-1.4488614164292812e-02" rms="3.4467783570289612e-01" purity="1.6362747550010681e-01" nType="-99"/>
        </Node>
      </Node>
    </BinaryTree>
    <BinaryTree type="DecisionTree" boostWeight="1.0000000000000000e+00" itree="23">
      <Node pos="s" depth="0" NCoef="0" IVar="10" Cut="8.4213523864746094e+01" cType="0" res="4.4677097350358963e-02" rms="3.6922091245651245e-01" purity="5.7299000024795532e-01" nType="0">
        <Node pos="l" depth="1" NCoef="0" IVar="-1" Cut="0.0000000000000000e+00" cType="1" res="1.7420414835214615e-02" rms="2.6888623833656311e-01" purity="8.8127458095550537e-01" nType="-99"/>
        <Node pos="r" depth="1" NCoef="0" IVar="6" Cut="2.3220405578613281e+00" cType="1" res="-1.3833487033843994e-01" rms="3.7532287836074829e-01" purity="2.4036572873592377e-01" nType="0">
          <Node pos="l" depth="2" NCoef="0" IVar="-1" Cut="0.0000000000000000e+00" cType="1" res="-6.8452354753389955e-04" rms="4.4160968065261841e-01" purity="4.3028184771537781e-01" nType="-99"/>
          <Node pos="r" depth="2" NCoef="0" IVar="-1" Cut="0.0000000000000000e+00" cType="1" res="-1.5539963729679585e-02" rms="3.0614882707595825e-01" purity="1.2903904914855957e-01" nType="-99"/>
        </Node>
      </Node>
    </BinaryTree>
    <BinaryTree type="DecisionTree" boostWeight="1.0000000000000000e+00" itree="24">
      <Node pos="s" depth="0" NCoef="0" IVar="5" Cut="1.7206239700317383e+00" cType="0" res="3.7356738001108170e-02" rms="3.6644044518470764e-01" purity="5.6569367647171021e-01" nType="0">
        <Node pos="l" depth="1" NCoef="0" IVar="-1" Cut="0.0000000000000000e+00" cType="1" res="1.8707264214754105e-02" rms="1.4733710885047913e-01" purity="9.7716540098190308e-01" nType="-99"/>
        <Node pos="r" depth="1" NCoef="0" IVar="1" Cut="4.3609050750732422e+01" cType="0" res="-1.0186671465635300e-01" rms="3.9524710178375244e-01" purity="3.0346721410751343e-01" nType="0">
          <Node pos="l" depth="2" NCoef="0" IVar="-1" Cut="0.0000000000000000e+00" cType="1" res="7.4064000509679317e-03" rms="4.4420212507247925e-01" purity="6.4025616645812988e-01" nType="-99"/>
          <Node pos="r" depth="2" NCoef="0" IVar="-1" Cut="0.0000000000000000e+00" cType="1" res="-1.4216525480151176e-02" rms="3.4308165311813354e-01" purity="1.6595159471035004e-01" nType="-99"/>
        </Node>
      </Node>
    </BinaryTree>
    <BinaryTree type="DecisionTree" boostWeight="1.0000000000000000e+00" itree="25">
      <Node pos="s" depth="0" NCoef="0" IVar="5" Cut="1.3561477661132812e+00" cType="0" res="4.0769562125205994e-02" rms="3.6444732546806335e-01" purity="5.7265383005142212e-01" nType="0">
        <Node pos="l" depth="1" NCoef="0" IVar="-1" Cut="0.0000000000000000e+00" cType="1" res="1.3854864053428173e-02" rms="2.8476187586784363e-01" purity="8.7352025508880615e-01" nType="-99"/>
        <Node pos="r" depth="1" NCoef="0" IVar="4" Cut="1.7590837478637695e+01" cType="1" res="-1.4244267344474792e-01" rms="3.6823683977127075e-01" purity="2.0257905125617981e-01" nType="0">
          <Node pos="l" depth="2" NCoef="0" IVar="-1" Cut="0.0000000000000000e+00" cType="1" res="-4.4525275006890297e-03" rms="4.3653732538223267e-01" purity="3.2791602611541748e-01" nType="-99"/>
          <Node pos="r" depth="2" NCoef="0" IVar="-1" Cut="0.0000000000000000e+00" cType="1" res="-1.7049001529812813e-02" rms="2.8965285420417786e-01" purity="1.1153204739093781e-01" nType="-99"/>
        </Node>
      </Node>
    </BinaryTree>
    <BinaryTree type="DecisionTree" boostWeight="1.0000000000000000e+00" itree="26">
      <Node pos="s" depth="0" NCoef="0" IVar="1" Cut="3.9394252777099609e+01" cType="0" res="3.4509256482124329e-02" rms="3.6002752184867859e-01" purity="5.6360787153244019e-01" nType="0">
        <Node pos="l" depth="1" NCoef="0" IVar="-1" Cut="0.0000000000000000e+00" cType="1" res="1.3573091477155685e-02" rms="3.1167811155319214e-01" purity="8.2633024454116821e-01" nType="-99"/>
        <Node pos="r" depth="1" NCoef="0" IVar="5" Cut="1.9030175209045410e+00" cType="0" res="-1.6232684254646301e-01" rms="3.3052951097488403e-01" purity="1.9286203384399414e-01" nType="0">
          <Node pos="l" depth="2" NCoef="0" IVar="-1" Cut="0.0000000000000000e+00" cType="1" res="1.2049597688019276e-02" rms="2.5901314616203308e-01" purity="9.2742246389389038e-01" nType="-99"/>
          <Node pos="r" depth="2" NCoef="0" IVar="-1" Cut="0.0000000000000000e+00" cType="1" res="-1.5432202257215977e-02" rms="3.2065093517303467e-01" purity="1.4630380272865295e-01" nType="-99"/>
        </Node>
      </Node>
    </BinaryTree>
    <BinaryTree type="DecisionTree" boostWeight="1.0000000000000000e+00" itree="27">
      <Node pos="s" depth="0" NCoef="0" IVar="10" Cut="8.9411178588867188e+01" cType="0" res="3.7292838096618652e-02" rms="3.5508865118026733e-01" purity="5.7144588232040405e-01" nType="0">
        <Node pos="l" depth="1" NCoef="0" IVar="-1" Cut="0.0000000000000000e+00" cType="1" res="1.8386831507086754e-02" rms="2.2988742589950562e-01" purity="9.1919040679931641e-01" nType="-99"/>
        <Node pos="r" depth="1" NCoef="0" IVar="6" Cut="2.3090884685516357e+00" cType="1" res="-1.1546944826841354e-01" rms="3.7366798520088196e-01" purity="2.6897180080413818e-01" nType="0">
          <Node pos="l" depth="2" NCoef="0" IVar="-1" Cut="0.0000000000000000e+00" cType="1" res="1.4721378684043884e-03" rms="4.2726039886474609e-01" purity="4.8527917265892029e-01" nType="-99"/>
          <Node pos="r" depth="2" NCoef="0" IVar="-1" Cut="0.0000000000000000e+00" cType="1" res="-1.5125454403460026e-02" rms="3.0712568759918213e-01" purity="1.3386669754981995e-01" nType="-99"/>
        </Node>
      </Node>
    </BinaryTree>
    <BinaryTree type="DecisionTree" boostWeight="1.0000000000000000e+00" itree="28">
      <Node pos="s" depth="0" NCoef="0" IVar="5" Cut="1.7247061729431152e+00" cType="0" res="3.0872393399477005e-02" rms="3.5583853721618652e-01" purity="5.6385993957519531e-01" nType="0">
        <Node pos="l" depth="1" NCoef="0" IVar="-1" Cut="0.0000000000000000e+00" cType="1" res="1.7422331497073174e-02" rms="1.5622821450233459e-01" purity="9.7371977567672729e-01" nType="-99"/>
        <Node pos="r" depth="1" NCoef="0" IVar="1" Cut="4.4614391326904297e+01" cType="0" res="-9.4980314373970032e-02" rms="3.8826224207878113e-01" purity="3.0359080433845520e-01" nType="0">
          <Node pos="l" depth="2" NCoef="0" IVar="-1" Cut="0.0000000000000000e+00" cType="1" res="7.4500632472336292e-03" rms="4.3764966726303101e-01" purity="6.5225929021835327e-01" nType="-99"/>
          <Node pos="r" depth="2" NCoef="0" IVar="-1" Cut="0.0000000000000000e+00" cType="1" res="-1.3145281001925468e-02" rms="3.4434309601783752e-01" purity="1.7403933405876160e-01" nType="-99"/>
        </Node>
      </Node>
    </BinaryTree>
    <BinaryTree type="DecisionTree" boostWeight="1.0000000000000000e+00" itree="29">
      <Node pos="s" depth="0" NCoef="0" IVar="5" Cut="1.6616102457046509e+00" cType="0" res="3.5718176513910294e-02" rms="3.5144865512847900e-01" purity="5.7010877132415771e-01" nType="0">
        <Node pos="l" depth="1" NCoef="0" IVar="-1" Cut="0.0000000000000000e+00" cType="1" res="1.6862813383340836e-02" rms="1.6877025365829468e-01" purity="9.6840929985046387e-01" nType="-99"/>
        <Node pos="r" depth="1" NCoef="0" IVar="1" Cut="3.4505542755126953e+01" cType="0" res="-9.4081297516822815e-02" rms="3.8785108923912048e-01" purity="2.8726461529731750e-01" nType="0">
          <Node pos="l" depth="2" NCoef="0" IVar="-1" Cut="0.0000000000000000e+00" cType="1" res="5.3741154260933399e-04" rms="4.5376005768775940e-01" purity="4.8626303672790527e-01" nType="-99"/>
          <Node pos="r" depth="2" NCoef="0" IVar="-1" Cut="0.0000000000000000e+00" cType="1" res="-1.7382431775331497e-02" rms="2.6750645041465759e-01" purity="8.1058971583843231e-02" nType="-99"/>
        </Node>
      </Node>
    </BinaryTree>
    <BinaryTree type="DecisionTree" boostWeight="1.0000000000000000e+00" itree="30">
      <Node pos="s" depth="0" NCoef="0" IVar="5" Cut="1.7411354780197144e+00" cType="0" res="2.7543073520064354e-02" rms="3.4918746352195740e-01" purity="5.6117731332778931e-01" nType="0">
        <Node pos="l" depth="1" NCoef="0" IVar="-1" Cut="0.0000000000000000e+00" cType="1" res="1.7815042287111282e-02" rms="1.3181574642658234e-01" purity="9.8151838779449463e-01" nType="-99"/>
        <Node pos="r" depth="1" NCoef="0" IVar="1" Cut="3.3784591674804688e+01" cType="0" res="-9.3234203755855560e-02" rms="3.8504004478454590e-01" purity="3.0170390009880066e-01" nType="0">
          <Node pos="l" depth="2" NCoef="0" IVar="-1" Cut="0.0000000000000000e+00" cType="1" res="4.4793775305151939e-04" rms="4.4396942853927612e-01" purity="4.9569934606552124e-01" nType="-99"/>
          <Node pos="r" depth="2" NCoef="0" IVar="-1" Cut="0.0000000000000000e+00" cType="1" res="-1.7498159781098366e-02" rms="2.5870376825332642e-01" purity="7.6357007026672363e-02" nType="-99"/>
        </Node>
      </Node>
    </BinaryTree>
    <BinaryTree type="DecisionTree" boostWeight="1.0000000000000000e+00" itree="31">
      <Node pos="s" depth="0" NCoef="0" IVar="1" Cut="3.6984149932861328e+01" cType="0" res="2.7863152325153351e-02" rms="3.5108423233032227e-01" purity="5.6126117706298828e-01" nType="0">
        <Node pos="l" depth="1" NCoef="0" IVar="-1" Cut="0.0000000000000000e+00" cType="1" res="1.1473034508526325e-02" rms="3.2305705547332764e-01" purity="7.9763305187225342e-01" nType="-99"/>
        <Node pos="r" depth="1" NCoef="0" IVar="5" Cut="1.9530816078186035e+00" cType="0" res="-1.6075170040130615e-01" rms="3.1485697627067566e-01" purity="1.5747939050197601e-01" nType="0">
          <Node pos="l" depth="2" NCoef="0" IVar="-1" Cut="0.0000000000000000e+00" cType="1" res="1.2313106097280979e-02" rms="2.3997730016708374e-01" purity="9.3686187267303467e-01" nType="-99"/>
          <Node pos="r" depth="2" NCoef="0" IVar="-1" Cut="0.0000000000000000e+00" cType="1" res="-1.5219621360301971e-02" rms="3.0918267369270325e-01" purity="1.2395387142896652e-01" nType="-99"/>
        </Node>
      </Node>
    </BinaryTree>
    <BinaryTree type="DecisionTree" boostWeight="1.0000000000000000e+00" itree="32">
      <Node pos="s" depth="0" NCoef="0" IVar="10" Cut="8.3309165954589844e+01" cType="0" res="2.9176719486713409e-02" rms="3.4484040737152100e-01" purity="5.6725698709487915e-01" nType="0">
        <Node pos="l" depth="1" NCoef="0" IVar="-1" Cut="0.0000000000000000e+00" cType="1" res="1.5025243163108826e-02" rms="2.6662957668304443e-01" purity="8.7290674448013306e-01" nType="-99"/>
        <Node pos="r" depth="1" NCoef="0" IVar="6" Cut="2.4548640251159668e+00" cType="1" res="-1.3048999011516571e-01" rms="3.5695421695709229e-01" purity="2.1042576432228088e-01" nType="0">
          <Node pos="l" depth="2" NCoef="0" IVar="-1" Cut="0.0000000000000000e+00" cType="1" res="-2.6346894446760416e-03" rms="4.2808085680007935e-01" purity="3.7649074196815491e-01" nType="-99"/>
          <Node pos="r" depth="2" NCoef="0" IVar="-1" Cut="0.0000000000000000e+00" cType="1" res="-1.5619916841387749e-02" rms="2.8021657466888428e-01" purity="9.7063504159450531e-02" nType="-99"/>
        </Node>
      </Node>
    </BinaryTree>
    <BinaryTree type="DecisionTree" boostWeight="1.0000000000000000e+00" itree="33">
      <Node pos="s" depth="0" NCoef="0" IVar="5" Cut="1.7190905809402466e+00" cType="0" res="3.1205356121063232e-02" rms="3.4445860981941223e-01" purity="5.7157027721405029e-01" nType="0">
        <Node pos="l" depth="1" NCoef="0" IVar="-1" Cut="0.0000000000000000e+00" cType="1" res="1.7343852669000626e-02" rms="1.5180858969688416e-01" purity="9.7511744499206543e-01" nType="-99"/>
        <Node pos="r" depth="1" NCoef="0" IVar="1" Cut="3.3784591674804688e+01" cType="0" res="-7.8813001513481140e-02" rms="3.8622072339057922e-01" purity="3.1219127774238586e-01" nType="0">
          <Node pos="l" depth="2" NCoef="0" IVar="-1" Cut="0.0000000000000000e+00" cType="1" res="7.6233170693740249e-04" rms="4.4453373551368713e-01" purity="5.0319182872772217e-01" nType="-99"/>
          <Node pos="r" depth="2" NCoef="0" IVar="-1" Cut="0.0000000000000000e+00" cType="1" res="-1.7000632360577583e-02" rms="2.6317226886749268e-01" purity="7.9760029911994934e-02" nType="-99"/>
        </Node>
      </Node>
    </BinaryTree>
    <BinaryTree type="DecisionTree" boostWeight="1.0000000000000000e+00" itree="34">
      <Node pos="s" depth="0" NCoef="0" IVar="5" Cut="1.7180974483489990e+00" cType="0" res="2.8313852846622467e-02" rms="3.4262889623641968e-01" purity="5.7014989852905273e-01" nType="0">
        <Node pos="l" depth="1" NCoef="0" IVar="-1" Cut="0.0000000000000000e+00" cType="1" res="1.6157094389200211e-02" rms="1.5925306081771851e-01" purity="9.7259521484375000e-01" nType="-99"/>
        <Node pos="r" depth="1" NCoef="0" IVar="1" Cut="3.2800662994384766e+01" cType="0" res="-8.0439507961273193e-02" rms="3.8484734296798706e-01" purity="3.0548557639122009e-01" nType="0">
          <Node pos="l" depth="2" NCoef="0" IVar="-1" Cut="0.0000000000000000e+00" cType="1" res="3.5885680699720979e-04" rms="4.4251570105552673e-01" purity="4.8466178774833679e-01" nType="-99"/>
          <Node pos="r" depth="2" NCoef="0" IVar="-1" Cut="0.0000000000000000e+00" cType="1" res="-1.7442760989069939e-02" rms="2.4897782504558563e-01" purity="6.6083729267120361e-02" nType="-99"/>
        </Node>
      </Node>
    </BinaryTree>
    <BinaryTree type="DecisionTree" boostWeight="1.0000000000000000e+00" itree="35">
      <Node pos="s" depth="0" NCoef="0" IVar="5" Cut="1.2869092226028442e+00" cType="0" res="2.8612917289137840e-02" rms="3.3925598859786987e-01" purity="5.6768554449081421e-01" nType="0">
        <Node pos="l" depth="1" NCoef="0" IVar="-1" Cut="0.0000000000000000e+00" cType="1" res="1.1446961201727390e-02" rms="2.8279051184654236e-01" purity="8.4001284837722778e-01" nType="-99"/>
        <Node pos="r" depth="1" NCoef="0" IVar="4" Cut="1.8700958251953125e+01" cType="1" res="-1.3004434108734131e-01" rms="3.4914866089820862e-01" purity="1.8193660676479340e-01" nType="0">
          <Node pos="l" depth="2" NCoef="0" IVar="-1" Cut="0.0000000000000000e+00" cType="1" res="-5.0038974732160568e-03" rms="4.2375600337982178e-01" purity="3.0064210295677185e-01" nType="-99"/>
          <Node pos="r" depth="2" NCoef="0" IVar="-1" Cut="0.0000000000000000e+00" cType="1" res="-1.7327196896076202e-02" rms="2.5867831707000732e-01" purity="8.8207058608531952e-02" nType="-99"/>
        </Node>
      </Node>
    </BinaryTree>
    <BinaryTree type="DecisionTree" boostWeight="1.0000000000000000e+00" itree="36">
      <Node pos="s" depth="0" NCoef="0" IVar="5" Cut="1.6695986986160278e+00" cType="0" res="2.8194770216941833e-02" rms="3.3736279606819153e-01" purity="5.6766623258590698e-01" nType="0">
        <Node pos="l" depth="1" NCoef="0" IVar="-1" Cut="0.0000000000000000e+00" cType="1" res="1.6669005155563354e-02" rms="1.5919089317321777e-01" purity="9.7111219167709351e-01" nType="-99"/>
        <Node pos="r" depth="1" NCoef="0" IVar="4" Cut="1.7082605361938477e+01" cType="1" res="-7.9632148146629333e-02" rms="3.8237467408180237e-01" purity="2.8990292549133301e-01" nType="0">
          <Node pos="l" depth="2" NCoef="0" IVar="-1" Cut="0.0000000000000000e+00" cType="1" res="2.0856317132711411e-03" rms="4.3240919709205627e-01" purity="4.4842401146888733e-01" nType="-99"/>
          <Node pos="r" depth="2" NCoef="0" IVar="-1" Cut="0.0000000000000000e+00" cType="1" res="-1.3198344968259335e-02" rms="3.1592062115669250e-01" purity="1.6588751971721649e-01" nType="-99"/>
        </Node>
      </Node>
    </BinaryTree>
    <BinaryTree type="DecisionTree" boostWeight="1.0000000000000000e+00" itree="37">
      <Node pos="s" depth="0" NCoef="0" IVar="5" Cut="1.2980656623840332e+00" cType="0" res="2.9220631346106529e-02" rms="3.3503305912017822e-01" purity="5.7022005319595337e-01" nType="0">
        <Node pos="l" depth="1" NCoef="0" IVar="-1" Cut="0.0000000000000000e+00" cType="1" res="1.1399326846003532e-02" rms="2.7532684803009033e-01" purity="8.4762525558471680e-01" nType="-99"/>
        <Node pos="r" depth="1" NCoef="0" IVar="5" Cut="1.0424841642379761e+00" cType="0" res="-1.2000332772731781e-01" rms="3.5274323821067810e-01" purity="1.8570348620414734e-01" nType="0">
          <Node pos="l" depth="2" NCoef="0" IVar="-1" Cut="0.0000000000000000e+00" cType="1" res="-4.2166346684098244e-03" rms="3.8924953341484070e-01" purity="2.6303005218505859e-01" nType="-99"/>
          <Node pos="r" depth="2" NCoef="0" IVar="-1" Cut="0.0000000000000000e+00" cType="1" res="-1.9710605964064598e-02" rms="3.1141588091850281e-01" purity="1.2571710348129272e-01" nType="-99"/>
        </Node>
      </Node>
    </BinaryTree>
    <BinaryTree type="DecisionTree" boostWeight="1.0000000000000000e+00" itree="38">
      <Node pos="s" depth="0" NCoef="0" IVar="5" Cut="1.3370057344436646e+00" cType="0" res="2.5877239182591438e-02" rms="3.3178815245628357e-01" purity="5.6680655479431152e-01" nType="0">
        <Node pos="l" depth="1" NCoef="0" IVar="-1" Cut="0.0000000000000000e+00" cType="1" res="1.1991851963102818e-02" rms="2.6616260409355164e-01" purity="8.6696684360504150e-01" nType="-99"/>
        <Node pos="r" depth="1" NCoef="0" IVar="4" Cut="1.2736359596252441e+01" cType="1" res="-1.1731306463479996e-01" rms="3.5106635093688965e-01" purity="1.8573999404907227e-01" nType="0">
          <Node pos="l" depth="2" NCoef="0" IVar="-1" Cut="0.0000000000000000e+00" cType="1" res="7.9948530765250325e-04" rms="4.5118522644042969e-01" purity="3.7850806117057800e-01" nType="-99"/>
          <Node pos="r" depth="2" NCoef="0" IVar="-1" Cut="0.0000000000000000e+00" cType="1" res="-1.4596393331885338e-02" rms="2.9562026262283325e-01" purity="1.1750802397727966e-01" nType="-99"/>
        </Node>
      </Node>
    </BinaryTree>
    <BinaryTree type="DecisionTree" boostWeight="1.0000000000000000e+00" itree="39">
      <Node pos="s" depth="0" NCoef="0" IVar="1" Cut="4.0430362701416016e+01" cType="0" res="2.4802494794130325e-02" rms="3.3194711804389954e-01" purity="5.6817024946212769e-01" nType="0">
        <Node pos="l" depth="1" NCoef="0" IVar="-1" Cut="0.0000000000000000e+00" cType="1" res="1.1685439385473728e-02" rms="2.9362717270851135e-01" purity="8.3498585224151611e-01" nType="-99"/>
        <Node pos="r" depth="1" NCoef="0" IVar="6" Cut="2.3479855060577393e+00" cType="1" res="-1.1530526727437973e-01" rms="3.2860514521598816e-01" purity="2.1102264523506165e-01" nType="0">
          <Node pos="l" depth="2" NCoef="0" IVar="-1" Cut="0.0000000000000000e+00" cType="1" res="-1.6015389701351523e-04" rms="3.9136075973510742e-01" purity="4.2296868562698364e-01" nType="-99"/>
          <Node pos="r" depth="2" NCoef="0" IVar="-1" Cut="0.0000000000000000e+00" cType="1" res="-1.4832938089966774e-02" rms="2.7802065014839172e-01" purity="1.0973845422267914e-01" nType="-99"/>
        </Node>
      </Node>
    </BinaryTree>
    <BinaryTree type="DecisionTree" boostWeight="1.0000000000000000e+00" itree="40">
      <Node pos="s" depth="0" NCoef="0" IVar="5" Cut="1.3338593244552612e+00" cType="0" res="2.2660695016384125e-02" rms="3.2897353172302246e-01" purity="5.6580942869186401e-01" nType="0">
        <Node pos="l" depth="1" NCoef="0" IVar="-1" Cut="0.0000000000000000e+00" cType="1" res="1.1362939141690731e-02" rms="2.6749071478843689e-01" purity="8.6286330223083496e-01" nType="-99"/>
        <Node pos="r" depth="1" NCoef="0" IVar="4" Cut="1.1238555908203125e+01" cType="1" res="-1.1272391676902771e-01" rms="3.4956067800521851e-01" purity="1.8758234381675720e-01" nType="0">
          <Node pos="l" depth="2" NCoef="0" IVar="-1" Cut="0.0000000000000000e+00" cType="1" res="5.7055678917095065e-04" rms="4.5299929380416870e-01" purity="3.8566350936889648e-01" nType="-99"/>
          <Node pos="r" depth="2" NCoef="0" IVar="-1" Cut="0.0000000000000000e+00" cType="1" res="-1.4230565167963505e-02" rms="3.0155929923057556e-01" purity="1.2643831968307495e-01" nType="-99"/>
        </Node>
      </Node>
    </BinaryTree>
    <BinaryTree type="DecisionTree" boostWeight="1.0000000000000000e+00" itree="41">
      <Node pos="s" depth="0" NCoef="0" IVar="1" Cut="4.1501728057861328e+01" cType="0" res="2.3043347522616386e-02" rms="3.2837107777595520e-01" purity="5.6535249948501587e-01" nType="0">
        <Node pos="l" depth="1" NCoef="0" IVar="-1" Cut="0.0000000000000000e+00" cType="1" res="1.2383874505758286e-02" rms="2.8182744979858398e-01" purity="8.5211652517318726e-01" nType="-99"/>
        <Node pos="r" depth="1" NCoef="0" IVar="6" Cut="2.3091492652893066e+00" cType="1" res="-1.0899194329977036e-01" rms="3.3090421557426453e-01" purity="2.2441175580024719e-01" nType="0">
          <Node pos="l" depth="2" NCoef="0" IVar="-1" Cut="0.0000000000000000e+00" cType="1" res="4.0869013173505664e-04" rms="3.8916081190109253e-01" purity="4.5181113481521606e-01" nType="-99"/>
          <Node pos="r" depth="2" NCoef="0" IVar="-1" Cut="0.0000000000000000e+00" cType="1" res="-1.5551720745861530e-02" rms="2.7981138229370117e-01" purity="1.0908237844705582e-01" nType="-99"/>
        </Node>
      </Node>
    </BinaryTree>
    <BinaryTree type="DecisionTree" boostWeight="1.0000000000000000e+00" itree="42">
      <Node pos="s" depth="0" NCoef="0" IVar="1" Cut="3.6984691619873047e+01" cType="0" res="2.2441757842898369e-02" rms="3.2915961742401123e-01" purity="5.6300133466720581e-01" nType="0">
        <Node pos="l" depth="1" NCoef="0" IVar="-1" Cut="0.0000000000000000e+00" cType="1" res="9.9071571603417397e-03" rms="3.1100475788116455e-01" purity="7.9697710275650024e-01" nType="-99"/>
        <Node pos="r" depth="1" NCoef="0" IVar="6" Cut="2.2962524890899658e+00" cType="1" res="-1.2586112320423126e-01" rms="3.0603289604187012e-01" purity="1.5932267904281616e-01" nType="0">
          <Node pos="l" depth="2" NCoef="0" IVar="-1" Cut="0.0000000000000000e+00" cType="1" res="-1.8583672353997827e-03" rms="3.8311222195625305e-01" purity="3.6456289887428284e-01" nType="-99"/>
          <Node pos="r" depth="2" NCoef="0" IVar="-1" Cut="0.0000000000000000e+00" cType="1" res="-1.6266200691461563e-02" rms="2.6158159971237183e-01" purity="8.3728432655334473e-02" nType="-99"/>
        </Node>
      </Node>
    </BinaryTree>
    <BinaryTree type="DecisionTree" boostWeight="1.0000000000000000e+00" itree="43">
      <Node pos="s" depth="0" NCoef="0" IVar="5" Cut="1.7397584915161133e+00" cType="0" res="2.3123893886804581e-02" rms="3.2488098740577698e-01" purity="5.6952816247940063e-01" nType="0">
        <Node pos="l" depth="1" NCoef="0" IVar="-1" Cut="0.0000000000000000e+00" cType="1" res="1.5653425827622414e-02" rms="1.3627386093139648e-01" purity="9.7968286275863647e-01" nType="-99"/>
        <Node pos="r" depth="1" NCoef="0" IVar="4" Cut="1.7681951522827148e+01" cType="1" res="-6.7446395754814148e-02" rms="3.7382310628890991e-01" purity="3.0874857306480408e-01" nType="0">
          <Node pos="l" depth="2" NCoef="0" IVar="-1" Cut="0.0000000000000000e+00" cType="1" res="2.0067498553544283e-03" rms="4.1759324073791504e-01" purity="4.6120694279670715e-01" nType="-99"/>
          <Node pos="r" depth="2" NCoef="0" IVar="-1" Cut="0.0000000000000000e+00" cType="1" res="-1.2701689265668392e-02" rms="3.1051903963088989e-01" purity="1.7451085150241852e-01" nType="-99"/>
        </Node>
      </Node>
    </BinaryTree>
    <BinaryTree type="DecisionTree" boostWeight="1.0000000000000000e+00" itree="44">
      <Node pos="s" depth="0" NCoef="0" IVar="1" Cut="3.4525066375732422e+01" cType="0" res="2.1668020635843277e-02" rms="3.2462152838706970e-01" purity="5.6433051824569702e-01" nType="0">
        <Node pos="l" depth="1" NCoef="0" IVar="-1" Cut="0.0000000000000000e+00" cType="1" res="8.8780764490365982e-03" rms="3.1521290540695190e-01" purity="7.6601213216781616e-01" nType="-99"/>
        <Node pos="r" depth="1" NCoef="0" IVar="5" Cut="2.0527579784393311e+00" cType="0" res="-1.4250540733337402e-01" rms="2.8192996978759766e-01" purity="1.1948627233505249e-01" nType="0">
          <Node pos="l" depth="2" NCoef="0" IVar="-1" Cut="0.0000000000000000e+00" cType="1" res="1.4050561934709549e-02" rms="7.4826009571552277e-02" purity="9.9467480182647705e-01" nType="-99"/>
          <Node pos="r" depth="2" NCoef="0" IVar="-1" Cut="0.0000000000000000e+00" cType="1" res="-1.5316156670451164e-02" rms="2.8011846542358398e-01" purity="9.9123924970626831e-02" nType="-99"/>
        </Node>
      </Node>
    </BinaryTree>
    <BinaryTree type="DecisionTree" boostWeight="1.0000000000000000e+00" itree="45">
      <Node pos="s" depth="0" NCoef="0" IVar="5" Cut="1.3145977258682251e+00" cType="0" res="2.0942224189639091e-02" rms="3.2218617200851440e-01" purity="5.6425875425338745e-01" nType="0">
        <Node pos="l" depth="1" NCoef="0" IVar="-1" Cut="0.0000000000000000e+00" cType="1" res="1.0348512791097164e-02" rms="2.6799032092094421e-01" purity="8.4983283281326294e-01" nType="-99"/>
        <Node pos="r" depth="1" NCoef="0" IVar="4" Cut="2.1338178634643555e+01" cType="1" res="-1.0507225990295410e-01" rms="3.4464368224143982e-01" purity="1.8266986310482025e-01" nType="0">
          <Node pos="l" depth="2" NCoef="0" IVar="-1" Cut="0.0000000000000000e+00" cType="1" res="-5.9998654760420322e-03" rms="3.9807930588722229e-01" purity="2.6550105214118958e-01" nType="-99"/>
          <Node pos="r" depth="2" NCoef="0" IVar="-1" Cut="0.0000000000000000e+00" cType="1" res="-1.7143979668617249e-02" rms="2.4652975797653198e-01" purity="7.6723821461200714e-02" nType="-99"/>
        </Node>
      </Node>
    </BinaryTree>
    <BinaryTree type="DecisionTree" boostWeight="1.0000000000000000e+00" itree="46">
      <Node pos="s" depth="0" NCoef="0" IVar="5" Cut="1.3304904699325562e+00" cType="0" res="2.4698568508028984e-02" rms="3.2306239008903503e-01" purity="5.7339775562286377e-01" nType="0">
        <Node pos="l" depth="1" NCoef="0" IVar="-1" Cut="0.0000000000000000e+00" cType="1" res="1.0884682647883892e-02" rms="2.6198837161064148e-01" purity="8.6647528409957886e-01" nType="-99"/>
        <Node pos="r" depth="1" NCoef="0" IVar="4" Cut="2.0588983535766602e+01" cType="1" res="-9.5301829278469086e-02" rms="3.5395389795303345e-01" purity="1.9279213249683380e-01" nType="0">
          <Node pos="l" depth="2" NCoef="0" IVar="-1" Cut="0.0000000000000000e+00" cType="1" res="-4.1260621510446072e-03" rms="4.1222015023231506e-01" purity="2.8657063841819763e-01" nType="-99"/>
          <Node pos="r" depth="2" NCoef="0" IVar="-1" Cut="0.0000000000000000e+00" cType="1" res="-1.6252819448709488e-02" rms="2.5696638226509094e-01" purity="8.4197066724300385e-02" nType="-99"/>
        </Node>
      </Node>
    </BinaryTree>
    <BinaryTree type="DecisionTree" boostWeight="1.0000000000000000e+00" itree="47">
      <Node pos="s" depth="0" NCoef="0" IVar="5" Cut="1.7142457962036133e+00" cType="0" res="2.0771052688360214e-02" rms="3.2290771603584290e-01" purity="5.6931006908416748e-01" nType="0">
        <Node pos="l" depth="1" NCoef="0" IVar="-1" Cut="0.0000000000000000e+00" cType="1" res="1.5283796936273575e-02" rms="1.4959961175918579e-01" purity="9.7536587715148926e-01" nType="-99"/>
        <Node pos="r" depth="1" NCoef="0" IVar="4" Cut="1.9540054321289062e+01" cType="1" res="-6.2680639326572418e-02" rms="3.7411004304885864e-01" purity="3.0479916930198669e-01" nType="0">
          <Node pos="l" depth="2" NCoef="0" IVar="-1" Cut="0.0000000000000000e+00" cType="1" res="1.2836793903261423e-03" rms="4.1005349159240723e-01" purity="4.3873187899589539e-01" nType="-99"/>
          <Node pos="r" depth="2" NCoef="0" IVar="-1" Cut="0.0000000000000000e+00" cType="1" res="-1.3274763710796833e-02" rms="3.0868366360664368e-01" purity="1.5635834634304047e-01" nType="-99"/>
        </Node>
      </Node>
    </BinaryTree>
    <BinaryTree type="DecisionTree" boostWeight="1.0000000000000000e+00" itree="48">
      <Node pos="s" depth="0" NCoef="0" IVar="1" Cut="3.2800109863281250e+01" cType="0" res="2.2524045780301094e-02" rms="3.1936872005462646e-01" purity="5.7220262289047241e-01" nType="0">
        <Node pos="l" depth="1" NCoef="0" IVar="-1" Cut="0.0000000000000000e+00" cType="1" res="7.7344467863440514e-03" rms="3.1568083167076111e-01" purity="7.4521231651306152e-01" nType="-99"/>
        <Node pos="r" depth="1" NCoef="0" IVar="6" Cut="2.1343436241149902e+00" cType="1" res="-1.4085136353969574e-01" rms="2.6785358786582947e-01" purity="1.0498838126659393e-01" nType="0">
          <Node pos="l" depth="2" NCoef="0" IVar="-1" Cut="0.0000000000000000e+00" cType="1" res="-4.9419132992625237e-03" rms="3.5992255806922913e-01" purity="2.8981634974479675e-01" nType="-99"/>
          <Node pos="r" depth="2" NCoef="0" IVar="-1" Cut="0.0000000000000000e+00" cType="1" res="-1.7542866989970207e-02" rms="2.3267276585102081e-01" purity="5.7742848992347717e-02" nType="-99"/>
        </Node>
      </Node>
    </BinaryTree>
    <BinaryTree type="DecisionTree" boostWeight="1.0000000000000000e+00" itree="49">
      <Node pos="s" depth="0" NCoef="0" IVar="1" Cut="4.1497772216796875e+01" cType="0" res="2.0278198644518852e-02" rms="3.1970810890197754e-01" purity="5.6828951835632324e-01" nType="0">
        <Node pos="l" depth="1" NCoef="0" IVar="-1" Cut="0.0000000000000000e+00" cType="1" res="1.1744933202862740e-02" rms="2.7481311559677124e-01" purity="8.5524868965148926e-01" nType="-99"/>
        <Node pos="r" depth="1" NCoef="0" IVar="4" Cut="1.4145595550537109e+01" cType="1" res="-9.3334712088108063e-02" rms="3.3225944638252258e-01" purity="2.2539944946765900e-01" nType="0">
          <Node pos="l" depth="2" NCoef="0" IVar="-1" Cut="0.0000000000000000e+00" cType="1" res="1.7323000356554985e-03" rms="4.0540161728858948e-01" purity="4.4486472010612488e-01" nType="-99"/>
          <Node pos="r" depth="2" NCoef="0" IVar="-1" Cut="0.0000000000000000e+00" cType="1" res="-1.3709538616240025e-02" rms="2.7931824326515198e-01" purity="1.2661094963550568e-01" nType="-99"/>
        </Node>
      </Node>
    </BinaryTree>
    <BinaryTree type="DecisionTree" boostWeight="1.0000000000000000e+00" itree="50">
      <Node pos="s" depth="0" NCoef="0" IVar="1" Cut="3.4769069671630859e+01" cType="0" res="2.1468780934810638e-02" rms="3.1633201241493225e-01" purity="5.7089209556579590e-01" nType="0">
        <Node pos="l" depth="1" NCoef="0" IVar="-1" Cut="0.0000000000000000e+00" cType="1" res="8.5607320070266724e-03" rms="3.0720075964927673e-01" purity="7.7649199962615967e-01" nType="-99"/>
        <Node pos="r" depth="1" NCoef="0" IVar="6" Cut="2.1440060138702393e+00" cType="1" res="-1.1857970803976059e-01" rms="2.8833660483360291e-01" purity="1.3773506879806519e-01" nType="0">
          <Node pos="l" depth="2" NCoef="0" IVar="-1" Cut="0.0000000000000000e+00" cType="1" res="-2.2254141513258219e-03" rms="3.6919972300529480e-01" purity="3.4729409217834473e-01" nType="-99"/>
          <Node pos="r" depth="2" NCoef="0" IVar="-1" Cut="0.0000000000000000e+00" cType="1" res="-1.6016254201531410e-02" rms="2.5143185257911682e-01" purity="7.3637224733829498e-02" nType="-99"/>
        </Node>
      </Node>
    </BinaryTree>
    <BinaryTree type="DecisionTree" boostWeight="1.0000000000000000e+00" itree="51">
      <Node pos="s" depth="0" NCoef="0" IVar="5" Cut="1.3060437440872192e+00" cType="0" res="1.4351569116115570e-02" rms="3.1856140494346619e-01" purity="5.6585389375686646e-01" nType="0">
        <Node pos="l" depth="1" NCoef="0" IVar="-1" Cut="0.0000000000000000e+00" cType="1" res="9.2765437439084053e-03" rms="2.6912301778793335e-01" purity="8.4799951314926147e-01" nType="-99"/>
        <Node pos="r" depth="1" NCoef="0" IVar="0" Cut="3.0016996383666992e+01" cType="0" res="-1.0161221027374268e-01" rms="3.4349715709686279e-01" purity="1.7956340312957764e-01" nType="0">
          <Node pos="l" depth="2" NCoef="0" IVar="-1" Cut="0.0000000000000000e+00" cType="1" res="-7.5974683277308941e-03" rms="3.7323758006095886e-01" purity="2.4366478621959686e-01" nType="-99"/>
          <Node pos="r" depth="2" NCoef="0" IVar="-1" Cut="0.0000000000000000e+00" cType="1" res="-1.2595436535775661e-02" rms="3.0225676298141479e-01" purity="1.1486762017011642e-01" nType="-99"/>
        </Node>
      </Node>
    </BinaryTree>
    <BinaryTree type="DecisionTree" boostWeight="1.0000000000000000e+00" itree="52">
      <Node pos="s" depth="0" NCoef="0" IVar="5" Cut="1.7382891178131104e+00" cType="0" res="1.5012230724096298e-02" rms="3.1679797172546387e-01" purity="5.6476980447769165e-01" nType="0">
        <Node pos="l" depth="1" NCoef="0" IVar="-1" Cut="0.0000000000000000e+00" cType="1" res="1.5207944437861443e-02" rms="1.4060834050178528e-01" purity="9.7802644968032837e-01" nType="-99"/>
        <Node pos="r" depth="1" NCoef="0" IVar="6" Cut="2.6685788631439209e+00" cType="1" res="-6.1771117150783539e-02" rms="3.6821007728576660e-01" purity="3.0571699142456055e-01" nType="0">
          <Node pos="l" depth="2" NCoef="0" IVar="-1" Cut="0.0000000000000000e+00" cType="1" res="6.6397455520927906e-04" rms="4.0611028671264648e-01" purity="4.3784630298614502e-01" nType="-99"/>
          <Node pos="r" depth="2" NCoef="0" IVar="-1" Cut="0.0000000000000000e+00" cType="1" res="-1.2911952100694180e-02" rms="3.0050292611122131e-01" purity="1.5406075119972229e-01" nType="-99"/>
        </Node>
      </Node>
    </BinaryTree>
    <BinaryTree type="DecisionTree" boostWeight="1.0000000000000000e+00" itree="53">
      <Node pos="s" depth="0" NCoef="0" IVar="0" Cut="4.2665161132812500e+01" cType="0" res="1.5621426515281200e-02" rms="3.1408837437629700e-01" purity="5.6574726104736328e-01" nType="0">
        <Node pos="l" depth="1" NCoef="0" IVar="-1" Cut="0.0000000000000000e+00" cType="1" res="1.4482191763818264e-02" rms="2.2608339786529541e-01" purity="8.9593875408172607e-01" nType="-99"/>
        <Node pos="r" depth="1" NCoef="0" IVar="5" Cut="1.0803796052932739e+00" cType="0" res="-7.6150134205818176e-02" rms="3.5557529330253601e-01" purity="2.5259551405906677e-01" nType="0">
          <Node pos="l" depth="2" NCoef="0" IVar="-1" Cut="0.0000000000000000e+00" cType="1" res="-6.6672830143943429e-04" rms="3.9084535837173462e-01" purity="3.8904660940170288e-01" nType="-99"/>
          <Node pos="r" depth="2" NCoef="0" IVar="-1" Cut="0.0000000000000000e+00" cType="1" res="-1.6995100304484367e-02" rms="3.0666467547416687e-01" purity="1.2497676908969879e-01" nType="-99"/>
        </Node>
      </Node>
    </BinaryTree>
    <BinaryTree type="DecisionTree" boostWeight="1.0000000000000000e+00" itree="54">
      <Node pos="s" depth="0" NCoef="0" IVar="10" Cut="9.4959701538085938e+01" cType="0" res="1.2849161401391029e-02" rms="3.1591266393661499e-01" purity="5.6498128175735474e-01" nType="0">
        <Node pos="l" depth="1" NCoef="0" IVar="-1" Cut="0.0000000000000000e+00" cType="1" res="1.5810264274477959e-02" rms="1.9602128863334656e-01" purity="9.4051367044448853e-01" nType="-99"/>
        <Node pos="r" depth="1" NCoef="0" IVar="6" Cut="2.6103558540344238e+00" cType="1" res="-6.0942716896533966e-02" rms="3.5735461115837097e-01" purity="3.1157556176185608e-01" nType="0">
          <Node pos="l" depth="2" NCoef="0" IVar="-1" Cut="0.0000000000000000e+00" cType="1" res="1.2586787343025208e-03" rms="3.9197409152984619e-01" purity="4.7840049862861633e-01" nType="-99"/>
          <Node pos="r" depth="2" NCoef="0" IVar="-1" Cut="0.0000000000000000e+00" cType="1" res="-1.2891531921923161e-02" rms="2.9535579681396484e-01" purity="1.3209496438503265e-01" nType="-99"/>
        </Node>
      </Node>
    </BinaryTree>
    <BinaryTree type="DecisionTree" boostWeight="1.0000000000000000e+00" itree="55">
      <Node pos="s" depth="0" NCoef="0" IVar="1" Cut="3.3261306762695312e+01" cType="0" res="1.3518476858735085e-02" rms="3.0964177846908569e-01" purity="5.6384432315826416e-01" nType="0">
        <Node pos="l" depth="1" NCoef="0" IVar="-1" Cut="0.0000000000000000e+00" cType="1" res="7.6574794948101044e-03" rms="3.0743977427482605e-01" purity="7.5427317619323730e-01" nType="-99"/>
        <Node pos="r" depth="1" NCoef="0" IVar="5" Cut="1.3395843505859375e+00" cType="0" res="-1.3221204280853271e-01" rms="2.6281288266181946e-01" purity="1.0614518821239471e-01" nType="0">
          <Node pos="l" depth="2" NCoef="0" IVar="-1" Cut="0.0000000000000000e+00" cType="1" res="-1.3145738281309605e-02" rms="3.7550815939903259e-01" purity="2.8059267997741699e-01" nType="-99"/>
          <Node pos="r" depth="2" NCoef="0" IVar="-1" Cut="0.0000000000000000e+00" cType="1" res="-1.5732355415821075e-02" rms="2.0422565937042236e-01" purity="4.6185199171304703e-02" nType="-99"/>
        </Node>
      </Node>
    </BinaryTree>
    <BinaryTree type="DecisionTree" boostWeight="1.0000000000000000e+00" itree="56">
      <Node pos="s" depth="0" NCoef="0" IVar="1" Cut="3.2857265472412109e+01" cType="0" res="1.6224928200244904e-02" rms="3.1418433785438538e-01" purity="5.6985968351364136e-01" nType="0">
        <Node pos="l" depth="1" NCoef="0" IVar="-1" Cut="0.0000000000000000e+00" cType="1" res="6.7506018094718456e-03" rms="3.1352400779724121e-01" purity="7.4243736267089844e-01" nType="-99"/>
        <Node pos="r" depth="1" NCoef="0" IVar="5" Cut="1.3840663433074951e+00" cType="0" res="-1.2562823295593262e-01" rms="2.6885530352592468e-01" purity="1.0241335630416870e-01" nType="0">
          <Node pos="l" depth="2" NCoef="0" IVar="-1" Cut="0.0000000000000000e+00" cType="1" res="-1.4136353507637978e-02" rms="3.8886848092079163e-01" purity="2.8609949350357056e-01" nType="-99"/>
          <Node pos="r" depth="2" NCoef="0" IVar="-1" Cut="0.0000000000000000e+00" cType="1" res="-1.4748307876288891e-02" rms="2.1878090500831604e-01" purity="5.3206268697977066e-02" nType="-99"/>
        </Node>
      </Node>
    </BinaryTree>
    <BinaryTree type="DecisionTree" boostWeight="1.0000000000000000e+00" itree="57">
      <Node pos="s" depth="0" NCoef="0" IVar="1" Cut="3.2800109863281250e+01" cType="0" res="1.7833439633250237e-02" rms="3.1012997031211853e-01" purity="5.6719726324081421e-01" nType="0">
        <Node pos="l" depth="1" NCoef="0" IVar="-1" Cut="0.0000000000000000e+00" cType="1" res="7.5630126520991325e-03" rms="3.0958828330039978e-01" purity="7.5226223468780518e-01" nType="-99"/>
        <Node pos="r" depth="1" NCoef="0" IVar="5" Cut="1.3672999143600464e+00" cType="0" res="-1.2018306553363800e-01" rms="2.6540327072143555e-01" purity="9.9731251597404480e-02" nType="0">
          <Node pos="l" depth="2" NCoef="0" IVar="-1" Cut="0.0000000000000000e+00" cType="1" res="-1.2959801591932774e-02" rms="3.6697623133659363e-01" purity="2.5886741280555725e-01" nType="-99"/>
          <Node pos="r" depth="2" NCoef="0" IVar="-1" Cut="0.0000000000000000e+00" cType="1" res="-1.3391423970460892e-02" rms="2.2001846134662628e-01" purity="5.4208423942327499e-02" nType="-99"/>
        </Node>
      </Node>
    </BinaryTree>
    <BinaryTree type="DecisionTree" boostWeight="1.0000000000000000e+00" itree="58">
      <Node pos="s" depth="0" NCoef="0" IVar="5" Cut="1.7430953979492188e+00" cType="0" res="1.1037093587219715e-02" rms="3.1116533279418945e-01" purity="5.6208312511444092e-01" nType="0">
        <Node pos="l" depth="1" NCoef="0" IVar="-1" Cut="0.0000000000000000e+00" cType="1" res="1.3990799896419048e-02" rms="1.4606422185897827e-01" purity="9.7585660219192505e-01" nType="-99"/>
        <Node pos="r" depth="1" NCoef="0" IVar="4" Cut="1.3156602859497070e+01" cType="1" res="-5.6610640138387680e-02" rms="3.6282938718795776e-01" purity="3.0566054582595825e-01" nType="0">
          <Node pos="l" depth="2" NCoef="0" IVar="-1" Cut="0.0000000000000000e+00" cType="1" res="4.1827703826129436e-03" rms="4.1501095890998840e-01" purity="5.1554226875305176e-01" nType="-99"/>
          <Node pos="r" depth="2" NCoef="0" IVar="-1" Cut="0.0000000000000000e+00" cType="1" res="-1.0256649926304817e-02" rms="3.2408383488655090e-01" purity="2.0333409309387207e-01" nType="-99"/>
        </Node>
      </Node>
    </BinaryTree>
    <BinaryTree type="DecisionTree" boostWeight="1.0000000000000000e+00" itree="59">
      <Node pos="s" depth="0" NCoef="0" IVar="5" Cut="1.1669257879257202e+00" cType="0" res="1.7740521579980850e-02" rms="3.0611634254455566e-01" purity="5.7363247871398926e-01" nType="0">
        <Node pos="l" depth="1" NCoef="0" IVar="-1" Cut="0.0000000000000000e+00" cType="1" res="7.4968002736568451e-03" rms="2.7662032842636108e-01" purity="7.7401381731033325e-01" nType="-99"/>
        <Node pos="r" depth="1" NCoef="0" IVar="9" Cut="2.9264768600463867e+01" cType="1" res="-1.0406482219696045e-01" rms="3.2834860682487488e-01" purity="1.5369430184364319e-01" nType="0">
          <Node pos="l" depth="2" NCoef="0" IVar="-1" Cut="0.0000000000000000e+00" cType="1" res="-8.8675282895565033e-03" rms="3.2032230496406555e-01" purity="1.5548804402351379e-01" nType="-99"/>
          <Node pos="r" depth="2" NCoef="0" IVar="-1" Cut="0.0000000000000000e+00" cType="1" res="-1.5649873763322830e-02" rms="3.3259660005569458e-01" purity="1.5111464262008667e-01" nType="-99"/>
        </Node>
      </Node>
    </BinaryTree>
    <BinaryTree type="DecisionTree" boostWeight="1.0000000000000000e+00" itree="60">
      <Node pos="s" depth="0" NCoef="0" IVar="10" Cut="7.9882225036621094e+01" cType="0" res="1.2281314469873905e-02" rms="3.0793827772140503e-01" purity="5.6017345190048218e-01" nType="0">
        <Node pos="l" depth="1" NCoef="0" IVar="-1" Cut="0.0000000000000000e+00" cType="1" res="1.0380850173532963e-02" rms="2.6409241557121277e-01" purity="8.3696562051773071e-01" nType="-99"/>
        <Node pos="r" depth="1" NCoef="0" IVar="4" Cut="1.0818983078002930e+01" cType="1" res="-8.2542710006237030e-02" rms="3.3589375019073486e-01" purity="1.8842926621437073e-01" nType="0">
          <Node pos="l" depth="2" NCoef="0" IVar="-1" Cut="0.0000000000000000e+00" cType="1" res="1.6742669977247715e-03" rms="4.4454389810562134e-01" purity="4.0797004103660583e-01" nType="-99"/>
          <Node pos="r" depth="2" NCoef="0" IVar="-1" Cut="0.0000000000000000e+00" cType="1" res="-1.0820636525750160e-02" rms="2.8839111328125000e-01" purity="1.2198003381490707e-01" nType="-99"/>
        </Node>
      </Node>
    </BinaryTree>
    <BinaryTree type="DecisionTree" boostWeight="1.0000000000000000e+00" itree="61">
      <Node pos="s" depth="0" NCoef="0" IVar="5" Cut="1.7379679679870605e+00" cType="0" res="1.0353887453675270e-02" rms="3.0934280157089233e-01" purity="5.6371968984603882e-01" nType="0">
        <Node pos="l" depth="1" NCoef="0" IVar="-1" Cut="0.0000000000000000e+00" cType="1" res="1.3613704591989517e-02" rms="1.4995878934860229e-01" purity="9.7403037548065186e-01" nType="-99"/>
        <Node pos="r" depth="1" NCoef="0" IVar="5" Cut="1.0522415637969971e+00" cType="0" res="-5.3648624569177628e-02" rms="3.6245486140251160e-01" purity="3.0443951487541199e-01" nType="0">
          <Node pos="l" depth="2" NCoef="0" IVar="-1" Cut="0.0000000000000000e+00" cType="1" res="-3.9728923002257943e-04" rms="3.8942885398864746e-01" purity="4.2946529388427734e-01" nType="-99"/>
          <Node pos="r" depth="2" NCoef="0" IVar="-1" Cut="0.0000000000000000e+00" cType="1" res="-1.7365282401442528e-02" rms="3.0410975217819214e-01" purity="1.1923252046108246e-01" nType="-99"/>
        </Node>
      </Node>
    </BinaryTree>
    <BinaryTree type="DecisionTree" boostWeight="1.0000000000000000e+00" itree="62">
      <Node pos="s" depth="0" NCoef="0" IVar="5" Cut="1.1144908666610718e+00" cType="0" res="1.3088803738355637e-02" rms="3.0870944261550903e-01" purity="5.6844562292098999e-01" nType="0">
        <Node pos="l" depth="1" NCoef="0" IVar="-1" Cut="0.0000000000000000e+00" cType="1" res="6.2653189525008202e-03" rms="2.9053783416748047e-01" purity="7.4337565898895264e-01" nType="-99"/>
        <Node pos="r" depth="1" NCoef="0" IVar="9" Cut="2.7236158370971680e+01" cType="0" res="-1.0976462811231613e-01" rms="3.1782907247543335e-01" purity="1.3609682023525238e-01" nType="0">
          <Node pos="l" depth="2" NCoef="0" IVar="-1" Cut="0.0000000000000000e+00" cType="1" res="-1.6311846673488617e-02" rms="3.2351514697074890e-01" purity="1.3711839914321899e-01" nType="-99"/>
          <Node pos="r" depth="2" NCoef="0" IVar="-1" Cut="0.0000000000000000e+00" cType="1" res="-1.0956261307001114e-02" rms="3.0706980824470520e-01" purity="1.3509933650493622e-01" nType="-99"/>
        </Node>
      </Node>
    </BinaryTree>
    <BinaryTree type="DecisionTree" boostWeight="1.0000000000000000e+00" itree="63">
      <Node pos="s" depth="0" NCoef="0" IVar="5" Cut="1.7030203342437744e+00" cType="0" res="1.1874892748892307e-02" rms="3.0541899800300598e-01" purity="5.6537634134292603e-01" nType="0">
        <Node pos="l" depth="1" NCoef="0" IVar="-1" Cut="0.0000000000000000e+00" cType="1" res="1.3533302582800388e-02" rms="1.5304662287235260e-01" purity="9.7312682867050171e-01" nType="-99"/>
        <Node pos="r" depth="1" NCoef="0" IVar="4" Cut="1.8311353683471680e+01" cType="1" res="-5.1334377378225327e-02" rms="3.5989868640899658e-01" purity="2.9528331756591797e-01" nType="0">
          <Node pos="l" depth="2" NCoef="0" IVar="-1" Cut="0.0000000000000000e+00" cType="1" res="1.6576921334490180e-03" rms="4.0326687693595886e-01" purity="4.3990796804428101e-01" nType="-99"/>
          <Node pos="r" depth="2" NCoef="0" IVar="-1" Cut="0.0000000000000000e+00" cType="1" res="-1.1597194708883762e-02" rms="3.0144336819648743e-01" purity="1.6167089343070984e-01" nType="-99"/>
        </Node>
      </Node>
    </BinaryTree>
    <BinaryTree type="DecisionTree" boostWeight="1.0000000000000000e+00" itree="64">
      <Node pos="s" depth="0" NCoef="0" IVar="1" Cut="3.2804325103759766e+01" cType="0" res="1.0369992814958096e-02" rms="3.0855166912078857e-01" purity="5.6117010116577148e-01" nType="0">
        <Node pos="l" depth="1" NCoef="0" IVar="-1" Cut="0.0000000000000000e+00" cType="1" res="6.4274580217897892e-03" rms="3.0950114130973816e-01" purity="7.4405151605606079e-01" nType="-99"/>
        <Node pos="r" depth="1" NCoef="0" IVar="5" Cut="1.3948030471801758e+00" cType="0" res="-1.1287363618612289e-01" rms="2.6931270956993103e-01" purity="9.8234415054321289e-02" nType="0">
          <Node pos="l" depth="2" NCoef="0" IVar="-1" Cut="0.0000000000000000e+00" cType="1" res="-1.3961003161966801e-02" rms="3.9336568117141724e-01" purity="2.7625185251235962e-01" nType="-99"/>
          <Node pos="r" depth="2" NCoef="0" IVar="-1" Cut="0.0000000000000000e+00" cType="1" res="-1.3052129186689854e-02" rms="2.1920195221900940e-01" purity="5.3667578846216202e-02" nType="-99"/>
        </Node>
      </Node>
    </BinaryTree>
    <BinaryTree type="DecisionTree" boostWeight="1.0000000000000000e+00" itree="65">
      <Node pos="s" depth="0" NCoef="0" IVar="10" Cut="8.3493179321289062e+01" cType="0" res="1.0629747062921524e-02" rms="3.0470931529998779e-01" purity="5.6317174434661865e-01" nType="0">
        <Node pos="l" depth="1" NCoef="0" IVar="-1" Cut="0.0000000000000000e+00" cType="1" res="1.0883983224630356e-02" rms="2.4710653722286224e-01" purity="8.7439471483230591e-01" nType="-99"/>
        <Node pos="r" depth="1" NCoef="0" IVar="9" Cut="2.9430173873901367e+01" cType="1" res="-6.9156207144260406e-02" rms="3.4037011861801147e-01" purity="2.1921052038669586e-01" nType="0">
          <Node pos="l" depth="2" NCoef="0" IVar="-1" Cut="0.0000000000000000e+00" cType="1" res="-3.5563567653298378e-03" rms="3.4196531772613525e-01" purity="2.4514342844486237e-01" nType="-99"/>
          <Node pos="r" depth="2" NCoef="0" IVar="-1" Cut="0.0000000000000000e+00" cType="1" res="-1.1554789729416370e-02" rms="3.2970410585403442e-01" purity="1.7408493161201477e-01" nType="-99"/>
        </Node>
      </Node>
    </BinaryTree>
    <BinaryTree type="DecisionTree" boostWeight="1.0000000000000000e+00" itree="66">
      <Node pos="s" depth="0" NCoef="0" IVar="5" Cut="1.7430953979492188e+00" cType="0" res="1.0509475134313107e-02" rms="3.0246424674987793e-01" purity="5.6297761201858521e-01" nType="0">
        <Node pos="l" depth="1" NCoef="0" IVar="-1" Cut="0.0000000000000000e+00" cType="1" res="1.4098060317337513e-02" rms="1.3031189143657684e-01" purity="9.8061764240264893e-01" nType="-99"/>
        <Node pos="r" depth="1" NCoef="0" IVar="4" Cut="1.7172472000122070e+01" cType="1" res="-4.7982204705476761e-02" rms="3.5781121253967285e-01" purity="3.0758291482925415e-01" nType="0">
          <Node pos="l" depth="2" NCoef="0" IVar="-1" Cut="0.0000000000000000e+00" cType="1" res="1.8272568704560399e-03" rms="4.0389671921730042e-01" purity="4.6355831623077393e-01" nType="-99"/>
          <Node pos="r" depth="2" NCoef="0" IVar="-1" Cut="0.0000000000000000e+00" cType="1" res="-1.0136207565665245e-02" rms="3.0637973546981812e-01" purity="1.8281361460685730e-01" nType="-99"/>
        </Node>
      </Node>
    </BinaryTree>
    <BinaryTree type="DecisionTree" boostWeight="1.0000000000000000e+00" itree="67">
      <Node pos="s" depth="0" NCoef="0" IVar="1" Cut="3.2556125640869141e+01" cType="0" res="1.1461363174021244e-02" rms="3.0467653274536133e-01" purity="5.6515789031982422e-01" nType="0">
        <Node pos="l" depth="1" NCoef="0" IVar="-1" Cut="0.0000000000000000e+00" cType="1" res="6.4100092276930809e-03" rms="3.0301636457443237e-01" purity="7.4400013685226440e-01" nType="-99"/>
        <Node pos="r" depth="1" NCoef="0" IVar="5" Cut="1.4975149631500244e+00" cType="0" res="-1.1135194450616837e-01" rms="2.7321410179138184e-01" purity="9.5757581293582916e-02" nType="0">
          <Node pos="l" depth="2" NCoef="0" IVar="-1" Cut="0.0000000000000000e+00" cType="1" res="-1.6001272946596146e-02" rms="3.8530847430229187e-01" purity="2.9406267404556274e-01" nType="-99"/>
          <Node pos="r" depth="2" NCoef="0" IVar="-1" Cut="0.0000000000000000e+00" cType="1" res="-1.1855826713144779e-02" rms="2.3576498031616211e-01" purity="6.2526352703571320e-02" nType="-99"/>
        </Node>
      </Node>
    </BinaryTree>
    <BinaryTree type="DecisionTree" boostWeight="1.0000000000000000e+00" itree="68">
      <Node pos="s" depth="0" NCoef="0" IVar="1" Cut="4.3398422241210938e+01" cType="0" res="1.0461340658366680e-02" rms="3.0375200510025024e-01" purity="5.6393319368362427e-01" nType="0">
        <Node pos="l" depth="1" NCoef="0" IVar="-1" Cut="0.0000000000000000e+00" cType="1" res="1.0187021456658840e-02" rms="2.6150286197662354e-01" purity="8.6887872219085693e-01" nType="-99"/>
        <Node pos="r" depth="1" NCoef="0" IVar="6" Cut="2.6361742019653320e+00" cType="1" res="-6.0254886746406555e-02" rms="3.2563230395317078e-01" purity="2.6013612747192383e-01" nType="0">
          <Node pos="l" depth="2" NCoef="0" IVar="-1" Cut="0.0000000000000000e+00" cType="1" res="1.6814144328236580e-04" rms="3.6620181798934937e-01" purity="4.1972836852073669e-01" nType="-99"/>
          <Node pos="r" depth="2" NCoef="0" IVar="-1" Cut="0.0000000000000000e+00" cType="1" res="-1.3875929638743401e-02" rms="2.6750311255455017e-01" purity="1.0557903349399567e-01" nType="-99"/>
        </Node>
      </Node>
    </BinaryTree>
    <BinaryTree type="DecisionTree" boostWeight="1.0000000000000000e+00" itree="69">
      <Node pos="s" depth="0" NCoef="0" IVar="1" Cut="3.7124778747558594e+01" cType="0" res="1.0207585990428925e-02" rms="3.0162692070007324e-01" purity="5.6428188085556030e-01" nType="0">
        <Node pos="l" depth="1" NCoef="0" IVar="-1" Cut="0.0000000000000000e+00" cType="1" res="7.3497793637216091e-03" rms="2.9578039050102234e-01" purity="8.0378878116607666e-01" nType="-99"/>
        <Node pos="r" depth="1" NCoef="0" IVar="1" Cut="3.1222135543823242e+01" cType="0" res="-8.4949314594268799e-02" rms="2.8740975260734558e-01" purity="1.5461626648902893e-01" nType="0">
          <Node pos="l" depth="2" NCoef="0" IVar="-1" Cut="0.0000000000000000e+00" cType="1" res="-1.9616547506302595e-03" rms="3.5522708296775818e-01" purity="3.1495279073715210e-01" nType="-99"/>
          <Node pos="r" depth="2" NCoef="0" IVar="-1" Cut="0.0000000000000000e+00" cType="1" res="-1.4274219051003456e-02" rms="2.4253049492835999e-01" purity="7.8206881880760193e-02" nType="-99"/>
        </Node>
      </Node>
    </BinaryTree>
    <BinaryTree type="DecisionTree" boostWeight="1.0000000000000000e+00" itree="70">
      <Node pos="s" depth="0" NCoef="0" IVar="5" Cut="1.7435433864593506e+00" cType="0" res="6.8669393658638000e-03" rms="2.9958173632621765e-01" purity="5.6605446338653564e-01" nType="0">
        <Node pos="l" depth="1" NCoef="0" IVar="-1" Cut="0.0000000000000000e+00" cType="1" res="1.3657994568347931e-02" rms="1.3169486820697784e-01" purity="9.7982192039489746e-01" nType="-99"/>
        <Node pos="r" depth="1" NCoef="0" IVar="4" Cut="1.8251335144042969e+01" cType="1" res="-5.1052324473857880e-02" rms="3.5576337575912476e-01" purity="3.0598336458206177e-01" nType="0">
          <Node pos="l" depth="2" NCoef="0" IVar="-1" Cut="0.0000000000000000e+00" cType="1" res="7.0446805329993367e-04" rms="4.0098223090171814e-01" purity="4.5189189910888672e-01" nType="-99"/>
          <Node pos="r" depth="2" NCoef="0" IVar="-1" Cut="0.0000000000000000e+00" cType="1" res="-1.0671194642782211e-02" rms="2.9841855168342590e-01" purity="1.7120018601417542e-01" nType="-99"/>
        </Node>
      </Node>
    </BinaryTree>
    <BinaryTree type="DecisionTree" boostWeight="1.0000000000000000e+00" itree="71">
      <Node pos="s" depth="0" NCoef="0" IVar="0" Cut="3.5144470214843750e+01" cType="0" res="3.0326896812766790e-03" rms="3.0219006538391113e-01" purity="5.5482280254364014e-01" nType="0">
        <Node pos="l" depth="1" NCoef="0" IVar="-1" Cut="0.0000000000000000e+00" cType="1" res="7.9585760831832886e-03" rms="2.7210760116577148e-01" purity="7.7334266901016235e-01" nType="-99"/>
        <Node pos="r" depth="1" NCoef="0" IVar="9" Cut="4.1015583038330078e+01" cType="1" res="-9.1276437044143677e-02" rms="3.2891589403152466e-01" purity="1.6579201817512512e-01" nType="0">
          <Node pos="l" depth="2" NCoef="0" IVar="-1" Cut="0.0000000000000000e+00" cType="1" res="-6.3816304318606853e-03" rms="3.2784759998321533e-01" purity="1.7366373538970947e-01" nType="-99"/>
          <Node pos="r" depth="2" NCoef="0" IVar="-1" Cut="0.0000000000000000e+00" cType="1" res="-1.5111767686903477e-02" rms="3.1765246391296387e-01" purity="1.2851454317569733e-01" nType="-99"/>
        </Node>
      </Node>
    </BinaryTree>
    <BinaryTree type="DecisionTree" boostWeight="1.0000000000000000e+00" itree="72">
      <Node pos="s" depth="0" NCoef="0" IVar="1" Cut="4.3876033782958984e+01" cType="0" res="1.1665157042443752e-02" rms="3.0034276843070984e-01" purity="5.6722253561019897e-01" nType="0">
        <Node pos="l" depth="1" NCoef="0" IVar="-1" Cut="0.0000000000000000e+00" cType="1" res="1.0233733803033829e-02" rms="2.5921601057052612e-01" purity="8.7181901931762695e-01" nType="-99"/>
        <Node pos="r" depth="1" NCoef="0" IVar="4" Cut="1.7921751022338867e+01" cType="1" res="-5.2121952176094055e-02" rms="3.2307395339012146e-01" purity="2.7051532268524170e-01" nType="0">
          <Node pos="l" depth="2" NCoef="0" IVar="-1" Cut="0.0000000000000000e+00" cType="1" res="1.4034097548574209e-03" rms="3.7337419390678406e-01" purity="4.4461971521377563e-01" nType="-99"/>
          <Node pos="r" depth="2" NCoef="0" IVar="-1" Cut="0.0000000000000000e+00" cType="1" res="-1.1750528588891029e-02" rms="2.6552614569664001e-01" purity="1.3236352801322937e-01" nType="-99"/>
        </Node>
      </Node>
    </BinaryTree>
    <BinaryTree type="DecisionTree" boostWeight="1.0000000000000000e+00" itree="73">
      <Node pos="s" depth="0" NCoef="0" IVar="5" Cut="1.8193160295486450e+00" cType="0" res="8.9905830100178719e-03" rms="3.0095279216766357e-01" purity="5.6383359432220459e-01" nType="0">
        <Node pos="l" depth="1" NCoef="0" IVar="-1" Cut="0.0000000000000000e+00" cType="1" res="1.3910773210227489e-02" rms="1.1596186459064484e-01" purity="9.8478263616561890e-01" nType="-99"/>
        <Node pos="r" depth="1" NCoef="0" IVar="4" Cut="1.8700958251953125e+01" cType="1" res="-3.8530103862285614e-02" rms="3.5490748286247253e-01" purity="3.3563259243965149e-01" nType="0">
          <Node pos="l" depth="2" NCoef="0" IVar="-1" Cut="0.0000000000000000e+00" cType="1" res="2.0979573018848896e-03" rms="3.9170590043067932e-01" purity="4.8608699440956116e-01" nType="-99"/>
          <Node pos="r" depth="2" NCoef="0" IVar="-1" Cut="0.0000000000000000e+00" cType="1" res="-9.8623810335993767e-03" rms="3.0292183160781860e-01" purity="1.8433417379856110e-01" nType="-99"/>
        </Node>
      </Node>
    </BinaryTree>
    <BinaryTree type="DecisionTree" boostWeight="1.0000000000000000e+00" itree="74">
      <Node pos="s" depth="0" NCoef="0" IVar="5" Cut="1.1897782087326050e+00" cType="0" res="8.1569859758019447e-03" rms="2.9890814423561096e-01" purity="5.6865203380584717e-01" nType="0">
        <Node pos="l" depth="1" NCoef="0" IVar="-1" Cut="0.0000000000000000e+00" cType="1" res="6.4653335139155388e-03" rms="2.7158421277999878e-01" purity="7.8673189878463745e-01" nType="-99"/>
        <Node pos="r" depth="1" NCoef="0" IVar="9" Cut="3.0503356933593750e+01" cType="1" res="-8.3928711712360382e-02" rms="3.2571980357170105e-01" purity="1.5341563522815704e-01" nType="0">
          <Node pos="l" depth="2" NCoef="0" IVar="-1" Cut="0.0000000000000000e+00" cType="1" res="-7.6347696594893932e-03" rms="3.1767284870147705e-01" purity="1.5424926578998566e-01" nType="-99"/>
          <Node pos="r" depth="2" NCoef="0" IVar="-1" Cut="0.0000000000000000e+00" cType="1" res="-1.4671817421913147e-02" rms="3.3283758163452148e-01" purity="1.5209011733531952e-01" nType="-99"/>
        </Node>
      </Node>
    </BinaryTree>
    <BinaryTree type="DecisionTree" boostWeight="1.0000000000000000e+00" itree="75">
      <Node pos="s" depth="0" NCoef="0" IVar="5" Cut="1.7230937480926514e+00" cType="0" res="6.6142668947577477e-03" rms="2.9801157116889954e-01" purity="5.6508398056030273e-01" nType="0">
        <Node pos="l" depth="1" NCoef="0" IVar="-1" Cut="0.0000000000000000e+00" cType="1" res="1.2924594804644585e-02" rms="1.3813212513923645e-01" purity="9.7789853811264038e-01" nType="-99"/>
        <Node pos="r" depth="1" NCoef="0" IVar="4" Cut="1.9599992752075195e+01" cType="1" res="-4.5812819153070450e-02" rms="3.5603731870651245e-01" purity="2.9889670014381409e-01" nType="0">
          <Node pos="l" depth="2" NCoef="0" IVar="-1" Cut="0.0000000000000000e+00" cType="1" res="4.1474722092971206e-04" rms="3.9736425876617432e-01" purity="4.2867681384086609e-01" nType="-99"/>
          <Node pos="r" depth="2" NCoef="0" IVar="-1" Cut="0.0000000000000000e+00" cType="1" res="-1.1429358273744583e-02" rms="2.8952881693840027e-01" purity="1.4632280170917511e-01" nType="-99"/>
        </Node>
      </Node>
    </BinaryTree>
    <BinaryTree type="DecisionTree" boostWeight="1.0000000000000000e+00" itree="76">
      <Node pos="s" depth="0" NCoef="0" IVar="1" Cut="3.1247072219848633e+01" cType="0" res="9.9600031971931458e-03" rms="2.9964262247085571e-01" purity="5.6310987472534180e-01" nType="0">
        <Node pos="l" depth="1" NCoef="0" IVar="-1" Cut="0.0000000000000000e+00" cType="1" res="5.3906524553894997e-03" rms="3.0527991056442261e-01" purity="7.2184503078460693e-01" nType="-99"/>
        <Node pos="r" depth="1" NCoef="0" IVar="5" Cut="1.3410332202911377e+00" cType="0" res="-9.5266848802566528e-02" rms="2.5469610095024109e-01" purity="9.2649400234222412e-02" nType="0">
          <Node pos="l" depth="2" NCoef="0" IVar="-1" Cut="0.0000000000000000e+00" cType="1" res="-1.2557019479572773e-02" rms="3.5814183950424194e-01" purity="2.4176394939422607e-01" nType="-99"/>
          <Node pos="r" depth="2" NCoef="0" IVar="-1" Cut="0.0000000000000000e+00" cType="1" res="-1.2586332857608795e-02" rms="2.0316234230995178e-01" purity="4.5731484889984131e-02" nType="-99"/>
        </Node>
      </Node>
    </BinaryTree>
    <BinaryTree type="DecisionTree" boostWeight="1.0000000000000000e+00" itree="77">
      <Node pos="s" depth="0" NCoef="0" IVar="5" Cut="1.0509173870086670e+00" cType="0" res="9.6631022170186043e-03" rms="2.9910549521446228e-01" purity="5.6573921442031860e-01" nType="0">
        <Node pos="l" depth="1" NCoef="0" IVar="-1" Cut="0.0000000000000000e+00" cType="1" res="5.1803281530737877e-03" rms="2.8796175122261047e-01" purity="7.1475291252136230e-01" nType="-99"/>
        <Node pos="r" depth="1" NCoef="0" IVar="1" Cut="4.1176300048828125e+01" cType="0" res="-9.6827901899814606e-02" rms="3.0627357959747314e-01" purity="1.2187406420707703e-01" nType="0">
          <Node pos="l" depth="2" NCoef="0" IVar="-1" Cut="0.0000000000000000e+00" cType="1" res="-1.5512987971305847e-02" rms="4.3438613414764404e-01" purity="2.6848354935646057e-01" nType="-99"/>
          <Node pos="r" depth="2" NCoef="0" IVar="-1" Cut="0.0000000000000000e+00" cType="1" res="-1.3702417723834515e-02" rms="2.3639526963233948e-01" purity="6.7434310913085938e-02" nType="-99"/>
        </Node>
      </Node>
    </BinaryTree>
    <BinaryTree type="DecisionTree" boostWeight="1.0000000000000000e+00" itree="78">
      <Node pos="s" depth="0" NCoef="0" IVar="1" Cut="3.1171312332153320e+01" cType="0" res="8.6203338578343391e-03" rms="2.9939737915992737e-01" purity="5.6665962934494019e-01" nType="0">
        <Node pos="l" depth="1" NCoef="0" IVar="-1" Cut="0.0000000000000000e+00" cType="1" res="5.0471955910325050e-03" rms="3.0474054813385010e-01" purity="7.2395086288452148e-01" nType="-99"/>
        <Node pos="r" depth="1" NCoef="0" IVar="5" Cut="1.3846015930175781e+00" cType="0" res="-9.8868824541568756e-02" rms="2.5393399596214294e-01" purity="8.9400269091129303e-02" nType="0">
          <Node pos="l" depth="2" NCoef="0" IVar="-1" Cut="0.0000000000000000e+00" cType="1" res="-1.4158143661916256e-02" rms="3.5676696896553040e-01" purity="2.4858543276786804e-01" nType="-99"/>
          <Node pos="r" depth="2" NCoef="0" IVar="-1" Cut="0.0000000000000000e+00" cType="1" res="-1.1628143489360809e-02" rms="2.0655368268489838e-01" purity="4.7136452049016953e-02" nType="-99"/>
        </Node>
      </Node>
    </BinaryTree>
    <BinaryTree type="DecisionTree" boostWeight="1.0000000000000000e+00" itree="79">
      <Node pos="s" depth="0" NCoef="0" IVar="6" Cut="2.6817278861999512e+00" cType="1" res="4.9448134377598763e-03" rms="2.9941812157630920e-01" purity="5.6733000278472900e-01" nType="0">
        <Node pos="l" depth="1" NCoef="0" IVar="-1" Cut="0.0000000000000000e+00" cType="1" res="6.3515929505228996e-03" rms="2.9551264643669128e-01" purity="7.1375405788421631e-01" nType="-99"/>
        <Node pos="r" depth="1" NCoef="0" IVar="1" Cut="4.9991554260253906e+01" cType="0" res="-8.3619356155395508e-02" rms="2.8682458400726318e-01" purity="2.8339070081710815e-01" nType="0">
          <Node pos="l" depth="2" NCoef="0" IVar="-1" Cut="0.0000000000000000e+00" cType="1" res="6.2723988667130470e-03" rms="2.8007069230079651e-01" purity="8.2605946063995361e-01" nType="-99"/>
          <Node pos="r" depth="2" NCoef="0" IVar="-1" Cut="0.0000000000000000e+00" cType="1" res="-1.2407458387315273e-02" rms="2.7971276640892029e-01" purity="1.5562409162521362e-01" nType="-99"/>
        </Node>
      </Node>
    </BinaryTree>
    <BinaryTree type="DecisionTree" boostWeight="1.0000000000000000e+00" itree="80">
      <Node pos="s" depth="0" NCoef="0" IVar="5" Cut="1.0764299631118774e+00" cType="0" res="1.2106078676879406e-02" rms="2.9448491334915161e-01" purity="5.7151097059249878e-01" nType="0">
        <Node pos="l" depth="1" NCoef="0" IVar="-1" Cut="0.0000000000000000e+00" cType="1" res="5.5329506285488605e-03" rms="2.7928116917610168e-01" purity="7.2725123167037964e-01" nType="-99"/>
        <Node pos="r" depth="1" NCoef="0" IVar="9" Cut="2.9330038070678711e+01" cType="1" res="-8.8189870119094849e-02" rms="3.1270098686218262e-01" purity="1.3096743822097778e-01" nType="0">
          <Node pos="l" depth="2" NCoef="0" IVar="-1" Cut="0.0000000000000000e+00" cType="1" res="-8.8508613407611847e-03" rms="3.0565437674522400e-01" purity="1.3427205383777618e-01" nType="-99"/>
          <Node pos="r" depth="2" NCoef="0" IVar="-1" Cut="0.0000000000000000e+00" cType="1" res="-1.6382323578000069e-02" rms="3.1510600447654724e-01" purity="1.2710548937320709e-01" nType="-99"/>
        </Node>
      </Node>
    </BinaryTree>
    <BinaryTree type="DecisionTree" boostWeight="1.0000000000000000e+00" itree="81">
      <Node pos="s" depth="0" NCoef="0" IVar="1" Cut="4.3137145996093750e+01" cType="0" res="4.1386405937373638e-03" rms="2.9761123657226562e-01" purity="5.6515830755233765e-01" nType="0">
        <Node pos="l" depth="1" NCoef="0" IVar="-1" Cut="0.0000000000000000e+00" cType="1" res="8.1641282886266708e-03" rms="2.6172876358032227e-01" purity="8.6211466789245605e-01" nType="-99"/>
        <Node pos="r" depth="1" NCoef="0" IVar="6" Cut="2.1601769924163818e+00" cType="1" res="-5.7355597615242004e-02" rms="3.2016873359680176e-01" purity="2.5025928020477295e-01" nType="0">
          <Node pos="l" depth="2" NCoef="0" IVar="-1" Cut="0.0000000000000000e+00" cType="1" res="2.6140992995351553e-03" rms="3.7695017457008362e-01" purity="5.1121300458908081e-01" nType="-99"/>
          <Node pos="r" depth="2" NCoef="0" IVar="-1" Cut="0.0000000000000000e+00" cType="1" res="-1.0822989977896214e-02" rms="2.8608956933021545e-01" purity="1.3979752361774445e-01" nType="-99"/>
        </Node>
      </Node>
    </BinaryTree>
    <BinaryTree type="DecisionTree" boostWeight="1.0000000000000000e+00" itree="82">
      <Node pos="s" depth="0" NCoef="0" IVar="1" Cut="3.6984149932861328e+01" cType="0" res="8.4587568417191505e-03" rms="2.9414311051368713e-01" purity="5.7172262668609619e-01" nType="0">
        <Node pos="l" depth="1" NCoef="0" IVar="-1" Cut="0.0000000000000000e+00" cType="1" res="6.4221643842756748e-03" rms="2.8345546126365662e-01" purity="8.0401355028152466e-01" nType="-99"/>
        <Node pos="r" depth="1" NCoef="0" IVar="4" Cut="1.2107670783996582e+01" cType="1" res="-7.0920445024967194e-02" rms="2.9593133926391602e-01" purity="1.6086082160472870e-01" nType="0">
          <Node pos="l" depth="2" NCoef="0" IVar="-1" Cut="0.0000000000000000e+00" cType="1" res="-4.4600164983421564e-05" rms="3.9208573102951050e-01" purity="3.6692935228347778e-01" nType="-99"/>
          <Node pos="r" depth="2" NCoef="0" IVar="-1" Cut="0.0000000000000000e+00" cType="1" res="-1.1638897471129894e-02" rms="2.5926974415779114e-01" purity="1.0303066670894623e-01" nType="-99"/>
        </Node>
      </Node>
    </BinaryTree>
    <BinaryTree type="DecisionTree" boostWeight="1.0000000000000000e+00" itree="83">
      <Node pos="s" depth="0" NCoef="0" IVar="1" Cut="3.0832500457763672e+01" cType="0" res="1.0620685294270515e-02" rms="2.9621535539627075e-01" purity="5.7111001014709473e-01" nType="0">
        <Node pos="l" depth="1" NCoef="0" IVar="-1" Cut="0.0000000000000000e+00" cType="1" res="4.7411336563527584e-03" rms="3.0247974395751953e-01" purity="7.1720868349075317e-01" nType="-99"/>
        <Node pos="r" depth="1" NCoef="0" IVar="5" Cut="1.3662352561950684e+00" cType="0" res="-8.8924400508403778e-02" rms="2.4961687624454498e-01" purity="8.1491313874721527e-02" nType="0">
          <Node pos="l" depth="2" NCoef="0" IVar="-1" Cut="0.0000000000000000e+00" cType="1" res="-1.4961788430809975e-02" rms="3.5150763392448425e-01" purity="2.2652173042297363e-01" nType="-99"/>
          <Node pos="r" depth="2" NCoef="0" IVar="-1" Cut="0.0000000000000000e+00" cType="1" res="-1.1545397341251373e-02" rms="2.0698387920856476e-01" purity="4.6833042055368423e-02" nType="-99"/>
        </Node>
      </Node>
    </BinaryTree>
    <BinaryTree type="DecisionTree" boostWeight="1.0000000000000000e+00" itree="84">
      <Node pos="s" depth="0" NCoef="0" IVar="5" Cut="1.2889156341552734e+00" cType="0" res="1.1566687375307083e-02" rms="2.9486957192420959e-01" purity="5.7392197847366333e-01" nType="0">
        <Node pos="l" depth="1" NCoef="0" IVar="-1" Cut="0.0000000000000000e+00" cType="1" res="7.3981382884085178e-03" rms="2.4825596809387207e-01" purity="8.4759229421615601e-01" nType="-99"/>
        <Node pos="r" depth="1" NCoef="0" IVar="0" Cut="2.6468160629272461e+01" cType="0" res="-5.5816378444433212e-02" rms="3.3961638808250427e-01" purity="1.8353253602981567e-01" nType="0">
          <Node pos="l" depth="2" NCoef="0" IVar="-1" Cut="0.0000000000000000e+00" cType="1" res="-4.2734248563647270e-03" rms="3.5637423396110535e-01" purity="2.2095561027526855e-01" nType="-99"/>
          <Node pos="r" depth="2" NCoef="0" IVar="-1" Cut="0.0000000000000000e+00" cType="1" res="-1.1063330806791782e-02" rms="2.8346604108810425e-01" purity="9.1258347034454346e-02" nType="-99"/>
        </Node>
      </Node>
    </BinaryTree>
    <BinaryTree type="DecisionTree" boostWeight="1.0000000000000000e+00" itree="85">
      <Node pos="s" depth="0" NCoef="0" IVar="5" Cut="1.9028791189193726e+00" cType="0" res="4.3921819888055325e-03" rms="2.9264584183692932e-01" purity="5.6259530782699585e-01" nType="0">
        <Node pos="l" depth="1" NCoef="0" IVar="-1" Cut="0.0000000000000000e+00" cType="1" res="1.4079409651458263e-02" rms="9.0949825942516327e-02" purity="9.9108272790908813e-01" nType="-99"/>
        <Node pos="r" depth="1" NCoef="0" IVar="4" Cut="1.7082384109497070e+01" cType="1" res="-3.5981174558401108e-02" rms="3.4451282024383545e-01" purity="3.5216355323791504e-01" nType="0">
          <Node pos="l" depth="2" NCoef="0" IVar="-1" Cut="0.0000000000000000e+00" cType="1" res="1.8195662414655089e-03" rms="3.8521826267242432e-01" purity="5.2517926692962646e-01" nType="-99"/>
          <Node pos="r" depth="2" NCoef="0" IVar="-1" Cut="0.0000000000000000e+00" cType="1" res="-8.9970640838146210e-03" rms="2.9958203434944153e-01" purity="2.0761355757713318e-01" nType="-99"/>
        </Node>
      </Node>
    </BinaryTree>
