<?xml version="1.0"?>
<MethodSetup Method="BDT::BDTG">
  <GeneralInfo>
    <Info name="TMVA Release" value="4.1.2 [262402]"/>
    <Info name="ROOT Release" value="5.27/06 [334598]"/>
    <Info name="Creator" value="cerati"/>
    <Info name="Date" value="Wed Sep 19 12:11:03 2012"/>
    <Info name="Host" value="Linux cmswn1925 2.6.18-194.11.3.el5 #1 SMP Tue Aug 31 10:13:43 CEST 2010 x86_64 x86_64 x86_64 GNU/Linux"/>
    <Info name="Dir" value="/tas/cerati/TestMVA/TMVA-v4.1.2/test"/>
    <Info name="Training events" value="58444"/>
    <Info name="TrainingTime" value="4.49446821e+01"/>
    <Info name="AnalysisType" value="Classification"/>
  </GeneralInfo>
  <Options>
    <Option name="V" modified="Yes">False</Option>
    <Option name="VerbosityLevel" modified="No">Default</Option>
    <Option name="VarTransform" modified="No">None</Option>
    <Option name="H" modified="Yes">False</Option>
    <Option name="CreateMVAPdfs" modified="No">False</Option>
    <Option name="IgnoreNegWeightsInTraining" modified="No">False</Option>
    <Option name="NTrees" modified="Yes">400</Option>
    <Option name="RenormByClass" modified="No">False</Option>
    <Option name="BoostType" modified="Yes">Grad</Option>
    <Option name="AdaBoostR2Loss" modified="No">quadratic</Option>
    <Option name="UseBaggedGrad" modified="Yes">True</Option>
    <Option name="GradBaggingFraction" modified="Yes">5.000000e-01</Option>
    <Option name="Shrinkage" modified="Yes">1.000000e-01</Option>
    <Option name="AdaBoostBeta" modified="No">1.000000e+00</Option>
    <Option name="UseRandomisedTrees" modified="No">False</Option>
    <Option name="UseNvars" modified="No">3</Option>
    <Option name="UsePoissonNvars" modified="No">True</Option>
    <Option name="UseNTrainEvents" modified="No">58444</Option>
    <Option name="UseWeightedTrees" modified="No">True</Option>
    <Option name="UseYesNoLeaf" modified="No">True</Option>
    <Option name="NodePurityLimit" modified="No">5.000000e-01</Option>
    <Option name="SeparationType" modified="No">giniindex</Option>
    <Option name="nEventsMin" modified="No">48</Option>
    <Option name="nCuts" modified="Yes">1000</Option>
    <Option name="UseFisherCuts" modified="No">False</Option>
    <Option name="MinLinCorrForFisher" modified="No">8.000000e-01</Option>
    <Option name="UseExclusiveVars" modified="No">False</Option>
    <Option name="PruneStrength" modified="No">0.000000e+00</Option>
    <Option name="PruneMethod" modified="No">nopruning</Option>
    <Option name="PruneBeforeBoost" modified="No">False</Option>
    <Option name="PruningValFraction" modified="No">5.000000e-01</Option>
    <Option name="NNodesMax" modified="Yes">5</Option>
    <Option name="MaxDepth" modified="No">3</Option>
    <Option name="DoBoostMonitor" modified="No">False</Option>
    <Option name="NegWeightTreatment" modified="No">ignorenegweights</Option>
  </Options>
  <Variables NVar="11">
    <Variable VarIndex="0" Expression="pmet" Label="pmet" Title="Proj. MET" Unit="GeV" Internal="pmet" Type="F" Min="2.00001583e+01" Max="3.29683075e+02"/>
    <Variable VarIndex="1" Expression="pTrackMet" Label="pTrackMet" Title="Proj. tkMET" Unit="GeV" Internal="pTrackMet" Type="F" Min="2.00015259e+01" Max="4.97953552e+02"/>
    <Variable VarIndex="2" Expression="nvtx" Label="nvtx" Title="nvtx" Unit="" Internal="nvtx" Type="I" Min="1.00000000e+00" Max="6.10000000e+01"/>
    <Variable VarIndex="3" Expression="dilpt" Label="dilpt" Title="pt(ll)" Unit="GeV" Internal="dilpt" Type="F" Min="3.00117340e+01" Max="6.15554321e+02"/>
    <Variable VarIndex="4" Expression="jet1pt" Label="jet1pt" Title="pt(jet1)" Unit="GeV" Internal="jet1pt" Type="F" Min="3.00000191e+01" Max="7.45846436e+02"/>
    <Variable VarIndex="5" Expression="metSig" Label="metSig" Title="metSig" Unit="GeV" Internal="metSig" Type="F" Min="3.62935334e-01" Max="9.09357929e+00"/>
    <Variable VarIndex="6" Expression="dPhiDiLepJet1" Label="dPhiDiLepJet1" Title="dPhiDiLepJet1" Unit="" Internal="dPhiDiLepJet1" Type="F" Min="1.54094968e-03" Max="3.14159083e+00"/>
    <Variable VarIndex="7" Expression="dPhiDiLepMET" Label="dPhiDiLepMET" Title="dPhiDiLepMET" Unit="" Internal="dPhiDiLepMET" Type="F" Min="3.47238064e-01" Max="3.14159203e+00"/>
    <Variable VarIndex="8" Expression="dPhiJet1MET" Label="dPhiJet1MET" Title="dPhiJet1MET" Unit="" Internal="dPhiJet1MET" Type="F" Min="7.15255737e-06" Max="3.14126396e+00"/>
    <Variable VarIndex="9" Expression="recoil" Label="recoil" Title="recoil" Unit="GeV" Internal="recoil" Type="F" Min="2.15875387e-01" Max="6.24792786e+02"/>
    <Variable VarIndex="10" Expression="mt" Label="mt" Title="mt" Unit="GeV" Internal="mt" Type="F" Min="6.00001373e+01" Max="4.17066040e+02"/>
  </Variables>
  <Spectators NSpec="0"/>
  <Classes NClass="2">
    <Class Name="Signal" Index="0"/>
    <Class Name="Background" Index="1"/>
  </Classes>
  <Transformations NTransformations="0"/>
  <MVAPdfs/>
  <Weights NTrees="400" AnalysisType="1">
    <BinaryTree type="DecisionTree" boostWeight="1.0000000000000000e+00" itree="0">
      <Node pos="s" depth="0" NCoef="0" IVar="5" Cut="1.7052495479583740e+00" cType="0" res="-3.2194325327873230e-01" rms="3.8256052136421204e-01" purity="1.7805674672126770e-01" nType="0">
        <Node pos="l" depth="1" NCoef="0" IVar="-1" Cut="0.0000000000000000e+00" cType="1" res="2.3594856262207031e-02" rms="3.3079314231872559e-01" purity="8.7493449449539185e-01" nType="-99"/>
        <Node pos="r" depth="1" NCoef="0" IVar="5" Cut="1.4057725667953491e+00" cType="0" res="-4.2683497071266174e-01" rms="2.6040717959403992e-01" purity="7.3165021836757660e-02" nType="0">
          <Node pos="l" depth="2" NCoef="0" IVar="-1" Cut="0.0000000000000000e+00" cType="1" res="-1.1438053101301193e-02" rms="4.6189221739768982e-01" purity="3.0854353308677673e-01" nType="-99"/>
          <Node pos="r" depth="2" NCoef="0" IVar="-1" Cut="0.0000000000000000e+00" cType="1" res="-3.1504027545452118e-02" rms="2.1803876757621765e-01" purity="5.0045449286699295e-02" nType="-99"/>
        </Node>
      </Node>
    </BinaryTree>
    <BinaryTree type="DecisionTree" boostWeight="1.0000000000000000e+00" itree="1">
      <Node pos="s" depth="0" NCoef="0" IVar="5" Cut="1.6600197553634644e+00" cType="0" res="-3.0658328533172607e-01" rms="3.7906083464622498e-01" purity="1.8207570910453796e-01" nType="0">
        <Node pos="l" depth="1" NCoef="0" IVar="-1" Cut="0.0000000000000000e+00" cType="1" res="2.2141736000776291e-02" rms="3.3797547221183777e-01" purity="8.6769038438796997e-01" nType="-99"/>
        <Node pos="r" depth="1" NCoef="0" IVar="6" Cut="2.7120728492736816e+00" cType="1" res="-4.1330549120903015e-01" rms="2.5739794969558716e-01" purity="7.1755655109882355e-02" nType="0">
          <Node pos="l" depth="2" NCoef="0" IVar="-1" Cut="0.0000000000000000e+00" cType="1" res="-1.8710035830736160e-02" rms="4.2100346088409424e-01" purity="2.3244851827621460e-01" nType="-99"/>
          <Node pos="r" depth="2" NCoef="0" IVar="-1" Cut="0.0000000000000000e+00" cType="1" res="-3.0868539586663246e-02" rms="1.9657830893993378e-01" purity="4.0420446544885635e-02" nType="-99"/>
        </Node>
      </Node>
    </BinaryTree>
    <BinaryTree type="DecisionTree" boostWeight="1.0000000000000000e+00" itree="2">
      <Node pos="s" depth="0" NCoef="0" IVar="5" Cut="1.7443336248397827e+00" cType="0" res="-2.9507613182067871e-01" rms="3.7338778376579285e-01" purity="1.8266054987907410e-01" nType="0">
        <Node pos="l" depth="1" NCoef="0" IVar="-1" Cut="0.0000000000000000e+00" cType="1" res="2.2531857714056969e-02" rms="3.0353787541389465e-01" purity="8.9732199907302856e-01" nType="-99"/>
        <Node pos="r" depth="1" NCoef="0" IVar="6" Cut="2.6995322704315186e+00" cType="1" res="-3.9083617925643921e-01" rms="2.6999124884605408e-01" purity="8.0447979271411896e-02" nType="0">
          <Node pos="l" depth="2" NCoef="0" IVar="-1" Cut="0.0000000000000000e+00" cType="1" res="-1.5231214463710785e-02" rms="4.3746662139892578e-01" purity="2.6347792148590088e-01" nType="-99"/>
          <Node pos="r" depth="2" NCoef="0" IVar="-1" Cut="0.0000000000000000e+00" cType="1" res="-2.8935642912983894e-02" rms="2.0892636477947235e-01" purity="4.6019740402698517e-02" nType="-99"/>
        </Node>
      </Node>
    </BinaryTree>
    <BinaryTree type="DecisionTree" boostWeight="1.0000000000000000e+00" itree="3">
      <Node pos="s" depth="0" NCoef="0" IVar="5" Cut="1.6632566452026367e+00" cType="0" res="-2.8770336508750916e-01" rms="3.6492922902107239e-01" purity="1.7971153557300568e-01" nType="0">
        <Node pos="l" depth="1" NCoef="0" IVar="-1" Cut="0.0000000000000000e+00" cType="1" res="2.0656513050198555e-02" rms="3.4153547883033752e-01" purity="8.6212784051895142e-01" nType="-99"/>
        <Node pos="r" depth="1" NCoef="0" IVar="5" Cut="1.3717643022537231e+00" cType="0" res="-3.8505005836486816e-01" rms="2.5702583789825439e-01" purity="7.2351045906543732e-02" nType="0">
          <Node pos="l" depth="2" NCoef="0" IVar="-1" Cut="0.0000000000000000e+00" cType="1" res="-1.0317782871425152e-02" rms="4.5189806818962097e-01" purity="2.9240456223487854e-01" nType="-99"/>
          <Node pos="r" depth="2" NCoef="0" IVar="-1" Cut="0.0000000000000000e+00" cType="1" res="-2.8584046289324760e-02" rms="2.1262057125568390e-01" purity="4.7871898859739304e-02" nType="-99"/>
        </Node>
      </Node>
    </BinaryTree>
    <BinaryTree type="DecisionTree" boostWeight="1.0000000000000000e+00" itree="4">
      <Node pos="s" depth="0" NCoef="0" IVar="5" Cut="1.6973893642425537e+00" cType="0" res="-2.7665588259696960e-01" rms="3.5991367697715759e-01" purity="1.8061329424381256e-01" nType="0">
        <Node pos="l" depth="1" NCoef="0" IVar="-1" Cut="0.0000000000000000e+00" cType="1" res="2.1511806175112724e-02" rms="3.2250478863716125e-01" purity="8.8086122274398804e-01" nType="-99"/>
        <Node pos="r" depth="1" NCoef="0" IVar="6" Cut="2.5020167827606201e+00" cType="1" res="-3.6863175034523010e-01" rms="2.6151847839355469e-01" purity="7.5782552361488342e-02" nType="0">
          <Node pos="l" depth="2" NCoef="0" IVar="-1" Cut="0.0000000000000000e+00" cType="1" res="-9.1672921553254128e-03" rms="4.7008237242698669e-01" purity="3.4188789129257202e-01" nType="-99"/>
          <Node pos="r" depth="2" NCoef="0" IVar="-1" Cut="0.0000000000000000e+00" cType="1" res="-2.7274526655673981e-02" rms="2.1935422718524933e-01" purity="5.1491498947143555e-02" nType="-99"/>
        </Node>
      </Node>
    </BinaryTree>
    <BinaryTree type="DecisionTree" boostWeight="1.0000000000000000e+00" itree="5">
      <Node pos="s" depth="0" NCoef="0" IVar="5" Cut="1.7032558917999268e+00" cType="0" res="-2.6738482713699341e-01" rms="3.5459578037261963e-01" purity="1.8065226078033447e-01" nType="0">
        <Node pos="l" depth="1" NCoef="0" IVar="-1" Cut="0.0000000000000000e+00" cType="1" res="1.9013201817870140e-02" rms="3.3706694841384888e-01" purity="8.6829990148544312e-01" nType="-99"/>
        <Node pos="r" depth="1" NCoef="0" IVar="6" Cut="2.6807212829589844e+00" cType="1" res="-3.5622367262840271e-01" rms="2.6079887151718140e-01" purity="7.5640283524990082e-02" nType="0">
          <Node pos="l" depth="2" NCoef="0" IVar="-1" Cut="0.0000000000000000e+00" cType="1" res="-1.4701018109917641e-02" rms="4.3002107739448547e-01" purity="2.5265040993690491e-01" nType="-99"/>
          <Node pos="r" depth="2" NCoef="0" IVar="-1" Cut="0.0000000000000000e+00" cType="1" res="-2.6919284835457802e-02" rms="2.0613728463649750e-01" purity="4.4886674731969833e-02" nType="-99"/>
        </Node>
      </Node>
    </BinaryTree>
    <BinaryTree type="DecisionTree" boostWeight="1.0000000000000000e+00" itree="6">
      <Node pos="s" depth="0" NCoef="0" IVar="5" Cut="1.6988220214843750e+00" cType="0" res="-2.6145732402801514e-01" rms="3.4599754214286804e-01" purity="1.7735674977302551e-01" nType="0">
        <Node pos="l" depth="1" NCoef="0" IVar="-1" Cut="0.0000000000000000e+00" cType="1" res="1.9249984994530678e-02" rms="3.3533701300621033e-01" purity="8.6968421936035156e-01" nType="-99"/>
        <Node pos="r" depth="1" NCoef="0" IVar="6" Cut="2.6995322704315186e+00" cType="1" res="-3.5004183650016785e-01" rms="2.5031816959381104e-01" purity="6.9434098899364471e-02" nType="0">
          <Node pos="l" depth="2" NCoef="0" IVar="-1" Cut="0.0000000000000000e+00" cType="1" res="-1.6282305121421814e-02" rms="4.2158555984497070e-01" purity="2.3734028637409210e-01" nType="-99"/>
          <Node pos="r" depth="2" NCoef="0" IVar="-1" Cut="0.0000000000000000e+00" cType="1" res="-2.6969194412231445e-02" rms="1.9270594418048859e-01" purity="3.8947954773902893e-02" nType="-99"/>
        </Node>
      </Node>
    </BinaryTree>
    <BinaryTree type="DecisionTree" boostWeight="1.0000000000000000e+00" itree="7">
      <Node pos="s" depth="0" NCoef="0" IVar="5" Cut="1.8455010652542114e+00" cType="0" res="-2.4736490845680237e-01" rms="3.4513413906097412e-01" purity="1.8196995556354523e-01" nType="0">
        <Node pos="l" depth="1" NCoef="0" IVar="-1" Cut="0.0000000000000000e+00" cType="1" res="2.3166712373495102e-02" rms="2.4891690909862518e-01" purity="9.3363624811172485e-01" nType="-99"/>
        <Node pos="r" depth="1" NCoef="0" IVar="6" Cut="2.4957416057586670e+00" cType="1" res="-3.2466322183609009e-01" rms="2.7107912302017212e-01" purity="8.6279794573783875e-02" nType="0">
          <Node pos="l" depth="2" NCoef="0" IVar="-1" Cut="0.0000000000000000e+00" cType="1" res="-5.6934449821710587e-03" rms="4.7004675865173340e-01" purity="3.7832325696945190e-01" nType="-99"/>
          <Node pos="r" depth="2" NCoef="0" IVar="-1" Cut="0.0000000000000000e+00" cType="1" res="-2.4601360782980919e-02" rms="2.2784814238548279e-01" purity="5.7461168617010117e-02" nType="-99"/>
        </Node>
      </Node>
    </BinaryTree>
    <BinaryTree type="DecisionTree" boostWeight="1.0000000000000000e+00" itree="8">
      <Node pos="s" depth="0" NCoef="0" IVar="5" Cut="1.8416116237640381e+00" cType="0" res="-2.4042977392673492e-01" rms="3.3917793631553650e-01" purity="1.8001407384872437e-01" nType="0">
        <Node pos="l" depth="1" NCoef="0" IVar="-1" Cut="0.0000000000000000e+00" cType="1" res="2.2758824750781059e-02" rms="2.3927348852157593e-01" purity="9.3902385234832764e-01" nType="-99"/>
        <Node pos="r" depth="1" NCoef="0" IVar="5" Cut="1.3303278684616089e+00" cType="0" res="-3.1381738185882568e-01" rms="2.7049967646598816e-01" purity="8.6301572620868683e-02" nType="0">
          <Node pos="l" depth="2" NCoef="0" IVar="-1" Cut="0.0000000000000000e+00" cType="1" res="-7.6692514121532440e-03" rms="4.4773134589195251e-01" purity="3.1456229090690613e-01" nType="-99"/>
          <Node pos="r" depth="2" NCoef="0" IVar="-1" Cut="0.0000000000000000e+00" cType="1" res="-2.5399776175618172e-02" rms="2.1062977612018585e-01" purity="4.7528296709060669e-02" nType="-99"/>
        </Node>
      </Node>
    </BinaryTree>
    <BinaryTree type="DecisionTree" boostWeight="1.0000000000000000e+00" itree="9">
      <Node pos="s" depth="0" NCoef="0" IVar="5" Cut="1.6040352582931519e+00" cType="0" res="-2.3249165713787079e-01" rms="3.3346399664878845e-01" purity="1.8054220080375671e-01" nType="0">
        <Node pos="l" depth="1" NCoef="0" IVar="-1" Cut="0.0000000000000000e+00" cType="1" res="1.5622278675436974e-02" rms="3.6375111341476440e-01" purity="8.1704258918762207e-01" nType="-99"/>
        <Node pos="r" depth="1" NCoef="0" IVar="6" Cut="2.6713156700134277e+00" cType="1" res="-3.2060188055038452e-01" rms="2.3932527005672455e-01" purity="6.3671112060546875e-02" nType="0">
          <Node pos="l" depth="2" NCoef="0" IVar="-1" Cut="0.0000000000000000e+00" cType="1" res="-1.4296924695372581e-02" rms="4.1545826196670532e-01" purity="2.2924433648586273e-01" nType="-99"/>
          <Node pos="r" depth="2" NCoef="0" IVar="-1" Cut="0.0000000000000000e+00" cType="1" res="-2.4649120867252350e-02" rms="1.8887829780578613e-01" purity="3.7450280040502548e-02" nType="-99"/>
        </Node>
      </Node>
    </BinaryTree>
    <BinaryTree type="DecisionTree" boostWeight="1.0000000000000000e+00" itree="10">
      <Node pos="s" depth="0" NCoef="0" IVar="5" Cut="1.7877689599990845e+00" cType="0" res="-2.2706198692321777e-01" rms="3.2797405123710632e-01" purity="1.7616848647594452e-01" nType="0">
        <Node pos="l" depth="1" NCoef="0" IVar="-1" Cut="0.0000000000000000e+00" cType="1" res="2.1227978169918060e-02" rms="2.8122523427009583e-01" purity="9.1213965415954590e-01" nType="-99"/>
        <Node pos="r" depth="1" NCoef="0" IVar="5" Cut="1.3697038888931274e+00" cType="0" res="-2.9731407761573792e-01" rms="2.6188036799430847e-01" purity="8.0003969371318817e-02" nType="0">
          <Node pos="l" depth="2" NCoef="0" IVar="-1" Cut="0.0000000000000000e+00" cType="1" res="-6.9962483830749989e-03" rms="4.4812166690826416e-01" purity="3.0927616357803345e-01" nType="-99"/>
          <Node pos="r" depth="2" NCoef="0" IVar="-1" Cut="0.0000000000000000e+00" cType="1" res="-2.4754980579018593e-02" rms="2.1355473995208740e-01" purity="4.8986352980136871e-02" nType="-99"/>
        </Node>
      </Node>
    </BinaryTree>
    <BinaryTree type="DecisionTree" boostWeight="1.0000000000000000e+00" itree="11">
      <Node pos="s" depth="0" NCoef="0" IVar="5" Cut="1.7842978239059448e+00" cType="0" res="-2.1615913510322571e-01" rms="3.2644072175025940e-01" purity="1.8096783757209778e-01" nType="0">
        <Node pos="l" depth="1" NCoef="0" IVar="-1" Cut="0.0000000000000000e+00" cType="1" res="1.8690429627895355e-02" rms="2.9984849691390991e-01" purity="8.9837396144866943e-01" nType="-99"/>
        <Node pos="r" depth="1" NCoef="0" IVar="6" Cut="2.6057775020599365e+00" cType="1" res="-2.8671994805335999e-01" rms="2.6152947545051575e-01" purity="8.0413185060024261e-02" nType="0">
          <Node pos="l" depth="2" NCoef="0" IVar="-1" Cut="0.0000000000000000e+00" cType="1" res="-8.2121379673480988e-03" rms="4.4801676273345947e-01" purity="3.0873674154281616e-01" nType="-99"/>
          <Node pos="r" depth="2" NCoef="0" IVar="-1" Cut="0.0000000000000000e+00" cType="1" res="-2.3301456123590469e-02" rms="2.1371059119701385e-01" purity="4.9997903406620026e-02" nType="-99"/>
        </Node>
      </Node>
    </BinaryTree>
    <BinaryTree type="DecisionTree" boostWeight="1.0000000000000000e+00" itree="12">
      <Node pos="s" depth="0" NCoef="0" IVar="5" Cut="1.8383346796035767e+00" cType="0" res="-2.0971608161926270e-01" rms="3.1988418102264404e-01" purity="1.7924605309963226e-01" nType="0">
        <Node pos="l" depth="1" NCoef="0" IVar="-1" Cut="0.0000000000000000e+00" cType="1" res="2.0719228312373161e-02" rms="2.4000446498394012e-01" purity="9.3861091136932373e-01" nType="-99"/>
        <Node pos="r" depth="1" NCoef="0" IVar="6" Cut="2.4936366081237793e+00" cType="1" res="-2.7630773186683655e-01" rms="2.6177597045898438e-01" purity="8.3109430968761444e-02" nType="0">
          <Node pos="l" depth="2" NCoef="0" IVar="-1" Cut="0.0000000000000000e+00" cType="1" res="-3.6247782409191132e-03" rms="4.6339398622512817e-01" purity="3.7480860948562622e-01" nType="-99"/>
          <Node pos="r" depth="2" NCoef="0" IVar="-1" Cut="0.0000000000000000e+00" cType="1" res="-2.2375917062163353e-02" rms="2.2016595304012299e-01" purity="5.4603729397058487e-02" nType="-99"/>
        </Node>
      </Node>
    </BinaryTree>
    <BinaryTree type="DecisionTree" boostWeight="1.0000000000000000e+00" itree="13">
      <Node pos="s" depth="0" NCoef="0" IVar="5" Cut="1.7724337577819824e+00" cType="0" res="-1.9874030351638794e-01" rms="3.2147112488746643e-01" purity="1.8407075107097626e-01" nType="0">
        <Node pos="l" depth="1" NCoef="0" IVar="-1" Cut="0.0000000000000000e+00" cType="1" res="1.7982171848416328e-02" rms="2.9889059066772461e-01" purity="8.9780324697494507e-01" nType="-99"/>
        <Node pos="r" depth="1" NCoef="0" IVar="6" Cut="2.7528171539306641e+00" cType="1" res="-2.6523658633232117e-01" rms="2.6408556103706360e-01" purity="8.2814835011959076e-02" nType="0">
          <Node pos="l" depth="2" NCoef="0" IVar="-1" Cut="0.0000000000000000e+00" cType="1" res="-1.0447693057358265e-02" rms="4.1899037361145020e-01" purity="2.5395631790161133e-01" nType="-99"/>
          <Node pos="r" depth="2" NCoef="0" IVar="-1" Cut="0.0000000000000000e+00" cType="1" res="-2.2944452241063118e-02" rms="1.9893699884414673e-01" purity="4.2580232024192810e-02" nType="-99"/>
        </Node>
      </Node>
    </BinaryTree>
    <BinaryTree type="DecisionTree" boostWeight="1.0000000000000000e+00" itree="14">
      <Node pos="s" depth="0" NCoef="0" IVar="5" Cut="1.5303113460540771e+00" cType="0" res="-1.9171305000782013e-01" rms="3.1707730889320374e-01" purity="1.8287321925163269e-01" nType="0">
        <Node pos="l" depth="1" NCoef="0" IVar="-1" Cut="0.0000000000000000e+00" cType="1" res="1.2453936971724033e-02" rms="3.7150740623474121e-01" purity="7.7048081159591675e-01" nType="-99"/>
        <Node pos="r" depth="1" NCoef="0" IVar="6" Cut="2.7465546131134033e+00" cType="1" res="-2.6946911215782166e-01" rms="2.3883835971355438e-01" purity="6.3892334699630737e-02" nType="0">
          <Node pos="l" depth="2" NCoef="0" IVar="-1" Cut="0.0000000000000000e+00" cType="1" res="-1.4272715896368027e-02" rms="3.8945770263671875e-01" purity="1.9343332946300507e-01" nType="-99"/>
          <Node pos="r" depth="2" NCoef="0" IVar="-1" Cut="0.0000000000000000e+00" cType="1" res="-2.2592160850763321e-02" rms="1.8610119819641113e-01" purity="3.6236863583326340e-02" nType="-99"/>
        </Node>
      </Node>
    </BinaryTree>
    <BinaryTree type="DecisionTree" boostWeight="1.0000000000000000e+00" itree="15">
      <Node pos="s" depth="0" NCoef="0" IVar="5" Cut="1.6537797451019287e+00" cType="0" res="-1.8883462250232697e-01" rms="3.1003174185752869e-01" purity="1.7700803279876709e-01" nType="0">
        <Node pos="l" depth="1" NCoef="0" IVar="-1" Cut="0.0000000000000000e+00" cType="1" res="1.6192393377423286e-02" rms="3.2575562596321106e-01" purity="8.6054670810699463e-01" nType="-99"/>
        <Node pos="r" depth="1" NCoef="0" IVar="5" Cut="1.2630327939987183e+00" cType="0" res="-2.5475430488586426e-01" rms="2.4926495552062988e-01" purity="7.1286447346210480e-02" nType="0">
          <Node pos="l" depth="2" NCoef="0" IVar="-1" Cut="0.0000000000000000e+00" cType="1" res="-8.3796186372637749e-03" rms="4.0002131462097168e-01" purity="2.1921078860759735e-01" nType="-99"/>
          <Node pos="r" depth="2" NCoef="0" IVar="-1" Cut="0.0000000000000000e+00" cType="1" res="-2.3229470476508141e-02" rms="1.9751903414726257e-01" purity="4.1728511452674866e-02" nType="-99"/>
        </Node>
      </Node>
    </BinaryTree>
    <BinaryTree type="DecisionTree" boostWeight="1.0000000000000000e+00" itree="16">
      <Node pos="s" depth="0" NCoef="0" IVar="5" Cut="1.8309494256973267e+00" cType="0" res="-1.7975005507469177e-01" rms="3.0844300985336304e-01" purity="1.8071471154689789e-01" nType="0">
        <Node pos="l" depth="1" NCoef="0" IVar="-1" Cut="0.0000000000000000e+00" cType="1" res="1.9663330167531967e-02" rms="2.3080696165561676e-01" purity="9.4355362653732300e-01" nType="-99"/>
        <Node pos="r" depth="1" NCoef="0" IVar="5" Cut="1.3701320886611938e+00" cType="0" res="-2.3907695710659027e-01" rms="2.6268926262855530e-01" purity="8.4460243582725525e-02" nType="0">
          <Node pos="l" depth="2" NCoef="0" IVar="-1" Cut="0.0000000000000000e+00" cType="1" res="-4.9612047150731087e-03" rms="4.4658645987510681e-01" purity="3.2200050354003906e-01" nType="-99"/>
          <Node pos="r" depth="2" NCoef="0" IVar="-1" Cut="0.0000000000000000e+00" cType="1" res="-2.1646421402692795e-02" rms="2.1316500008106232e-01" purity="4.9360368400812149e-02" nType="-99"/>
        </Node>
      </Node>
    </BinaryTree>
    <BinaryTree type="DecisionTree" boostWeight="1.0000000000000000e+00" itree="17">
      <Node pos="s" depth="0" NCoef="0" IVar="5" Cut="1.5578386783599854e+00" cType="0" res="-1.7372095584869385e-01" rms="3.0592736601829529e-01" purity="1.8007019162178040e-01" nType="0">
        <Node pos="l" depth="1" NCoef="0" IVar="-1" Cut="0.0000000000000000e+00" cType="1" res="1.3076570816338062e-02" rms="3.6039534211158752e-01" purity="7.9618126153945923e-01" nType="-99"/>
        <Node pos="r" depth="1" NCoef="0" IVar="5" Cut="1.2504782676696777e+00" cType="0" res="-2.4214737117290497e-01" rms="2.3906408250331879e-01" purity="6.4429298043251038e-02" nType="0">
          <Node pos="l" depth="2" NCoef="0" IVar="-1" Cut="0.0000000000000000e+00" cType="1" res="-9.6314596012234688e-03" rms="3.7819099426269531e-01" purity="1.8683962523937225e-01" nType="-99"/>
          <Node pos="r" depth="2" NCoef="0" IVar="-1" Cut="0.0000000000000000e+00" cType="1" res="-2.1907871589064598e-02" rms="1.9866535067558289e-01" purity="4.2057812213897705e-02" nType="-99"/>
        </Node>
      </Node>
    </BinaryTree>
    <BinaryTree type="DecisionTree" boostWeight="1.0000000000000000e+00" itree="18">
      <Node pos="s" depth="0" NCoef="0" IVar="5" Cut="1.6868200302124023e+00" cType="0" res="-1.6685643792152405e-01" rms="3.0252125859260559e-01" purity="1.8148015439510345e-01" nType="0">
        <Node pos="l" depth="1" NCoef="0" IVar="-1" Cut="0.0000000000000000e+00" cType="1" res="1.5280937775969505e-02" rms="3.1555896997451782e-01" purity="8.7326264381408691e-01" nType="-99"/>
        <Node pos="r" depth="1" NCoef="0" IVar="6" Cut="2.6870012283325195e+00" cType="1" res="-2.2800177335739136e-01" rms="2.5018048286437988e-01" purity="7.3403194546699524e-02" nType="0">
          <Node pos="l" depth="2" NCoef="0" IVar="-1" Cut="0.0000000000000000e+00" cType="1" res="-8.0035114660859108e-03" rms="4.2113578319549561e-01" purity="2.5399869680404663e-01" nType="-99"/>
          <Node pos="r" depth="2" NCoef="0" IVar="-1" Cut="0.0000000000000000e+00" cType="1" res="-2.0862910896539688e-02" rms="1.9934412837028503e-01" purity="4.2598780244588852e-02" nType="-99"/>
        </Node>
      </Node>
    </BinaryTree>
    <BinaryTree type="DecisionTree" boostWeight="1.0000000000000000e+00" itree="19">
      <Node pos="s" depth="0" NCoef="0" IVar="5" Cut="1.9453783035278320e+00" cType="0" res="-1.6068880259990692e-01" rms="3.0096980929374695e-01" purity="1.8299996852874756e-01" nType="0">
        <Node pos="l" depth="1" NCoef="0" IVar="-1" Cut="0.0000000000000000e+00" cType="1" res="2.0931215956807137e-02" rms="1.9667884707450867e-01" purity="9.5969277620315552e-01" nType="-99"/>
        <Node pos="r" depth="1" NCoef="0" IVar="6" Cut="2.7465598583221436e+00" cType="1" res="-2.1133436262607574e-01" rms="2.6714327931404114e-01" purity="9.4672180712223053e-02" nType="0">
          <Node pos="l" depth="2" NCoef="0" IVar="-1" Cut="0.0000000000000000e+00" cType="1" res="-5.9589450247585773e-03" rms="4.1584455966949463e-01" purity="2.9677963256835938e-01" nType="-99"/>
          <Node pos="r" depth="2" NCoef="0" IVar="-1" Cut="0.0000000000000000e+00" cType="1" res="-2.0363548770546913e-02" rms="2.0257481932640076e-01" purity="4.6007648110389709e-02" nType="-99"/>
        </Node>
      </Node>
    </BinaryTree>
    <BinaryTree type="DecisionTree" boostWeight="1.0000000000000000e+00" itree="20">
      <Node pos="s" depth="0" NCoef="0" IVar="5" Cut="1.6094813346862793e+00" cType="0" res="-1.5805943310260773e-01" rms="2.9520443081855774e-01" purity="1.7735278606414795e-01" nType="0">
        <Node pos="l" depth="1" NCoef="0" IVar="-1" Cut="0.0000000000000000e+00" cType="1" res="1.3074004091322422e-02" rms="3.3982115983963013e-01" purity="8.2407170534133911e-01" nType="-99"/>
        <Node pos="r" depth="1" NCoef="0" IVar="6" Cut="2.6151177883148193e+00" cType="1" res="-2.1743883192539215e-01" rms="2.4113592505455017e-01" purity="6.6826455295085907e-02" nType="0">
          <Node pos="l" depth="2" NCoef="0" IVar="-1" Cut="0.0000000000000000e+00" cType="1" res="-8.0322232097387314e-03" rms="4.2756214737892151e-01" purity="2.5589114427566528e-01" nType="-99"/>
          <Node pos="r" depth="2" NCoef="0" IVar="-1" Cut="0.0000000000000000e+00" cType="1" res="-1.9751608371734619e-02" rms="2.0153769850730896e-01" purity="4.3527286499738693e-02" nType="-99"/>
        </Node>
      </Node>
    </BinaryTree>
    <BinaryTree type="DecisionTree" boostWeight="1.0000000000000000e+00" itree="21">
      <Node pos="s" depth="0" NCoef="0" IVar="5" Cut="1.8752821683883667e+00" cType="0" res="-1.5251737833023071e-01" rms="2.9323711991310120e-01" purity="1.7927759885787964e-01" nType="0">
        <Node pos="l" depth="1" NCoef="0" IVar="-1" Cut="0.0000000000000000e+00" cType="1" res="1.8385220319032669e-02" rms="2.3346553742885590e-01" purity="9.4177323579788208e-01" nType="-99"/>
        <Node pos="r" depth="1" NCoef="0" IVar="6" Cut="2.3483934402465820e+00" cType="1" res="-2.0177310705184937e-01" rms="2.5964963436126709e-01" purity="8.6637817323207855e-02" nType="0">
          <Node pos="l" depth="2" NCoef="0" IVar="-1" Cut="0.0000000000000000e+00" cType="1" res="3.0882682185620070e-03" rms="4.6036463975906372e-01" purity="4.2383694648742676e-01" nType="-99"/>
          <Node pos="r" depth="2" NCoef="0" IVar="-1" Cut="0.0000000000000000e+00" cType="1" res="-1.8529832363128662e-02" rms="2.3184379935264587e-01" purity="6.4021535217761993e-02" nType="-99"/>
        </Node>
      </Node>
    </BinaryTree>
    <BinaryTree type="DecisionTree" boostWeight="1.0000000000000000e+00" itree="22">
      <Node pos="s" depth="0" NCoef="0" IVar="5" Cut="1.4831588268280029e+00" cType="0" res="-1.4612315595149994e-01" rms="2.9233205318450928e-01" purity="1.7911145091056824e-01" nType="0">
        <Node pos="l" depth="1" NCoef="0" IVar="-1" Cut="0.0000000000000000e+00" cType="1" res="1.0063689202070236e-02" rms="3.7081980705261230e-01" purity="7.3080623149871826e-01" nType="-99"/>
        <Node pos="r" depth="1" NCoef="0" IVar="1" Cut="4.1010406494140625e+01" cType="0" res="-2.0976729691028595e-01" rms="2.2703740000724792e-01" purity="5.7719610631465912e-02" nType="0">
          <Node pos="l" depth="2" NCoef="0" IVar="-1" Cut="0.0000000000000000e+00" cType="1" res="-1.4980556443333626e-02" rms="2.8341275453567505e-01" purity="9.4118259847164154e-02" nType="-99"/>
          <Node pos="r" depth="2" NCoef="0" IVar="-1" Cut="0.0000000000000000e+00" cType="1" res="-2.2442277520895004e-02" rms="1.5360337495803833e-01" purity="2.5332771241664886e-02" nType="-99"/>
        </Node>
      </Node>
    </BinaryTree>
    <BinaryTree type="DecisionTree" boostWeight="1.0000000000000000e+00" itree="23">
      <Node pos="s" depth="0" NCoef="0" IVar="5" Cut="1.7844305038452148e+00" cType="0" res="-1.3948191702365875e-01" rms="2.8967320919036865e-01" purity="1.8318173289299011e-01" nType="0">
        <Node pos="l" depth="1" NCoef="0" IVar="-1" Cut="0.0000000000000000e+00" cType="1" res="1.6699099913239479e-02" rms="2.6711165904998779e-01" purity="9.1811078786849976e-01" nType="-99"/>
        <Node pos="r" depth="1" NCoef="0" IVar="6" Cut="2.4549846649169922e+00" cType="1" res="-1.9001069664955139e-01" rms="2.5450360774993896e-01" purity="8.0840356647968292e-02" nType="0">
          <Node pos="l" depth="2" NCoef="0" IVar="-1" Cut="0.0000000000000000e+00" cType="1" res="-3.9038548129610717e-04" rms="4.5384374260902405e-01" purity="3.6328324675559998e-01" nType="-99"/>
          <Node pos="r" depth="2" NCoef="0" IVar="-1" Cut="0.0000000000000000e+00" cType="1" res="-1.8370717763900757e-02" rms="2.2356809675693512e-01" purity="5.7444199919700623e-02" nType="-99"/>
        </Node>
      </Node>
    </BinaryTree>
    <BinaryTree type="DecisionTree" boostWeight="1.0000000000000000e+00" itree="24">
      <Node pos="s" depth="0" NCoef="0" IVar="5" Cut="1.9850118160247803e+00" cType="0" res="-1.3695016503334045e-01" rms="2.8747901320457458e-01" purity="1.7834937572479248e-01" nType="0">
        <Node pos="l" depth="1" NCoef="0" IVar="-1" Cut="0.0000000000000000e+00" cType="1" res="1.9549915567040443e-02" rms="1.8899762630462646e-01" purity="9.6290373802185059e-01" nType="-99"/>
        <Node pos="r" depth="1" NCoef="0" IVar="6" Cut="2.5365035533905029e+00" cType="1" res="-1.7856325209140778e-01" rms="2.6387646794319153e-01" purity="9.4871118664741516e-02" nType="0">
          <Node pos="l" depth="2" NCoef="0" IVar="-1" Cut="0.0000000000000000e+00" cType="1" res="-4.6887731878086925e-04" rms="4.3413943052291870e-01" purity="3.8405460119247437e-01" nType="-99"/>
          <Node pos="r" depth="2" NCoef="0" IVar="-1" Cut="0.0000000000000000e+00" cType="1" res="-1.7611036077141762e-02" rms="2.2772532701492310e-01" purity="6.1092346906661987e-02" nType="-99"/>
        </Node>
      </Node>
    </BinaryTree>
    <BinaryTree type="DecisionTree" boostWeight="1.0000000000000000e+00" itree="25">
      <Node pos="s" depth="0" NCoef="0" IVar="5" Cut="1.5248277187347412e+00" cType="0" res="-1.2974222004413605e-01" rms="2.8553929924964905e-01" purity="1.8230460584163666e-01" nType="0">
        <Node pos="l" depth="1" NCoef="0" IVar="-1" Cut="0.0000000000000000e+00" cType="1" res="1.1210524477064610e-02" rms="3.4938502311706543e-01" purity="7.7347177267074585e-01" nType="-99"/>
        <Node pos="r" depth="1" NCoef="0" IVar="5" Cut="1.2273755073547363e+00" cType="0" res="-1.8763659894466400e-01" rms="2.3133487999439240e-01" purity="6.1189528554677963e-02" nType="0">
          <Node pos="l" depth="2" NCoef="0" IVar="-1" Cut="0.0000000000000000e+00" cType="1" res="-7.5356857851147652e-03" rms="3.6225059628486633e-01" purity="1.7323145270347595e-01" nType="-99"/>
          <Node pos="r" depth="2" NCoef="0" IVar="-1" Cut="0.0000000000000000e+00" cType="1" res="-2.0537763833999634e-02" rms="1.9200493395328522e-01" purity="3.9530754089355469e-02" nType="-99"/>
        </Node>
      </Node>
    </BinaryTree>
    <BinaryTree type="DecisionTree" boostWeight="1.0000000000000000e+00" itree="26">
      <Node pos="s" depth="0" NCoef="0" IVar="0" Cut="4.8561836242675781e+01" cType="0" res="-1.2972971796989441e-01" rms="2.8140872716903687e-01" purity="1.7494209110736847e-01" nType="0">
        <Node pos="l" depth="1" NCoef="0" IVar="-1" Cut="0.0000000000000000e+00" cType="1" res="1.5890942886471748e-02" rms="3.2687047123908997e-01" purity="7.8026360273361206e-01" nType="-99"/>
        <Node pos="r" depth="1" NCoef="0" IVar="8" Cut="1.7451634407043457e+00" cType="0" res="-1.7763131856918335e-01" rms="2.4179416894912720e-01" purity="7.4662141501903534e-02" nType="0">
          <Node pos="l" depth="2" NCoef="0" IVar="-1" Cut="0.0000000000000000e+00" cType="1" res="-1.2699590297415853e-03" rms="4.2084276676177979e-01" purity="3.0942872166633606e-01" nType="-99"/>
          <Node pos="r" depth="2" NCoef="0" IVar="-1" Cut="0.0000000000000000e+00" cType="1" res="-1.6839636489748955e-02" rms="2.1639919281005859e-01" purity="5.6113865226507187e-02" nType="-99"/>
        </Node>
      </Node>
    </BinaryTree>
    <BinaryTree type="DecisionTree" boostWeight="1.0000000000000000e+00" itree="27">
      <Node pos="s" depth="0" NCoef="0" IVar="5" Cut="1.5262197256088257e+00" cType="0" res="-1.2514062225818634e-01" rms="2.7996149659156799e-01" purity="1.7709191143512726e-01" nType="0">
        <Node pos="l" depth="1" NCoef="0" IVar="-1" Cut="0.0000000000000000e+00" cType="1" res="9.5885731279850006e-03" rms="3.6044251918792725e-01" purity="7.6400184631347656e-01" nType="-99"/>
        <Node pos="r" depth="1" NCoef="0" IVar="6" Cut="2.1758856773376465e+00" cType="1" res="-1.7711190879344940e-01" rms="2.2776079177856445e-01" purity="5.9311334043741226e-02" nType="0">
          <Node pos="l" depth="2" NCoef="0" IVar="-1" Cut="0.0000000000000000e+00" cType="1" res="1.4826112892478704e-03" rms="4.6699213981628418e-01" purity="3.5061746835708618e-01" nType="-99"/>
          <Node pos="r" depth="2" NCoef="0" IVar="-1" Cut="0.0000000000000000e+00" cType="1" res="-1.7832813784480095e-02" rms="2.1282902359962463e-01" purity="4.9940198659896851e-02" nType="-99"/>
        </Node>
      </Node>
    </BinaryTree>
    <BinaryTree type="DecisionTree" boostWeight="1.0000000000000000e+00" itree="28">
      <Node pos="s" depth="0" NCoef="0" IVar="5" Cut="1.8833265304565430e+00" cType="0" res="-1.1949531733989716e-01" rms="2.7945756912231445e-01" purity="1.7842489480972290e-01" nType="0">
        <Node pos="l" depth="1" NCoef="0" IVar="-1" Cut="0.0000000000000000e+00" cType="1" res="1.7395211383700371e-02" rms="2.2683027386665344e-01" purity="9.4429719448089600e-01" nType="-99"/>
        <Node pos="r" depth="1" NCoef="0" IVar="6" Cut="2.3565647602081299e+00" cType="1" res="-1.5857192873954773e-01" rms="2.5802361965179443e-01" purity="8.9147455990314484e-02" nType="0">
          <Node pos="l" depth="2" NCoef="0" IVar="-1" Cut="0.0000000000000000e+00" cType="1" res="4.3438430875539780e-03" rms="4.4659188389778137e-01" purity="4.3180146813392639e-01" nType="-99"/>
          <Node pos="r" depth="2" NCoef="0" IVar="-1" Cut="0.0000000000000000e+00" cType="1" res="-1.6233129426836967e-02" rms="2.3395471274852753e-01" purity="6.6362425684928894e-02" nType="-99"/>
        </Node>
      </Node>
    </BinaryTree>
    <BinaryTree type="DecisionTree" boostWeight="1.0000000000000000e+00" itree="29">
      <Node pos="s" depth="0" NCoef="0" IVar="5" Cut="1.9008527994155884e+00" cType="0" res="-1.1192332953214645e-01" rms="2.8041425347328186e-01" purity="1.8213656544685364e-01" nType="0">
        <Node pos="l" depth="1" NCoef="0" IVar="-1" Cut="0.0000000000000000e+00" cType="1" res="1.7404338344931602e-02" rms="2.0884433388710022e-01" purity="9.5335137844085693e-01" nType="-99"/>
        <Node pos="r" depth="1" NCoef="0" IVar="6" Cut="2.6714227199554443e+00" cType="1" res="-1.5070132911205292e-01" rms="2.6169064640998840e-01" purity="9.1320723295211792e-02" nType="0">
          <Node pos="l" depth="2" NCoef="0" IVar="-1" Cut="0.0000000000000000e+00" cType="1" res="-2.7628643438220024e-03" rms="4.1372829675674438e-01" purity="3.0672010779380798e-01" nType="-99"/>
          <Node pos="r" depth="2" NCoef="0" IVar="-1" Cut="0.0000000000000000e+00" cType="1" res="-1.7199402675032616e-02" rms="2.1841768920421600e-01" purity="5.3915932774543762e-02" nType="-99"/>
        </Node>
      </Node>
    </BinaryTree>
    <BinaryTree type="DecisionTree" boostWeight="1.0000000000000000e+00" itree="30">
      <Node pos="s" depth="0" NCoef="0" IVar="5" Cut="1.5150430202484131e+00" cType="0" res="-1.0931873321533203e-01" rms="2.7984932065010071e-01" purity="1.8127964437007904e-01" nType="0">
        <Node pos="l" depth="1" NCoef="0" IVar="-1" Cut="0.0000000000000000e+00" cType="1" res="9.3195969238877296e-03" rms="3.5517075657844543e-01" purity="7.4929314851760864e-01" nType="-99"/>
        <Node pos="r" depth="1" NCoef="0" IVar="1" Cut="4.5307678222656250e+01" cType="0" res="-1.5819412469863892e-01" rms="2.3346357047557831e-01" purity="6.2165595591068268e-02" nType="0">
          <Node pos="l" depth="2" NCoef="0" IVar="-1" Cut="0.0000000000000000e+00" cType="1" res="-1.1395133100450039e-02" rms="2.9624816775321960e-01" purity="1.0634411126375198e-01" nType="-99"/>
          <Node pos="r" depth="2" NCoef="0" IVar="-1" Cut="0.0000000000000000e+00" cType="1" res="-1.9337695091962814e-02" rms="1.7676289379596710e-01" purity="3.4010272473096848e-02" nType="-99"/>
        </Node>
      </Node>
    </BinaryTree>
    <BinaryTree type="DecisionTree" boostWeight="1.0000000000000000e+00" itree="31">
      <Node pos="s" depth="0" NCoef="0" IVar="5" Cut="1.5316728353500366e+00" cType="0" res="-1.0720703005790710e-01" rms="2.7210262417793274e-01" purity="1.7923958599567413e-01" nType="0">
        <Node pos="l" depth="1" NCoef="0" IVar="-1" Cut="0.0000000000000000e+00" cType="1" res="1.0536961257457733e-02" rms="3.4195902943611145e-01" purity="7.8330224752426147e-01" nType="-99"/>
        <Node pos="r" depth="1" NCoef="0" IVar="8" Cut="1.8759248256683350e+00" cType="0" res="-1.5556447207927704e-01" rms="2.2673895955085754e-01" purity="5.9162989258766174e-02" nType="0">
          <Node pos="l" depth="2" NCoef="0" IVar="-1" Cut="0.0000000000000000e+00" cType="1" res="3.2023850508267060e-05" rms="4.2921572923660278e-01" purity="2.8310632705688477e-01" nType="-99"/>
          <Node pos="r" depth="2" NCoef="0" IVar="-1" Cut="0.0000000000000000e+00" cType="1" res="-1.6878038644790649e-02" rms="2.0913213491439819e-01" purity="4.8304844647645950e-02" nType="-99"/>
        </Node>
      </Node>
    </BinaryTree>
    <BinaryTree type="DecisionTree" boostWeight="1.0000000000000000e+00" itree="32">
      <Node pos="s" depth="0" NCoef="0" IVar="5" Cut="1.9418715238571167e+00" cType="0" res="-1.0490123182535172e-01" rms="2.7244782447814941e-01" purity="1.7954069375991821e-01" nType="0">
        <Node pos="l" depth="1" NCoef="0" IVar="-1" Cut="0.0000000000000000e+00" cType="1" res="1.6544107347726822e-02" rms="2.0826806128025055e-01" purity="9.5431107282638550e-01" nType="-99"/>
        <Node pos="r" depth="1" NCoef="0" IVar="6" Cut="2.6872558593750000e+00" cType="1" res="-1.3995262980461121e-01" rms="2.5635772943496704e-01" purity="9.1339588165283203e-02" nType="0">
          <Node pos="l" depth="2" NCoef="0" IVar="-1" Cut="0.0000000000000000e+00" cType="1" res="-1.4637663261964917e-03" rms="4.1118079423904419e-01" purity="3.1298202276229858e-01" nType="-99"/>
          <Node pos="r" depth="2" NCoef="0" IVar="-1" Cut="0.0000000000000000e+00" cType="1" res="-1.6609031707048416e-02" rms="2.0501080155372620e-01" purity="4.8086699098348618e-02" nType="-99"/>
        </Node>
      </Node>
    </BinaryTree>
    <BinaryTree type="DecisionTree" boostWeight="1.0000000000000000e+00" itree="33">
      <Node pos="s" depth="0" NCoef="0" IVar="5" Cut="1.9850118160247803e+00" cType="0" res="-9.6961118280887604e-02" rms="2.7514618635177612e-01" purity="1.8435525894165039e-01" nType="0">
        <Node pos="l" depth="1" NCoef="0" IVar="-1" Cut="0.0000000000000000e+00" cType="1" res="1.7138725146651268e-02" rms="1.8626394867897034e-01" purity="9.6393591165542603e-01" nType="-99"/>
        <Node pos="r" depth="1" NCoef="0" IVar="6" Cut="2.7496948242187500e+00" cType="1" res="-1.2987573444843292e-01" rms="2.6289141178131104e-01" purity="9.9623396992683411e-02" nType="0">
          <Node pos="l" depth="2" NCoef="0" IVar="-1" Cut="0.0000000000000000e+00" cType="1" res="-1.2991194380447268e-03" rms="3.9924043416976929e-01" purity="3.0602020025253296e-01" nType="-99"/>
          <Node pos="r" depth="2" NCoef="0" IVar="-1" Cut="0.0000000000000000e+00" cType="1" res="-1.7038296908140182e-02" rms="2.0712411403656006e-01" purity="4.9062017351388931e-02" nType="-99"/>
        </Node>
      </Node>
    </BinaryTree>
    <BinaryTree type="DecisionTree" boostWeight="1.0000000000000000e+00" itree="34">
      <Node pos="s" depth="0" NCoef="0" IVar="5" Cut="1.9894192218780518e+00" cType="0" res="-9.9431984126567841e-02" rms="2.6923331618309021e-01" purity="1.7753595113754272e-01" nType="0">
        <Node pos="l" depth="1" NCoef="0" IVar="-1" Cut="0.0000000000000000e+00" cType="1" res="1.6412321478128433e-02" rms="1.9318328797817230e-01" purity="9.6103066205978394e-01" nType="-99"/>
        <Node pos="r" depth="1" NCoef="0" IVar="6" Cut="2.8456501960754395e+00" cType="1" res="-1.3083249330520630e-01" rms="2.5676620006561279e-01" purity="9.4470001757144928e-02" nType="0">
          <Node pos="l" depth="2" NCoef="0" IVar="-1" Cut="0.0000000000000000e+00" cType="1" res="-5.0571127794682980e-03" rms="3.6322519183158875e-01" purity="2.3369950056076050e-01" nType="-99"/>
          <Node pos="r" depth="2" NCoef="0" IVar="-1" Cut="0.0000000000000000e+00" cType="1" res="-1.7085125669836998e-02" rms="1.9267514348030090e-01" purity="4.0609508752822876e-02" nType="-99"/>
        </Node>
      </Node>
    </BinaryTree>
    <BinaryTree type="DecisionTree" boostWeight="1.0000000000000000e+00" itree="35">
      <Node pos="s" depth="0" NCoef="0" IVar="5" Cut="1.4808653593063354e+00" cType="0" res="-9.0015657246112823e-02" rms="2.7256467938423157e-01" purity="1.8394130468368530e-01" nType="0">
        <Node pos="l" depth="1" NCoef="0" IVar="-1" Cut="0.0000000000000000e+00" cType="1" res="8.8099157437682152e-03" rms="3.5089191794395447e-01" purity="7.3567223548889160e-01" nType="-99"/>
        <Node pos="r" depth="1" NCoef="0" IVar="1" Cut="3.6713134765625000e+01" cType="0" res="-1.3563609123229980e-01" rms="2.2795994579792023e-01" purity="5.9305824339389801e-02" nType="0">
          <Node pos="l" depth="2" NCoef="0" IVar="-1" Cut="0.0000000000000000e+00" cType="1" res="-1.1916606687009335e-02" rms="2.7356836199760437e-01" purity="8.8591612875461578e-02" nType="-99"/>
          <Node pos="r" depth="2" NCoef="0" IVar="-1" Cut="0.0000000000000000e+00" cType="1" res="-2.0042927935719490e-02" rms="1.4516170322895050e-01" purity="2.2630685940384865e-02" nType="-99"/>
        </Node>
      </Node>
    </BinaryTree>
    <BinaryTree type="DecisionTree" boostWeight="1.0000000000000000e+00" itree="36">
      <Node pos="s" depth="0" NCoef="0" IVar="5" Cut="1.9566776752471924e+00" cType="0" res="-8.9107416570186615e-02" rms="2.6795327663421631e-01" purity="1.8013672530651093e-01" nType="0">
        <Node pos="l" depth="1" NCoef="0" IVar="-1" Cut="0.0000000000000000e+00" cType="1" res="1.8100852146744728e-02" rms="1.7917941510677338e-01" purity="9.6639740467071533e-01" nType="-99"/>
        <Node pos="r" depth="1" NCoef="0" IVar="6" Cut="2.8053138256072998e+00" cType="1" res="-1.1998319625854492e-01" rms="2.5774705410003662e-01" purity="9.4386428594589233e-02" nType="0">
          <Node pos="l" depth="2" NCoef="0" IVar="-1" Cut="0.0000000000000000e+00" cType="1" res="-3.0258717015385628e-03" rms="3.7983307242393494e-01" purity="2.5950512290000916e-01" nType="-99"/>
          <Node pos="r" depth="2" NCoef="0" IVar="-1" Cut="0.0000000000000000e+00" cType="1" res="-1.6555413603782654e-02" rms="1.9817811250686646e-01" purity="4.3451439589262009e-02" nType="-99"/>
        </Node>
      </Node>
    </BinaryTree>
    <BinaryTree type="DecisionTree" boostWeight="1.0000000000000000e+00" itree="37">
      <Node pos="s" depth="0" NCoef="0" IVar="0" Cut="4.5987972259521484e+01" cType="0" res="-8.3976007997989655e-02" rms="2.7182701230049133e-01" purity="1.8328990042209625e-01" nType="0">
        <Node pos="l" depth="1" NCoef="0" IVar="-1" Cut="0.0000000000000000e+00" cType="1" res="1.2052895501255989e-02" rms="3.2575178146362305e-01" purity="7.2341746091842651e-01" nType="-99"/>
        <Node pos="r" depth="1" NCoef="0" IVar="1" Cut="3.6788639068603516e+01" cType="0" res="-1.2441857159137726e-01" rms="2.4017323553562164e-01" purity="7.1415245532989502e-02" nType="0">
          <Node pos="l" depth="2" NCoef="0" IVar="-1" Cut="0.0000000000000000e+00" cType="1" res="-9.5773991197347641e-03" rms="2.8676244616508484e-01" purity="1.0686687380075455e-01" nType="-99"/>
          <Node pos="r" depth="2" NCoef="0" IVar="-1" Cut="0.0000000000000000e+00" cType="1" res="-1.8310077488422394e-02" rms="1.5431255102157593e-01" purity="2.6289783418178558e-02" nType="-99"/>
        </Node>
      </Node>
    </BinaryTree>
    <BinaryTree type="DecisionTree" boostWeight="1.0000000000000000e+00" itree="38">
      <Node pos="s" depth="0" NCoef="0" IVar="0" Cut="4.6297657012939453e+01" cType="0" res="-8.3801612257957458e-02" rms="2.6811552047729492e-01" purity="1.8032826483249664e-01" nType="0">
        <Node pos="l" depth="1" NCoef="0" IVar="-1" Cut="0.0000000000000000e+00" cType="1" res="1.2181265279650688e-02" rms="3.2466495037078857e-01" purity="7.2926944494247437e-01" nType="-99"/>
        <Node pos="r" depth="1" NCoef="0" IVar="1" Cut="4.1487880706787109e+01" cType="0" res="-1.2317460030317307e-01" rms="2.3641896247863770e-01" purity="6.8934276700019836e-02" nType="0">
          <Node pos="l" depth="2" NCoef="0" IVar="-1" Cut="0.0000000000000000e+00" cType="1" res="-8.8832415640354156e-03" rms="2.9366204142570496e-01" purity="1.1078108102083206e-01" nType="-99"/>
          <Node pos="r" depth="2" NCoef="0" IVar="-1" Cut="0.0000000000000000e+00" cType="1" res="-1.7328590154647827e-02" rms="1.6763478517532349e-01" purity="3.3585391938686371e-02" nType="-99"/>
        </Node>
      </Node>
    </BinaryTree>
    <BinaryTree type="DecisionTree" boostWeight="1.0000000000000000e+00" itree="39">
      <Node pos="s" depth="0" NCoef="0" IVar="0" Cut="4.5988849639892578e+01" cType="0" res="-8.1322059035301208e-02" rms="2.6406905055046082e-01" purity="1.8144644796848297e-01" nType="0">
        <Node pos="l" depth="1" NCoef="0" IVar="-1" Cut="0.0000000000000000e+00" cType="1" res="1.1809787712991238e-02" rms="3.2326793670654297e-01" purity="7.3135530948638916e-01" nType="-99"/>
        <Node pos="r" depth="1" NCoef="0" IVar="8" Cut="2.1430788040161133e+00" cType="0" res="-1.2148621678352356e-01" rms="2.3051428794860840e-01" purity="6.5686926245689392e-02" nType="0">
          <Node pos="l" depth="2" NCoef="0" IVar="-1" Cut="0.0000000000000000e+00" cType="1" res="8.5709253326058388e-03" rms="4.4444918632507324e-01" purity="4.5322716236114502e-01" nType="-99"/>
          <Node pos="r" depth="2" NCoef="0" IVar="-1" Cut="0.0000000000000000e+00" cType="1" res="-1.4385095797479153e-02" rms="2.1970643103122711e-01" purity="5.5934619158506393e-02" nType="-99"/>
        </Node>
      </Node>
    </BinaryTree>
    <BinaryTree type="DecisionTree" boostWeight="1.0000000000000000e+00" itree="40">
      <Node pos="s" depth="0" NCoef="0" IVar="8" Cut="1.6820387840270996e+00" cType="0" res="-8.1312023103237152e-02" rms="2.6291897892951965e-01" purity="1.7709110677242279e-01" nType="0">
        <Node pos="l" depth="1" NCoef="0" IVar="-1" Cut="0.0000000000000000e+00" cType="1" res="1.1480020359158516e-02" rms="3.1824886798858643e-01" purity="6.3792872428894043e-01" nType="-99"/>
        <Node pos="r" depth="1" NCoef="0" IVar="1" Cut="4.3583637237548828e+01" cType="0" res="-1.1647340655326843e-01" rms="2.3504517972469330e-01" purity="9.3079559504985809e-02" nType="0">
          <Node pos="l" depth="2" NCoef="0" IVar="-1" Cut="0.0000000000000000e+00" cType="1" res="-7.7456803992390633e-03" rms="2.9580664634704590e-01" purity="1.7365640401840210e-01" nType="-99"/>
          <Node pos="r" depth="2" NCoef="0" IVar="-1" Cut="0.0000000000000000e+00" cType="1" res="-1.8423216417431831e-02" rms="1.6449204087257385e-01" purity="2.9854502528905869e-02" nType="-99"/>
        </Node>
      </Node>
    </BinaryTree>
    <BinaryTree type="DecisionTree" boostWeight="1.0000000000000000e+00" itree="41">
      <Node pos="s" depth="0" NCoef="0" IVar="5" Cut="1.4831229448318481e+00" cType="0" res="-7.2384767234325409e-02" rms="2.6720049977302551e-01" purity="1.8613533675670624e-01" nType="0">
        <Node pos="l" depth="1" NCoef="0" IVar="-1" Cut="0.0000000000000000e+00" cType="1" res="8.2886768504977226e-03" rms="3.4303399920463562e-01" purity="7.4096578359603882e-01" nType="-99"/>
        <Node pos="r" depth="1" NCoef="0" IVar="5" Cut="1.2538074254989624e+00" cType="0" res="-1.1164158582687378e-01" rms="2.2929356992244720e-01" purity="6.0673937201499939e-02" nType="0">
          <Node pos="l" depth="2" NCoef="0" IVar="-1" Cut="0.0000000000000000e+00" cType="1" res="-3.4014461562037468e-03" rms="3.5354807972908020e-01" purity="1.6993665695190430e-01" nType="-99"/>
          <Node pos="r" depth="2" NCoef="0" IVar="-1" Cut="0.0000000000000000e+00" cType="1" res="-1.5968181192874908e-02" rms="2.0203922688961029e-01" purity="4.4402953237295151e-02" nType="-99"/>
        </Node>
      </Node>
    </BinaryTree>
    <BinaryTree type="DecisionTree" boostWeight="1.0000000000000000e+00" itree="42">
      <Node pos="s" depth="0" NCoef="0" IVar="5" Cut="1.4351917505264282e+00" cType="0" res="-6.9493114948272705e-02" rms="2.6149192452430725e-01" purity="1.8330883979797363e-01" nType="0">
        <Node pos="l" depth="1" NCoef="0" IVar="-1" Cut="0.0000000000000000e+00" cType="1" res="8.6397835984826088e-03" rms="3.3926552534103394e-01" purity="7.0842522382736206e-01" nType="-99"/>
        <Node pos="r" depth="1" NCoef="0" IVar="1" Cut="4.0057800292968750e+01" cType="0" res="-1.1185009032487869e-01" rms="2.1863265335559845e-01" purity="5.4233193397521973e-02" nType="0">
          <Node pos="l" depth="2" NCoef="0" IVar="-1" Cut="0.0000000000000000e+00" cType="1" res="-1.0648341849446297e-02" rms="2.6998475193977356e-01" purity="8.6229421198368073e-02" nType="-99"/>
          <Node pos="r" depth="2" NCoef="0" IVar="-1" Cut="0.0000000000000000e+00" cType="1" res="-1.8860759213566780e-02" rms="1.5200227499008179e-01" purity="2.4380393326282501e-02" nType="-99"/>
        </Node>
      </Node>
    </BinaryTree>
    <BinaryTree type="DecisionTree" boostWeight="1.0000000000000000e+00" itree="43">
      <Node pos="s" depth="0" NCoef="0" IVar="5" Cut="1.9416031837463379e+00" cType="0" res="-7.0453263819217682e-02" rms="2.6045510172843933e-01" purity="1.7953182756900787e-01" nType="0">
        <Node pos="l" depth="1" NCoef="0" IVar="-1" Cut="0.0000000000000000e+00" cType="1" res="1.5871202573180199e-02" rms="1.8421441316604614e-01" purity="9.6412277221679688e-01" nType="-99"/>
        <Node pos="r" depth="1" NCoef="0" IVar="6" Cut="2.7584254741668701e+00" cType="1" res="-9.6603699028491974e-02" rms="2.5429603457450867e-01" purity="9.3217961490154266e-02" nType="0">
          <Node pos="l" depth="2" NCoef="0" IVar="-1" Cut="0.0000000000000000e+00" cType="1" res="-9.6243096049875021e-04" rms="3.7782409787178040e-01" purity="2.7073401212692261e-01" nType="-99"/>
          <Node pos="r" depth="2" NCoef="0" IVar="-1" Cut="0.0000000000000000e+00" cType="1" res="-1.5300068072974682e-02" rms="2.0445238053798676e-01" purity="4.6868186444044113e-02" nType="-99"/>
        </Node>
      </Node>
    </BinaryTree>
    <BinaryTree type="DecisionTree" boostWeight="1.0000000000000000e+00" itree="44">
      <Node pos="s" depth="0" NCoef="0" IVar="5" Cut="1.3779796361923218e+00" cType="0" res="-6.6841684281826019e-02" rms="2.6240161061286926e-01" purity="1.7830464243888855e-01" nType="0">
        <Node pos="l" depth="1" NCoef="0" IVar="-1" Cut="0.0000000000000000e+00" cType="1" res="6.8924529477953911e-03" rms="3.5507440567016602e-01" purity="6.5019464492797852e-01" nType="-99"/>
        <Node pos="r" depth="1" NCoef="0" IVar="1" Cut="3.8147850036621094e+01" cType="0" res="-1.0670644789934158e-01" rms="2.1444123983383179e-01" purity="5.1640748977661133e-02" nType="0">
          <Node pos="l" depth="2" NCoef="0" IVar="-1" Cut="0.0000000000000000e+00" cType="1" res="-1.0828626342117786e-02" rms="2.6052922010421753e-01" purity="7.9044163227081299e-02" nType="-99"/>
          <Node pos="r" depth="2" NCoef="0" IVar="-1" Cut="0.0000000000000000e+00" cType="1" res="-1.8885008990764618e-02" rms="1.4216247200965881e-01" purity="2.0827392116189003e-02" nType="-99"/>
        </Node>
      </Node>
    </BinaryTree>
    <BinaryTree type="DecisionTree" boostWeight="1.0000000000000000e+00" itree="45">
      <Node pos="s" depth="0" NCoef="0" IVar="6" Cut="2.6177163124084473e+00" cType="1" res="-6.2714405357837677e-02" rms="2.6195681095123291e-01" purity="1.8628579378128052e-01" nType="0">
        <Node pos="l" depth="1" NCoef="0" IVar="-1" Cut="0.0000000000000000e+00" cType="1" res="8.8781658560037613e-03" rms="3.3115243911743164e-01" purity="6.0813206434249878e-01" nType="-99"/>
        <Node pos="r" depth="1" NCoef="0" IVar="6" Cut="2.9354188442230225e+00" cType="1" res="-1.0080169886350632e-01" rms="2.2628760337829590e-01" purity="8.3216316998004913e-02" nType="0">
          <Node pos="l" depth="2" NCoef="0" IVar="-1" Cut="0.0000000000000000e+00" cType="1" res="-6.0431584715843201e-03" rms="2.9284781217575073e-01" purity="1.7065574228763580e-01" nType="-99"/>
          <Node pos="r" depth="2" NCoef="0" IVar="-1" Cut="0.0000000000000000e+00" cType="1" res="-1.6037229448556900e-02" rms="1.8395763635635376e-01" purity="4.3621033430099487e-02" nType="-99"/>
        </Node>
      </Node>
    </BinaryTree>
    <BinaryTree type="DecisionTree" boostWeight="1.0000000000000000e+00" itree="46">
      <Node pos="s" depth="0" NCoef="0" IVar="6" Cut="2.4514698982238770e+00" cType="1" res="-6.3377983868122101e-02" rms="2.5935018062591553e-01" purity="1.7994922399520874e-01" nType="0">
        <Node pos="l" depth="1" NCoef="0" IVar="-1" Cut="0.0000000000000000e+00" cType="1" res="1.1351113207638264e-02" rms="3.1587266921997070e-01" purity="6.9520366191864014e-01" nType="-99"/>
        <Node pos="r" depth="1" NCoef="0" IVar="6" Cut="2.9341268539428711e+00" cType="1" res="-9.3478940427303314e-02" rms="2.3558621108531952e-01" purity="9.3229748308658600e-02" nType="0">
          <Node pos="l" depth="2" NCoef="0" IVar="-1" Cut="0.0000000000000000e+00" cType="1" res="-5.1542469300329685e-03" rms="3.0408650636672974e-01" purity="1.9087846577167511e-01" nType="-99"/>
          <Node pos="r" depth="2" NCoef="0" IVar="-1" Cut="0.0000000000000000e+00" cType="1" res="-1.5875821933150291e-02" rms="1.8337601423263550e-01" purity="4.0735229849815369e-02" nType="-99"/>
        </Node>
      </Node>
    </BinaryTree>
    <BinaryTree type="DecisionTree" boostWeight="1.0000000000000000e+00" itree="47">
      <Node pos="s" depth="0" NCoef="0" IVar="5" Cut="1.9453783035278320e+00" cType="0" res="-6.1976898461580276e-02" rms="2.5720417499542236e-01" purity="1.8139356374740601e-01" nType="0">
        <Node pos="l" depth="1" NCoef="0" IVar="-1" Cut="0.0000000000000000e+00" cType="1" res="1.5734506770968437e-02" rms="1.7985114455223083e-01" purity="9.6512961387634277e-01" nType="-99"/>
        <Node pos="r" depth="1" NCoef="0" IVar="8" Cut="1.3708614110946655e+00" cType="0" res="-8.6715117096900940e-02" rms="2.5283589959144592e-01" purity="9.3027919530868530e-02" nType="0">
          <Node pos="l" depth="2" NCoef="0" IVar="-1" Cut="0.0000000000000000e+00" cType="1" res="1.5578020247630775e-04" rms="3.6058771610260010e-01" purity="2.5625061988830566e-01" nType="-99"/>
          <Node pos="r" depth="2" NCoef="0" IVar="-1" Cut="0.0000000000000000e+00" cType="1" res="-1.3484459370374680e-02" rms="2.1968054771423340e-01" purity="5.9138473123311996e-02" nType="-99"/>
        </Node>
      </Node>
    </BinaryTree>
    <BinaryTree type="DecisionTree" boostWeight="1.0000000000000000e+00" itree="48">
      <Node pos="s" depth="0" NCoef="0" IVar="6" Cut="2.7533597946166992e+00" cType="1" res="-5.8475799858570099e-02" rms="2.6122444868087769e-01" purity="1.8142217397689819e-01" nType="0">
        <Node pos="l" depth="1" NCoef="0" IVar="-1" Cut="0.0000000000000000e+00" cType="1" res="6.5416782163083553e-03" rms="3.3519420027732849e-01" purity="5.1981478929519653e-01" nType="-99"/>
        <Node pos="r" depth="1" NCoef="0" IVar="6" Cut="2.9969282150268555e+00" cType="1" res="-1.0161270946264267e-01" rms="2.1339859068393707e-01" purity="6.2041360884904861e-02" nType="0">
          <Node pos="l" depth="2" NCoef="0" IVar="-1" Cut="0.0000000000000000e+00" cType="1" res="-9.4683738425374031e-03" rms="2.5704807043075562e-01" purity="1.0405785590410233e-01" nType="-99"/>
          <Node pos="r" depth="2" NCoef="0" IVar="-1" Cut="0.0000000000000000e+00" cType="1" res="-1.6379611566662788e-02" rms="1.7642861604690552e-01" purity="3.4601107239723206e-02" nType="-99"/>
        </Node>
      </Node>
    </BinaryTree>
    <BinaryTree type="DecisionTree" boostWeight="1.0000000000000000e+00" itree="49">
      <Node pos="s" depth="0" NCoef="0" IVar="6" Cut="2.6208491325378418e+00" cType="1" res="-5.5924925953149796e-02" rms="2.5656840205192566e-01" purity="1.8329900503158569e-01" nType="0">
        <Node pos="l" depth="1" NCoef="0" IVar="-1" Cut="0.0000000000000000e+00" cType="1" res="8.9906156063079834e-03" rms="3.2539349794387817e-01" purity="6.2104272842407227e-01" nType="-99"/>
        <Node pos="r" depth="1" NCoef="0" IVar="1" Cut="4.7442615509033203e+01" cType="0" res="-9.2467837035655975e-02" rms="2.2179375588893890e-01" purity="7.5180433690547943e-02" nType="0">
          <Node pos="l" depth="2" NCoef="0" IVar="-1" Cut="0.0000000000000000e+00" cType="1" res="-6.6917985677719116e-03" rms="2.8713238239288330e-01" purity="1.4343872666358948e-01" nType="-99"/>
          <Node pos="r" depth="2" NCoef="0" IVar="-1" Cut="0.0000000000000000e+00" cType="1" res="-1.7216455191373825e-02" rms="1.6254922747612000e-01" purity="3.1568501144647598e-02" nType="-99"/>
        </Node>
      </Node>
    </BinaryTree>
    <BinaryTree type="DecisionTree" boostWeight="1.0000000000000000e+00" itree="50">
      <Node pos="s" depth="0" NCoef="0" IVar="5" Cut="1.3707904815673828e+00" cType="0" res="-5.5989742279052734e-02" rms="2.5226050615310669e-01" purity="1.7998461425304413e-01" nType="0">
        <Node pos="l" depth="1" NCoef="0" IVar="-1" Cut="0.0000000000000000e+00" cType="1" res="6.5611330792307854e-03" rms="3.4298959374427795e-01" purity="6.3838416337966919e-01" nType="-99"/>
        <Node pos="r" depth="1" NCoef="0" IVar="1" Cut="4.1883079528808594e+01" cType="0" res="-9.4422005116939545e-02" rms="2.0353119075298309e-01" purity="4.7322392463684082e-02" nType="0">
          <Node pos="l" depth="2" NCoef="0" IVar="-1" Cut="0.0000000000000000e+00" cType="1" res="-9.2119406908750534e-03" rms="2.6260635256767273e-01" purity="8.2576498389244080e-02" nType="-99"/>
          <Node pos="r" depth="2" NCoef="0" IVar="-1" Cut="0.0000000000000000e+00" cType="1" res="-1.8032010644674301e-02" rms="1.3542187213897705e-01" purity="1.9252307713031769e-02" nType="-99"/>
        </Node>
      </Node>
    </BinaryTree>
    <BinaryTree type="DecisionTree" boostWeight="1.0000000000000000e+00" itree="51">
      <Node pos="s" depth="0" NCoef="0" IVar="8" Cut="1.5940282344818115e+00" cType="0" res="-5.4011903703212738e-02" rms="2.5579842925071716e-01" purity="1.8275538086891174e-01" nType="0">
        <Node pos="l" depth="1" NCoef="0" IVar="-1" Cut="0.0000000000000000e+00" cType="1" res="1.1034877039492130e-02" rms="3.1296876072883606e-01" purity="6.1878758668899536e-01" nType="-99"/>
        <Node pos="r" depth="1" NCoef="0" IVar="1" Cut="4.5309024810791016e+01" cType="0" res="-8.6336359381675720e-02" rms="2.2931264340877533e-01" purity="9.1207571327686310e-02" nType="0">
          <Node pos="l" depth="2" NCoef="0" IVar="-1" Cut="0.0000000000000000e+00" cType="1" res="-5.1182587631046772e-03" rms="2.8951284289360046e-01" purity="1.7667992413043976e-01" nType="-99"/>
          <Node pos="r" depth="2" NCoef="0" IVar="-1" Cut="0.0000000000000000e+00" cType="1" res="-1.6724102199077606e-02" rms="1.6780517995357513e-01" purity="3.0777752399444580e-02" nType="-99"/>
        </Node>
      </Node>
    </BinaryTree>
    <BinaryTree type="DecisionTree" boostWeight="1.0000000000000000e+00" itree="52">
      <Node pos="s" depth="0" NCoef="0" IVar="6" Cut="2.5204820632934570e+00" cType="1" res="-5.0614576786756516e-02" rms="2.5671824812889099e-01" purity="1.8295127153396606e-01" nType="0">
        <Node pos="l" depth="1" NCoef="0" IVar="-1" Cut="0.0000000000000000e+00" cType="1" res="1.0036417283117771e-02" rms="3.1477978825569153e-01" purity="6.6693323850631714e-01" nType="-99"/>
        <Node pos="r" depth="1" NCoef="0" IVar="6" Cut="2.9908738136291504e+00" cType="1" res="-7.9590782523155212e-02" rms="2.3296092450618744e-01" purity="8.7819397449493408e-02" nType="0">
          <Node pos="l" depth="2" NCoef="0" IVar="-1" Cut="0.0000000000000000e+00" cType="1" res="-5.9399297460913658e-03" rms="2.8681960701942444e-01" purity="1.4917723834514618e-01" nType="-99"/>
          <Node pos="r" depth="2" NCoef="0" IVar="-1" Cut="0.0000000000000000e+00" cType="1" res="-1.5859195962548256e-02" rms="1.7200568318367004e-01" purity="3.7420041859149933e-02" nType="-99"/>
        </Node>
      </Node>
    </BinaryTree>
    <BinaryTree type="DecisionTree" boostWeight="1.0000000000000000e+00" itree="53">
      <Node pos="s" depth="0" NCoef="0" IVar="5" Cut="1.3659564256668091e+00" cType="0" res="-4.6034224331378937e-02" rms="2.5818589329719543e-01" purity="1.8406708538532257e-01" nType="0">
        <Node pos="l" depth="1" NCoef="0" IVar="-1" Cut="0.0000000000000000e+00" cType="1" res="6.9697089493274689e-03" rms="3.4640857577323914e-01" purity="6.4682114124298096e-01" nType="-99"/>
        <Node pos="r" depth="1" NCoef="0" IVar="5" Cut="1.0422626733779907e+00" cType="0" res="-8.1822462379932404e-02" rms="2.1378163993358612e-01" purity="5.2417080849409103e-02" nType="0">
          <Node pos="l" depth="2" NCoef="0" IVar="-1" Cut="0.0000000000000000e+00" cType="1" res="-5.7691466063261032e-03" rms="2.8020241856575012e-01" purity="9.6431031823158264e-02" nType="-99"/>
          <Node pos="r" depth="2" NCoef="0" IVar="-1" Cut="0.0000000000000000e+00" cType="1" res="-1.7871957272291183e-02" rms="1.7004230618476868e-01" purity="3.1083593145012856e-02" nType="-99"/>
        </Node>
      </Node>
    </BinaryTree>
    <BinaryTree type="DecisionTree" boostWeight="1.0000000000000000e+00" itree="54">
      <Node pos="s" depth="0" NCoef="0" IVar="6" Cut="2.7496809959411621e+00" cType="1" res="-4.8196136951446533e-02" rms="2.5417166948318481e-01" purity="1.7871589958667755e-01" nType="0">
        <Node pos="l" depth="1" NCoef="0" IVar="-1" Cut="0.0000000000000000e+00" cType="1" res="6.0661570169031620e-03" rms="3.2764083147048950e-01" purity="5.1260095834732056e-01" nType="-99"/>
        <Node pos="r" depth="1" NCoef="0" IVar="6" Cut="2.9352586269378662e+00" cType="1" res="-8.5182957351207733e-02" rms="2.1051524579524994e-01" purity="6.1338260769844055e-02" nType="0">
          <Node pos="l" depth="2" NCoef="0" IVar="-1" Cut="0.0000000000000000e+00" cType="1" res="-5.8134919963777065e-03" rms="2.7854636311531067e-01" purity="1.2561823427677155e-01" nType="-99"/>
          <Node pos="r" depth="2" NCoef="0" IVar="-1" Cut="0.0000000000000000e+00" cType="1" res="-1.4839466661214828e-02" rms="1.8005214631557465e-01" purity="3.9845094084739685e-02" nType="-99"/>
        </Node>
      </Node>
    </BinaryTree>
    <BinaryTree type="DecisionTree" boostWeight="1.0000000000000000e+00" itree="55">
      <Node pos="s" depth="0" NCoef="0" IVar="5" Cut="1.3247343301773071e+00" cType="0" res="-4.5120991766452789e-02" rms="2.5409117341041565e-01" purity="1.8238674104213715e-01" nType="0">
        <Node pos="l" depth="1" NCoef="0" IVar="-1" Cut="0.0000000000000000e+00" cType="1" res="6.0029397718608379e-03" rms="3.4447342157363892e-01" purity="5.9693783521652222e-01" nType="-99"/>
        <Node pos="r" depth="1" NCoef="0" IVar="1" Cut="3.8171977996826172e+01" cType="0" res="-8.2163989543914795e-02" rms="2.0308519899845123e-01" purity="4.6229649335145950e-02" nType="0">
          <Node pos="l" depth="2" NCoef="0" IVar="-1" Cut="0.0000000000000000e+00" cType="1" res="-9.5716165378689766e-03" rms="2.4747481942176819e-01" purity="7.1582853794097900e-02" nType="-99"/>
          <Node pos="r" depth="2" NCoef="0" IVar="-1" Cut="0.0000000000000000e+00" cType="1" res="-1.8662812188267708e-02" rms="1.3356262445449829e-01" purity="1.7582332715392113e-02" nType="-99"/>
        </Node>
      </Node>
    </BinaryTree>
    <BinaryTree type="DecisionTree" boostWeight="1.0000000000000000e+00" itree="56">
      <Node pos="s" depth="0" NCoef="0" IVar="5" Cut="2.0485296249389648e+00" cType="0" res="-4.3653596192598343e-02" rms="2.5091144442558289e-01" purity="1.8579232692718506e-01" nType="0">
        <Node pos="l" depth="1" NCoef="0" IVar="-1" Cut="0.0000000000000000e+00" cType="1" res="1.6328314319252968e-02" rms="1.3340134918689728e-01" purity="9.8042285442352295e-01" nType="-99"/>
        <Node pos="r" depth="1" NCoef="0" IVar="6" Cut="2.7810359001159668e+00" cType="1" res="-6.4302317798137665e-02" rms="2.5136077404022217e-01" purity="1.0263196378946304e-01" nType="0">
          <Node pos="l" depth="2" NCoef="0" IVar="-1" Cut="0.0000000000000000e+00" cType="1" res="8.6876342538744211e-04" rms="3.7116086483001709e-01" purity="2.9624074697494507e-01" nType="-99"/>
          <Node pos="r" depth="2" NCoef="0" IVar="-1" Cut="0.0000000000000000e+00" cType="1" res="-1.3270318508148193e-02" rms="1.9786453247070312e-01" purity="4.5492168515920639e-02" nType="-99"/>
        </Node>
      </Node>
    </BinaryTree>
    <BinaryTree type="DecisionTree" boostWeight="1.0000000000000000e+00" itree="57">
      <Node pos="s" depth="0" NCoef="0" IVar="6" Cut="2.7651612758636475e+00" cType="1" res="-4.3628517538309097e-02" rms="2.4958404898643494e-01" purity="1.8139997124671936e-01" nType="0">
        <Node pos="l" depth="1" NCoef="0" IVar="-1" Cut="0.0000000000000000e+00" cType="1" res="6.3012791797518730e-03" rms="3.2437521219253540e-01" purity="5.0744414329528809e-01" nType="-99"/>
        <Node pos="r" depth="1" NCoef="0" IVar="10" Cut="1.9983822631835938e+02" cType="1" res="-8.1266075372695923e-02" rms="2.0228101313114166e-01" purity="5.8313541114330292e-02" nType="0">
          <Node pos="l" depth="2" NCoef="0" IVar="-1" Cut="0.0000000000000000e+00" cType="1" res="-1.2595412321388721e-02" rms="2.0003664493560791e-01" purity="5.8449424803256989e-02" nType="-99"/>
          <Node pos="r" depth="2" NCoef="0" IVar="-1" Cut="0.0000000000000000e+00" cType="1" res="-3.6478210240602493e-02" rms="2.8732645511627197e-01" purity="4.3714366853237152e-02" nType="-99"/>
        </Node>
      </Node>
    </BinaryTree>
    <BinaryTree type="DecisionTree" boostWeight="1.0000000000000000e+00" itree="58">
      <Node pos="s" depth="0" NCoef="0" IVar="5" Cut="1.8859189748764038e+00" cType="0" res="-4.4803604483604431e-02" rms="2.4752084910869598e-01" purity="1.7910584807395935e-01" nType="0">
        <Node pos="l" depth="1" NCoef="0" IVar="-1" Cut="0.0000000000000000e+00" cType="1" res="1.3112223707139492e-02" rms="2.1418328583240509e-01" purity="9.4536608457565308e-01" nType="-99"/>
        <Node pos="r" depth="1" NCoef="0" IVar="1" Cut="3.6640880584716797e+01" cType="0" res="-6.5050497651100159e-02" rms="2.4363280832767487e-01" purity="8.5931815207004547e-02" nType="0">
          <Node pos="l" depth="2" NCoef="0" IVar="-1" Cut="0.0000000000000000e+00" cType="1" res="-4.7775078564882278e-03" rms="2.8905549645423889e-01" purity="1.2978659570217133e-01" nType="-99"/>
          <Node pos="r" depth="2" NCoef="0" IVar="-1" Cut="0.0000000000000000e+00" cType="1" res="-1.7957033589482307e-02" rms="1.5315403044223785e-01" purity="2.6098150759935379e-02" nType="-99"/>
        </Node>
      </Node>
    </BinaryTree>
    <BinaryTree type="DecisionTree" boostWeight="1.0000000000000000e+00" itree="59">
      <Node pos="s" depth="0" NCoef="0" IVar="0" Cut="4.6068458557128906e+01" cType="0" res="-4.2175639420747757e-02" rms="2.4776886403560638e-01" purity="1.8064361810684204e-01" nType="0">
        <Node pos="l" depth="1" NCoef="0" IVar="-1" Cut="0.0000000000000000e+00" cType="1" res="1.0489373467862606e-02" rms="3.0387422442436218e-01" purity="7.3309147357940674e-01" nType="-99"/>
        <Node pos="r" depth="1" NCoef="0" IVar="1" Cut="4.5785152435302734e+01" cType="0" res="-6.8802148103713989e-02" rms="2.2539399564266205e-01" purity="6.4540445804595947e-02" nType="0">
          <Node pos="l" depth="2" NCoef="0" IVar="-1" Cut="0.0000000000000000e+00" cType="1" res="-4.8037022352218628e-03" rms="2.8418520092964172e-01" purity="1.0913513600826263e-01" nType="-99"/>
          <Node pos="r" depth="2" NCoef="0" IVar="-1" Cut="0.0000000000000000e+00" cType="1" res="-1.3975102454423904e-02" rms="1.7674638330936432e-01" purity="3.6996796727180481e-02" nType="-99"/>
        </Node>
      </Node>
    </BinaryTree>
    <BinaryTree type="DecisionTree" boostWeight="1.0000000000000000e+00" itree="60">
      <Node pos="s" depth="0" NCoef="0" IVar="5" Cut="2.0288841724395752e+00" cType="0" res="-4.2960125952959061e-02" rms="2.4670651555061340e-01" purity="1.7602060735225677e-01" nType="0">
        <Node pos="l" depth="1" NCoef="0" IVar="-1" Cut="0.0000000000000000e+00" cType="1" res="1.5883944928646088e-02" rms="1.5367735922336578e-01" purity="9.7407597303390503e-01" nType="-99"/>
        <Node pos="r" depth="1" NCoef="0" IVar="8" Cut="1.3332000970840454e+00" cType="0" res="-6.0987703502178192e-02" rms="2.4711513519287109e-01" purity="9.5618307590484619e-02" nType="0">
          <Node pos="l" depth="2" NCoef="0" IVar="-1" Cut="0.0000000000000000e+00" cType="1" res="1.5761069953441620e-03" rms="3.4571257233619690e-01" purity="2.6158338785171509e-01" nType="-99"/>
          <Node pos="r" depth="2" NCoef="0" IVar="-1" Cut="0.0000000000000000e+00" cType="1" res="-1.1997812427580357e-02" rms="2.1456888318061829e-01" purity="5.7251814752817154e-02" nType="-99"/>
        </Node>
      </Node>
    </BinaryTree>
    <BinaryTree type="DecisionTree" boostWeight="1.0000000000000000e+00" itree="61">
      <Node pos="s" depth="0" NCoef="0" IVar="6" Cut="2.6963970661163330e+00" cType="1" res="-4.0165185928344727e-02" rms="2.4618414044380188e-01" purity="1.7851673066616058e-01" nType="0">
        <Node pos="l" depth="1" NCoef="0" IVar="-1" Cut="0.0000000000000000e+00" cType="1" res="6.8753729574382305e-03" rms="3.2483881711959839e-01" purity="5.5601972341537476e-01" nType="-99"/>
        <Node pos="r" depth="1" NCoef="0" IVar="6" Cut="2.9926147460937500e+00" cType="1" res="-7.0882461965084076e-02" rms="2.0766498148441315e-01" purity="6.6155165433883667e-02" nType="0">
          <Node pos="l" depth="2" NCoef="0" IVar="-1" Cut="0.0000000000000000e+00" cType="1" res="-6.6273566335439682e-03" rms="2.5805759429931641e-01" purity="1.1633399128913879e-01" nType="-99"/>
          <Node pos="r" depth="2" NCoef="0" IVar="-1" Cut="0.0000000000000000e+00" cType="1" res="-1.5297261066734791e-02" rms="1.6197422146797180e-01" purity="3.2001379877328873e-02" nType="-99"/>
        </Node>
      </Node>
    </BinaryTree>
    <BinaryTree type="DecisionTree" boostWeight="1.0000000000000000e+00" itree="62">
      <Node pos="s" depth="0" NCoef="0" IVar="5" Cut="1.3746612071990967e+00" cType="0" res="-3.4147363156080246e-02" rms="2.4852007627487183e-01" purity="1.8551589548587799e-01" nType="0">
        <Node pos="l" depth="1" NCoef="0" IVar="-1" Cut="0.0000000000000000e+00" cType="1" res="6.8924082443118095e-03" rms="3.2952299714088440e-01" purity="6.4819359779357910e-01" nType="-99"/>
        <Node pos="r" depth="1" NCoef="0" IVar="1" Cut="3.6003513336181641e+01" cType="0" res="-6.5842002630233765e-02" rms="2.0884135365486145e-01" purity="5.0013542175292969e-02" nType="0">
          <Node pos="l" depth="2" NCoef="0" IVar="-1" Cut="0.0000000000000000e+00" cType="1" res="-7.8358761966228485e-03" rms="2.5370845198631287e-01" purity="7.6709426939487457e-02" nType="-99"/>
          <Node pos="r" depth="2" NCoef="0" IVar="-1" Cut="0.0000000000000000e+00" cType="1" res="-1.7811659723520279e-02" rms="1.2305588275194168e-01" purity="1.4790643937885761e-02" nType="-99"/>
        </Node>
      </Node>
    </BinaryTree>
    <BinaryTree type="DecisionTree" boostWeight="1.0000000000000000e+00" itree="63">
      <Node pos="s" depth="0" NCoef="0" IVar="5" Cut="1.3605357408523560e+00" cType="0" res="-3.6814149469137192e-02" rms="2.4575772881507874e-01" purity="1.7547839879989624e-01" nType="0">
        <Node pos="l" depth="1" NCoef="0" IVar="-1" Cut="0.0000000000000000e+00" cType="1" res="5.7252557016909122e-03" rms="3.3463674783706665e-01" purity="6.2003308534622192e-01" nType="-99"/>
        <Node pos="r" depth="1" NCoef="0" IVar="5" Cut="1.0445549488067627e+00" cType="0" res="-6.4989976584911346e-02" rms="2.0492504537105560e-01" purity="4.7491706907749176e-02" nType="0">
          <Node pos="l" depth="2" NCoef="0" IVar="-1" Cut="0.0000000000000000e+00" cType="1" res="-4.9684797413647175e-03" rms="2.7087771892547607e-01" purity="8.8057644665241241e-02" nType="-99"/>
          <Node pos="r" depth="2" NCoef="0" IVar="-1" Cut="0.0000000000000000e+00" cType="1" res="-1.6232222318649292e-02" rms="1.6433918476104736e-01" purity="2.8920520097017288e-02" nType="-99"/>
        </Node>
      </Node>
    </BinaryTree>
    <BinaryTree type="DecisionTree" boostWeight="1.0000000000000000e+00" itree="64">
      <Node pos="s" depth="0" NCoef="0" IVar="8" Cut="1.7008675336837769e+00" cType="0" res="-3.4160230308771133e-02" rms="2.4775794148445129e-01" purity="1.7879198491573334e-01" nType="0">
        <Node pos="l" depth="1" NCoef="0" IVar="-1" Cut="0.0000000000000000e+00" cType="1" res="1.0993168689310551e-02" rms="2.9922848939895630e-01" purity="6.4137345552444458e-01" nType="-99"/>
        <Node pos="r" depth="1" NCoef="0" IVar="1" Cut="4.9127471923828125e+01" cType="0" res="-5.6216400116682053e-02" rms="2.3060542345046997e-01" purity="9.7394250333309174e-02" nType="0">
          <Node pos="l" depth="2" NCoef="0" IVar="-1" Cut="0.0000000000000000e+00" cType="1" res="-1.5427581965923309e-03" rms="2.9333925247192383e-01" purity="1.9626858830451965e-01" nType="-99"/>
          <Node pos="r" depth="2" NCoef="0" IVar="-1" Cut="0.0000000000000000e+00" cType="1" res="-1.4291131868958473e-02" rms="1.8087877333164215e-01" purity="4.1370421648025513e-02" nType="-99"/>
        </Node>
      </Node>
    </BinaryTree>
    <BinaryTree type="DecisionTree" boostWeight="1.0000000000000000e+00" itree="65">
      <Node pos="s" depth="0" NCoef="0" IVar="5" Cut="1.3746612071990967e+00" cType="0" res="-3.4454688429832458e-02" rms="2.4225033819675446e-01" purity="1.7756539583206177e-01" nType="0">
        <Node pos="l" depth="1" NCoef="0" IVar="-1" Cut="0.0000000000000000e+00" cType="1" res="6.1048441566526890e-03" rms="3.3120474219322205e-01" purity="6.4411759376525879e-01" nType="-99"/>
        <Node pos="r" depth="1" NCoef="0" IVar="0" Cut="3.4459915161132812e+01" cType="0" res="-6.2758043408393860e-02" rms="2.0177519321441650e-01" purity="4.6625211834907532e-02" nType="0">
          <Node pos="l" depth="2" NCoef="0" IVar="-1" Cut="0.0000000000000000e+00" cType="1" res="-7.5424229726195335e-03" rms="2.7986276149749756e-01" purity="9.9438451230525970e-02" nType="-99"/>
          <Node pos="r" depth="2" NCoef="0" IVar="-1" Cut="0.0000000000000000e+00" cType="1" res="-1.2403271161019802e-02" rms="1.7537932097911835e-01" purity="3.3205848187208176e-02" nType="-99"/>
        </Node>
      </Node>
    </BinaryTree>
    <BinaryTree type="DecisionTree" boostWeight="1.0000000000000000e+00" itree="66">
      <Node pos="s" depth="0" NCoef="0" IVar="6" Cut="2.6835889816284180e+00" cType="1" res="-3.4594144672155380e-02" rms="2.3992064595222473e-01" purity="1.7534519731998444e-01" nType="0">
        <Node pos="l" depth="1" NCoef="0" IVar="-1" Cut="0.0000000000000000e+00" cType="1" res="7.9562552273273468e-03" rms="3.1639236211776733e-01" purity="5.6739741563796997e-01" nType="-99"/>
        <Node pos="r" depth="1" NCoef="0" IVar="6" Cut="2.9361646175384521e+00" cType="1" res="-6.3442610204219818e-02" rms="2.0469257235527039e-01" purity="6.6228218376636505e-02" nType="0">
          <Node pos="l" depth="2" NCoef="0" IVar="-1" Cut="0.0000000000000000e+00" cType="1" res="-4.2089899070560932e-03" rms="2.6709765195846558e-01" purity="1.4115031063556671e-01" nType="-99"/>
          <Node pos="r" depth="2" NCoef="0" IVar="-1" Cut="0.0000000000000000e+00" cType="1" res="-1.3878506608307362e-02" rms="1.7167735099792480e-01" purity="3.6466855555772781e-02" nType="-99"/>
        </Node>
      </Node>
    </BinaryTree>
    <BinaryTree type="DecisionTree" boostWeight="1.0000000000000000e+00" itree="67">
      <Node pos="s" depth="0" NCoef="0" IVar="6" Cut="2.7808351516723633e+00" cType="1" res="-2.8029134497046471e-02" rms="2.5047954916954041e-01" purity="1.8376515805721283e-01" nType="0">
        <Node pos="l" depth="1" NCoef="0" IVar="-1" Cut="0.0000000000000000e+00" cType="1" res="6.6052470356225967e-03" rms="3.2078057527542114e-01" purity="4.9853926897048950e-01" nType="-99"/>
        <Node pos="r" depth="1" NCoef="0" IVar="10" Cut="1.9983053588867188e+02" cType="1" res="-6.0860384255647659e-02" rms="2.0758128166198730e-01" purity="5.9618644416332245e-02" nType="0">
          <Node pos="l" depth="2" NCoef="0" IVar="-1" Cut="0.0000000000000000e+00" cType="1" res="-1.0753191076219082e-02" rms="2.0558610558509827e-01" purity="5.9706628322601318e-02" nType="-99"/>
          <Node pos="r" depth="2" NCoef="0" IVar="-1" Cut="0.0000000000000000e+00" cType="1" res="-3.9840880781412125e-02" rms="2.9547950625419617e-01" purity="4.8251688480377197e-02" nType="-99"/>
        </Node>
      </Node>
    </BinaryTree>
    <BinaryTree type="DecisionTree" boostWeight="1.0000000000000000e+00" itree="68">
      <Node pos="s" depth="0" NCoef="0" IVar="8" Cut="1.4686622619628906e+00" cType="0" res="-3.0932608991861343e-02" rms="2.4673673510551453e-01" purity="1.7804816365242004e-01" nType="0">
        <Node pos="l" depth="1" NCoef="0" IVar="-1" Cut="0.0000000000000000e+00" cType="1" res="9.0593723580241203e-03" rms="2.9841735959053040e-01" purity="5.4745733737945557e-01" nType="-99"/>
        <Node pos="r" depth="1" NCoef="0" IVar="1" Cut="4.5590705871582031e+01" cType="0" res="-5.7181838899850845e-02" rms="2.2418241202831268e-01" purity="8.2891158759593964e-02" nType="0">
          <Node pos="l" depth="2" NCoef="0" IVar="-1" Cut="0.0000000000000000e+00" cType="1" res="-3.1393500976264477e-03" rms="2.8706249594688416e-01" purity="1.6220031678676605e-01" nType="-99"/>
          <Node pos="r" depth="2" NCoef="0" IVar="-1" Cut="0.0000000000000000e+00" cType="1" res="-1.5245770104229450e-02" rms="1.6383619606494904e-01" purity="2.8739962726831436e-02" nType="-99"/>
        </Node>
      </Node>
    </BinaryTree>
    <BinaryTree type="DecisionTree" boostWeight="1.0000000000000000e+00" itree="69">
      <Node pos="s" depth="0" NCoef="0" IVar="5" Cut="1.3280993700027466e+00" cType="0" res="-2.6065558195114136e-02" rms="2.4583020806312561e-01" purity="1.8204472959041595e-01" nType="0">
        <Node pos="l" depth="1" NCoef="0" IVar="-1" Cut="0.0000000000000000e+00" cType="1" res="6.3344752416014671e-03" rms="3.3160343766212463e-01" purity="5.9878188371658325e-01" nType="-99"/>
        <Node pos="r" depth="1" NCoef="0" IVar="1" Cut="4.1965354919433594e+01" cType="0" res="-5.5408809334039688e-02" rms="2.0210188627243042e-01" purity="4.6803962439298630e-02" nType="0">
          <Node pos="l" depth="2" NCoef="0" IVar="-1" Cut="0.0000000000000000e+00" cType="1" res="-6.2319785356521606e-03" rms="2.5740525126457214e-01" purity="7.9350531101226807e-02" nType="-99"/>
          <Node pos="r" depth="2" NCoef="0" IVar="-1" Cut="0.0000000000000000e+00" cType="1" res="-1.6246439889073372e-02" rms="1.4184482395648956e-01" purity="2.1080473437905312e-02" nType="-99"/>
        </Node>
      </Node>
    </BinaryTree>
    <BinaryTree type="DecisionTree" boostWeight="1.0000000000000000e+00" itree="70">
      <Node pos="s" depth="0" NCoef="0" IVar="5" Cut="1.3314250707626343e+00" cType="0" res="-2.7268042787909508e-02" rms="2.4548034369945526e-01" purity="1.8134416639804840e-01" nType="0">
        <Node pos="l" depth="1" NCoef="0" IVar="-1" Cut="0.0000000000000000e+00" cType="1" res="5.8196978643536568e-03" rms="3.3450922369956970e-01" purity="6.0435813665390015e-01" nType="-99"/>
        <Node pos="r" depth="1" NCoef="0" IVar="5" Cut="1.0420609712600708e+00" cType="0" res="-5.4783929139375687e-02" rms="2.0164486765861511e-01" purity="4.6426042914390564e-02" nType="0">
          <Node pos="l" depth="2" NCoef="0" IVar="-1" Cut="0.0000000000000000e+00" cType="1" res="-4.0377853438258171e-03" rms="2.6812326908111572e-01" purity="8.6715452373027802e-02" nType="-99"/>
          <Node pos="r" depth="2" NCoef="0" IVar="-1" Cut="0.0000000000000000e+00" cType="1" res="-1.5772242099046707e-02" rms="1.6214273869991302e-01" purity="2.8557663783431053e-02" nType="-99"/>
        </Node>
      </Node>
    </BinaryTree>
    <BinaryTree type="DecisionTree" boostWeight="1.0000000000000000e+00" itree="71">
      <Node pos="s" depth="0" NCoef="0" IVar="8" Cut="1.7479392290115356e+00" cType="0" res="-2.6637457311153412e-02" rms="2.4557012319564819e-01" purity="1.7791521549224854e-01" nType="0">
        <Node pos="l" depth="1" NCoef="0" IVar="-1" Cut="0.0000000000000000e+00" cType="1" res="1.1529878713190556e-02" rms="2.9714876413345337e-01" purity="6.6537201404571533e-01" nType="-99"/>
        <Node pos="r" depth="1" NCoef="0" IVar="1" Cut="5.2472015380859375e+01" cType="0" res="-4.5849356800317764e-02" rms="2.3049041628837585e-01" purity="9.9067568778991699e-02" nType="0">
          <Node pos="l" depth="2" NCoef="0" IVar="-1" Cut="0.0000000000000000e+00" cType="1" res="4.4894532766193151e-04" rms="2.9977867007255554e-01" purity="2.1119008958339691e-01" nType="-99"/>
          <Node pos="r" depth="2" NCoef="0" IVar="-1" Cut="0.0000000000000000e+00" cType="1" res="-1.2087250128388405e-02" rms="1.8840757012367249e-01" purity="4.9878597259521484e-02" nType="-99"/>
        </Node>
      </Node>
    </BinaryTree>
    <BinaryTree type="DecisionTree" boostWeight="1.0000000000000000e+00" itree="72">
      <Node pos="s" depth="0" NCoef="0" IVar="6" Cut="2.7714350223541260e+00" cType="1" res="-2.6746127754449844e-02" rms="2.4391865730285645e-01" purity="1.8237774074077606e-01" nType="0">
        <Node pos="l" depth="1" NCoef="0" IVar="-1" Cut="0.0000000000000000e+00" cType="1" res="5.9038205072283745e-03" rms="3.1341993808746338e-01" purity="5.0198537111282349e-01" nType="-99"/>
        <Node pos="r" depth="1" NCoef="0" IVar="10" Cut="2.0268380737304688e+02" cType="1" res="-5.6569192558526993e-02" rms="2.0305795967578888e-01" purity="5.7858463376760483e-02" nType="0">
          <Node pos="l" depth="2" NCoef="0" IVar="-1" Cut="0.0000000000000000e+00" cType="1" res="-1.0320269502699375e-02" rms="2.0146565139293671e-01" purity="5.7999171316623688e-02" nType="-99"/>
          <Node pos="r" depth="2" NCoef="0" IVar="-1" Cut="0.0000000000000000e+00" cType="1" res="-4.2665231972932816e-02" rms="2.8153690695762634e-01" purity="3.7379942834377289e-02" nType="-99"/>
        </Node>
      </Node>
    </BinaryTree>
    <BinaryTree type="DecisionTree" boostWeight="1.0000000000000000e+00" itree="73">
      <Node pos="s" depth="0" NCoef="0" IVar="5" Cut="1.2525713443756104e+00" cType="0" res="-2.4680543690919876e-02" rms="2.4393381178379059e-01" purity="1.8137706816196442e-01" nType="0">
        <Node pos="l" depth="1" NCoef="0" IVar="-1" Cut="0.0000000000000000e+00" cType="1" res="5.0274003297090530e-03" rms="3.2993575930595398e-01" purity="5.2922898530960083e-01" nType="-99"/>
        <Node pos="r" depth="1" NCoef="0" IVar="1" Cut="3.9580326080322266e+01" cType="0" res="-5.3848195821046829e-02" rms="1.9132556021213531e-01" purity="4.0823735296726227e-02" nType="0">
          <Node pos="l" depth="2" NCoef="0" IVar="-1" Cut="0.0000000000000000e+00" cType="1" res="-7.4004330672323704e-03" rms="2.3819373548030853e-01" purity="6.5742090344429016e-02" nType="-99"/>
          <Node pos="r" depth="2" NCoef="0" IVar="-1" Cut="0.0000000000000000e+00" cType="1" res="-1.6987113282084465e-02" rms="1.2834790349006653e-01" purity="1.6391588374972343e-02" nType="-99"/>
        </Node>
      </Node>
    </BinaryTree>
    <BinaryTree type="DecisionTree" boostWeight="1.0000000000000000e+00" itree="74">
      <Node pos="s" depth="0" NCoef="0" IVar="5" Cut="2.0462663173675537e+00" cType="0" res="-2.5431551039218903e-02" rms="2.4375292658805847e-01" purity="1.7676541209220886e-01" nType="0">
        <Node pos="l" depth="1" NCoef="0" IVar="-1" Cut="0.0000000000000000e+00" cType="1" res="1.5059608034789562e-02" rms="1.4484660327434540e-01" purity="9.7546535730361938e-01" nType="-99"/>
        <Node pos="r" depth="1" NCoef="0" IVar="1" Cut="4.5690246582031250e+01" cType="0" res="-3.8898136466741562e-02" rms="2.4702917039394379e-01" purity="1.0024730861186981e-01" nType="0">
          <Node pos="l" depth="2" NCoef="0" IVar="-1" Cut="0.0000000000000000e+00" cType="1" res="8.0172547313850373e-05" rms="3.0527666211128235e-01" purity="1.7403681576251984e-01" nType="-99"/>
          <Node pos="r" depth="2" NCoef="0" IVar="-1" Cut="0.0000000000000000e+00" cType="1" res="-1.2080603279173374e-02" rms="1.9665116071701050e-01" purity="5.2750248461961746e-02" nType="-99"/>
        </Node>
      </Node>
    </BinaryTree>
    <BinaryTree type="DecisionTree" boostWeight="1.0000000000000000e+00" itree="75">
      <Node pos="s" depth="0" NCoef="0" IVar="6" Cut="2.8467209339141846e+00" cType="1" res="-2.1238602697849274e-02" rms="2.4209444224834442e-01" purity="1.8527482450008392e-01" nType="0">
        <Node pos="l" depth="1" NCoef="0" IVar="-1" Cut="0.0000000000000000e+00" cType="1" res="5.6035146117210388e-03" rms="3.0247581005096436e-01" purity="4.4491660594940186e-01" nType="-99"/>
        <Node pos="r" depth="1" NCoef="0" IVar="5" Cut="1.5678969621658325e+00" cType="0" res="-5.5146384984254837e-02" rms="1.9530145823955536e-01" purity="5.0191234797239304e-02" nType="0">
          <Node pos="l" depth="2" NCoef="0" IVar="-1" Cut="0.0000000000000000e+00" cType="1" res="-9.7505133599042892e-03" rms="4.0740597248077393e-01" purity="3.5234591364860535e-01" nType="-99"/>
          <Node pos="r" depth="2" NCoef="0" IVar="-1" Cut="0.0000000000000000e+00" cType="1" res="-1.1391959153115749e-02" rms="1.7308920621871948e-01" purity="3.2080955803394318e-02" nType="-99"/>
        </Node>
      </Node>
    </BinaryTree>
    <BinaryTree type="DecisionTree" boostWeight="1.0000000000000000e+00" itree="76">
      <Node pos="s" depth="0" NCoef="0" IVar="0" Cut="4.6915657043457031e+01" cType="0" res="-2.4193882942199707e-02" rms="2.3943343758583069e-01" purity="1.7613902688026428e-01" nType="0">
        <Node pos="l" depth="1" NCoef="0" IVar="-1" Cut="0.0000000000000000e+00" cType="1" res="1.0092505253851414e-02" rms="2.8774914145469666e-01" purity="7.5038754940032959e-01" nType="-99"/>
        <Node pos="r" depth="1" NCoef="0" IVar="1" Cut="4.5589813232421875e+01" cType="0" res="-4.2778179049491882e-02" rms="2.2427290678024292e-01" purity="6.6049218177795410e-02" nType="0">
          <Node pos="l" depth="2" NCoef="0" IVar="-1" Cut="0.0000000000000000e+00" cType="1" res="-1.8492514500394464e-03" rms="2.8390932083129883e-01" purity="1.1219260841608047e-01" nType="-99"/>
          <Node pos="r" depth="2" NCoef="0" IVar="-1" Cut="0.0000000000000000e+00" cType="1" res="-1.1782879009842873e-02" rms="1.7632475495338440e-01" purity="3.8216177374124527e-02" nType="-99"/>
        </Node>
      </Node>
    </BinaryTree>
    <BinaryTree type="DecisionTree" boostWeight="1.0000000000000000e+00" itree="77">
      <Node pos="s" depth="0" NCoef="0" IVar="0" Cut="3.7899528503417969e+01" cType="0" res="-2.1445285528898239e-02" rms="2.4497896432876587e-01" purity="1.7907294631004333e-01" nType="0">
        <Node pos="l" depth="1" NCoef="0" IVar="-1" Cut="0.0000000000000000e+00" cType="1" res="6.9310227409005165e-03" rms="3.1948363780975342e-01" purity="5.1415437459945679e-01" nType="-99"/>
        <Node pos="r" depth="1" NCoef="0" IVar="10" Cut="7.7362182617187500e+01" cType="0" res="-4.9010731279850006e-02" rms="2.0180632174015045e-01" purity="4.6773400157690048e-02" nType="0">
          <Node pos="l" depth="2" NCoef="0" IVar="-1" Cut="0.0000000000000000e+00" cType="1" res="-6.6647427156567574e-03" rms="2.2575855255126953e-01" purity="5.8444127440452576e-02" nType="-99"/>
          <Node pos="r" depth="2" NCoef="0" IVar="-1" Cut="0.0000000000000000e+00" cType="1" res="-1.2026719748973846e-02" rms="1.6948388516902924e-01" purity="3.3562019467353821e-02" nType="-99"/>
        </Node>
      </Node>
    </BinaryTree>
    <BinaryTree type="DecisionTree" boostWeight="1.0000000000000000e+00" itree="78">
      <Node pos="s" depth="0" NCoef="0" IVar="6" Cut="2.6869864463806152e+00" cType="1" res="-2.1323809400200844e-02" rms="2.4334441125392914e-01" purity="1.8283787369728088e-01" nType="0">
        <Node pos="l" depth="1" NCoef="0" IVar="-1" Cut="0.0000000000000000e+00" cType="1" res="7.0828413590788841e-03" rms="3.1529945135116577e-01" purity="5.6394046545028687e-01" nType="-99"/>
        <Node pos="r" depth="1" NCoef="0" IVar="10" Cut="1.8591848754882812e+02" cType="1" res="-4.5517701655626297e-02" rms="2.1144956350326538e-01" purity="6.9527752697467804e-02" nType="0">
          <Node pos="l" depth="2" NCoef="0" IVar="-1" Cut="0.0000000000000000e+00" cType="1" res="-8.5679758340120316e-03" rms="2.0893809199333191e-01" purity="6.9529153406620026e-02" nType="-99"/>
          <Node pos="r" depth="2" NCoef="0" IVar="-1" Cut="0.0000000000000000e+00" cType="1" res="-3.9946630597114563e-02" rms="3.0637797713279724e-01" purity="6.9398105144500732e-02" nType="-99"/>
        </Node>
      </Node>
    </BinaryTree>
    <BinaryTree type="DecisionTree" boostWeight="1.0000000000000000e+00" itree="79">
      <Node pos="s" depth="0" NCoef="0" IVar="6" Cut="2.4582974910736084e+00" cType="1" res="-1.9353361800312996e-02" rms="2.4383491277694702e-01" purity="1.8364918231964111e-01" nType="0">
        <Node pos="l" depth="1" NCoef="0" IVar="-1" Cut="0.0000000000000000e+00" cType="1" res="9.3647819012403488e-03" rms="2.9617366194725037e-01" purity="6.9219416379928589e-01" nType="-99"/>
        <Node pos="r" depth="1" NCoef="0" IVar="1" Cut="4.5307678222656250e+01" cType="0" res="-3.7298049777746201e-02" rms="2.2873350977897644e-01" purity="9.3847751617431641e-02" nType="0">
          <Node pos="l" depth="2" NCoef="0" IVar="-1" Cut="0.0000000000000000e+00" cType="1" res="-1.1322550708428025e-03" rms="2.9099872708320618e-01" purity="1.7045764625072479e-01" nType="-99"/>
          <Node pos="r" depth="2" NCoef="0" IVar="-1" Cut="0.0000000000000000e+00" cType="1" res="-1.3711007311940193e-02" rms="1.6623148322105408e-01" purity="3.8065791130065918e-02" nType="-99"/>
        </Node>
      </Node>
    </BinaryTree>
    <BinaryTree type="DecisionTree" boostWeight="1.0000000000000000e+00" itree="80">
      <Node pos="s" depth="0" NCoef="0" IVar="6" Cut="2.6996326446533203e+00" cType="1" res="-1.8845193088054657e-02" rms="2.4230799078941345e-01" purity="1.8306122720241547e-01" nType="0">
        <Node pos="l" depth="1" NCoef="0" IVar="-1" Cut="0.0000000000000000e+00" cType="1" res="6.7477738484740257e-03" rms="3.1246581673622131e-01" purity="5.5265551805496216e-01" nType="-99"/>
        <Node pos="r" depth="1" NCoef="0" IVar="6" Cut="2.9910657405853271e+00" cType="1" res="-4.2341943830251694e-02" rms="2.1056072413921356e-01" purity="6.8726040422916412e-02" nType="0">
          <Node pos="l" depth="2" NCoef="0" IVar="-1" Cut="0.0000000000000000e+00" cType="1" res="-2.6043639518320560e-03" rms="2.6202961802482605e-01" purity="1.2063053995370865e-01" nType="-99"/>
          <Node pos="r" depth="2" NCoef="0" IVar="-1" Cut="0.0000000000000000e+00" cType="1" res="-1.3350641354918480e-02" rms="1.6577264666557312e-01" purity="3.4661065787076950e-02" nType="-99"/>
        </Node>
      </Node>
    </BinaryTree>
    <BinaryTree type="DecisionTree" boostWeight="1.0000000000000000e+00" itree="81">
      <Node pos="s" depth="0" NCoef="0" IVar="6" Cut="2.8686795234680176e+00" cType="1" res="-2.2322345525026321e-02" rms="2.4020029604434967e-01" purity="1.7974953353404999e-01" nType="0">
        <Node pos="l" depth="1" NCoef="0" IVar="-1" Cut="0.0000000000000000e+00" cType="1" res="4.0765176527202129e-03" rms="2.9902425408363342e-01" purity="4.1504094004631042e-01" nType="-99"/>
        <Node pos="r" depth="1" NCoef="0" IVar="5" Cut="1.5581337213516235e+00" cType="0" res="-5.1355972886085510e-02" rms="1.9386917352676392e-01" purity="4.7987278550863266e-02" nType="0">
          <Node pos="l" depth="2" NCoef="0" IVar="-1" Cut="0.0000000000000000e+00" cType="1" res="-1.1943343095481396e-02" rms="3.8690516352653503e-01" purity="3.0649352073669434e-01" nType="-99"/>
          <Node pos="r" depth="2" NCoef="0" IVar="-1" Cut="0.0000000000000000e+00" cType="1" res="-1.0794606059789658e-02" rms="1.7101401090621948e-01" purity="3.1156752258539200e-02" nType="-99"/>
        </Node>
      </Node>
    </BinaryTree>
    <BinaryTree type="DecisionTree" boostWeight="1.0000000000000000e+00" itree="82">
      <Node pos="s" depth="0" NCoef="0" IVar="6" Cut="2.8186686038970947e+00" cType="1" res="-1.5944523736834526e-02" rms="2.3986794054508209e-01" purity="1.8443100154399872e-01" nType="0">
        <Node pos="l" depth="1" NCoef="0" IVar="-1" Cut="0.0000000000000000e+00" cType="1" res="6.2396791763603687e-03" rms="3.0495157837867737e-01" purity="4.6740433573722839e-01" nType="-99"/>
        <Node pos="r" depth="1" NCoef="0" IVar="10" Cut="2.0303401184082031e+02" cType="1" res="-4.5328594744205475e-02" rms="1.9585333764553070e-01" purity="5.3122851997613907e-02" nType="0">
          <Node pos="l" depth="2" NCoef="0" IVar="-1" Cut="0.0000000000000000e+00" cType="1" res="-9.5327505841851234e-03" rms="1.9378693401813507e-01" purity="5.3366839885711670e-02" nType="-99"/>
          <Node pos="r" depth="2" NCoef="0" IVar="-1" Cut="0.0000000000000000e+00" cType="1" res="-4.2080033570528030e-02" rms="2.8619337081909180e-01" purity="1.4184611849486828e-02" nType="-99"/>
        </Node>
      </Node>
    </BinaryTree>
    <BinaryTree type="DecisionTree" boostWeight="1.0000000000000000e+00" itree="83">
      <Node pos="s" depth="0" NCoef="0" IVar="8" Cut="1.3335956335067749e+00" cType="0" res="-1.5968371182680130e-02" rms="2.4546656012535095e-01" purity="1.8382845818996429e-01" nType="0">
        <Node pos="l" depth="1" NCoef="0" IVar="-1" Cut="0.0000000000000000e+00" cType="1" res="7.8802071511745453e-03" rms="2.9476326704025269e-01" purity="5.0040251016616821e-01" nType="-99"/>
        <Node pos="r" depth="1" NCoef="0" IVar="1" Cut="3.8148468017578125e+01" cType="0" res="-3.9364814758300781e-02" rms="2.2203165292739868e-01" purity="7.9928189516067505e-02" nType="0">
          <Node pos="l" depth="2" NCoef="0" IVar="-1" Cut="0.0000000000000000e+00" cType="1" res="-2.9404116794466972e-03" rms="2.7263581752777100e-01" purity="1.3236404955387115e-01" nType="-99"/>
          <Node pos="r" depth="2" NCoef="0" IVar="-1" Cut="0.0000000000000000e+00" cType="1" res="-1.5653776004910469e-02" rms="1.3529996573925018e-01" purity="1.7566645517945290e-02" nType="-99"/>
        </Node>
      </Node>
    </BinaryTree>
    <BinaryTree type="DecisionTree" boostWeight="1.0000000000000000e+00" itree="84">
      <Node pos="s" depth="0" NCoef="0" IVar="5" Cut="1.2525713443756104e+00" cType="0" res="-1.6762120649218559e-02" rms="2.3977796733379364e-01" purity="1.8292352557182312e-01" nType="0">
        <Node pos="l" depth="1" NCoef="0" IVar="-1" Cut="0.0000000000000000e+00" cType="1" res="5.2110678516328335e-03" rms="3.2021930813789368e-01" purity="5.3229647874832153e-01" nType="-99"/>
        <Node pos="r" depth="1" NCoef="0" IVar="10" Cut="7.9403373718261719e+01" cType="0" res="-4.2841080576181412e-02" rms="1.9197930395603180e-01" purity="4.1137028485536575e-02" nType="0">
          <Node pos="l" depth="2" NCoef="0" IVar="-1" Cut="0.0000000000000000e+00" cType="1" res="-7.0950863882899284e-03" rms="2.2032208740711212e-01" purity="5.5485397577285767e-02" nType="-99"/>
          <Node pos="r" depth="2" NCoef="0" IVar="-1" Cut="0.0000000000000000e+00" cType="1" res="-1.3788924552500248e-02" rms="1.5590763092041016e-01" purity="2.6330262422561646e-02" nType="-99"/>
        </Node>
      </Node>
    </BinaryTree>
    <BinaryTree type="DecisionTree" boostWeight="1.0000000000000000e+00" itree="85">
      <Node pos="s" depth="0" NCoef="0" IVar="6" Cut="2.7808308601379395e+00" cType="1" res="-1.1643787845969200e-02" rms="2.4323636293411255e-01" purity="1.8612238764762878e-01" nType="0">
        <Node pos="l" depth="1" NCoef="0" IVar="-1" Cut="0.0000000000000000e+00" cType="1" res="6.9899912923574448e-03" rms="3.0955520272254944e-01" purity="5.0902712345123291e-01" nType="-99"/>
        <Node pos="r" depth="1" NCoef="0" IVar="10" Cut="2.2258987426757812e+02" cType="1" res="-3.7207383662462234e-02" rms="2.0614966750144958e-01" purity="5.9795543551445007e-02" nType="0">
          <Node pos="l" depth="2" NCoef="0" IVar="-1" Cut="0.0000000000000000e+00" cType="1" res="-8.0651948228478432e-03" rms="2.0445753633975983e-01" purity="5.9886630624532700e-02" nType="-99"/>
