<?xml version="1.0"?>
<MethodSetup Method="BDT::BDTG">
  <GeneralInfo>
    <Info name="TMVA Release" value="4.0.7 [262151]"/>
    <Info name="ROOT Release" value="5.27/06 [334598]"/>
    <Info name="Creator" value="jaehyeok"/>
    <Info name="Date" value="Fri Mar  2 01:06:30 2012"/>
    <Info name="Host" value="Linux lxbuild142.cern.ch 2.6.18-238.1.1.el5 #1 SMP Wed Jan 19 11:06:36 CET 2011 x86_64 x86_64 x86_64 GNU/Linux"/>
    <Info name="Dir" value="/home/users/jaehyeok/HWW/MakeSmurfNtuples/Tools/TMVA-v4.1.2/test/trainPHandMG"/>
    <Info name="Training events" value="72723"/>
    <Info name="TrainingTime" value="24.7445"/>
    <Info name="AnalysisType" value="Classification"/>
  </GeneralInfo>
  <Options>
    <Option name="V" modified="Yes">False</Option>
    <Option name="VerbosityLevel" modified="No">Default</Option>
    <Option name="VarTransform" modified="No">None</Option>
    <Option name="H" modified="Yes">False</Option>
    <Option name="CreateMVAPdfs" modified="No">False</Option>
    <Option name="IgnoreNegWeightsInTraining" modified="No">False</Option>
    <Option name="NTrees" modified="Yes">400</Option>
    <Option name="BoostType" modified="Yes">Grad</Option>
    <Option name="AdaBoostR2Loss" modified="No">quadratic</Option>
    <Option name="UseBaggedGrad" modified="Yes">True</Option>
    <Option name="GradBaggingFraction" modified="Yes">5.000000e-01</Option>
    <Option name="Shrinkage" modified="Yes">1.000000e-01</Option>
    <Option name="AdaBoostBeta" modified="No">1.000000e+00</Option>
    <Option name="UseRandomisedTrees" modified="No">False</Option>
    <Option name="UseNvars" modified="No">3</Option>
    <Option name="UseNTrainEvents" modified="No">72723</Option>
    <Option name="UseWeightedTrees" modified="No">True</Option>
    <Option name="UseYesNoLeaf" modified="No">True</Option>
    <Option name="NodePurityLimit" modified="No">5.000000e-01</Option>
    <Option name="SeparationType" modified="No">giniindex</Option>
    <Option name="nEventsMin" modified="No">60</Option>
    <Option name="nCuts" modified="Yes">1000</Option>
    <Option name="PruneStrength" modified="No">-1.000000e+00</Option>
    <Option name="PruneMethod" modified="No">costcomplexity</Option>
    <Option name="PruneBeforeBoost" modified="No">False</Option>
    <Option name="PruningValFraction" modified="No">5.000000e-01</Option>
    <Option name="NNodesMax" modified="Yes">5</Option>
    <Option name="MaxDepth" modified="No">3</Option>
  </Options>
  <Variables NVar="11">
    <Variable VarIndex="0" Expression="pmet" Label="pmet" Title="Proj. MET" Unit="GeV" Internal="pmet" Type="F" Min="20" Max="223.053"/>
    <Variable VarIndex="1" Expression="pTrackMet" Label="pTrackMet" Title="Proj. tkMET" Unit="GeV" Internal="pTrackMet" Type="F" Min="20" Max="546.398"/>
    <Variable VarIndex="2" Expression="nvtx" Label="nvtx" Title="nvtx" Unit="" Internal="nvtx" Type="I" Min="1" Max="38"/>
    <Variable VarIndex="3" Expression="dilpt" Label="dilpt" Title="pt(ll)" Unit="GeV" Internal="dilpt" Type="F" Min="45.0011" Max="789.885"/>
    <Variable VarIndex="4" Expression="jet1pt" Label="jet1pt" Title="pt(jet1)" Unit="GeV" Internal="jet1pt" Type="F" Min="30.0006" Max="750.826"/>
    <Variable VarIndex="5" Expression="metSig" Label="metSig" Title="metSig" Unit="GeV" Internal="metSig" Type="F" Min="0.451639" Max="14.284"/>
    <Variable VarIndex="6" Expression="dPhiDiLepJet1" Label="dPhiDiLepJet1" Title="dPhiDiLepJet1" Unit="" Internal="dPhiDiLepJet1" Type="F" Min="0.017895" Max="3.14159"/>
    <Variable VarIndex="7" Expression="dPhiDiLepMET" Label="dPhiDiLepMET" Title="dPhiDiLepMET" Unit="" Internal="dPhiDiLepMET" Type="F" Min="0.00063014" Max="3.14159"/>
    <Variable VarIndex="8" Expression="dPhiJet1MET" Label="dPhiJet1MET" Title="dPhiJet1MET" Unit="" Internal="dPhiJet1MET" Type="F" Min="1.91908e-05" Max="3.14154"/>
    <Variable VarIndex="9" Expression="recoil" Label="recoil" Title="recoil" Unit="GeV" Internal="recoil" Type="F" Min="0.523192" Max="737.906"/>
    <Variable VarIndex="10" Expression="mt" Label="mt" Title="mt" Unit="GeV" Internal="mt" Type="F" Min="0.0350324" Max="581.227"/>
  </Variables>
  <Spectators NSpec="0"/>
  <Transformations NTransformations="0"/>
  <MVAPdfs/>
  <Weights NTrees="400" TreeType="1">
    <BinaryTree type="DecisionTree" boostWeight="1.0000000000000000e+00" itree="0">
      <Node pos="s" depth="0" Seq="0" IVar="5" Cut="1.8966876268386841e+00" cType="0" nS="1.1727719726562500e+03" nB="3.5414144531250000e+04" nEv="3.6586917968750000e+04" nSuw="1.2790000000000000e+03" nBuw="3.5082000000000000e+04" nEvuw="3.6361000000000000e+04" sepI="3.1026924028992653e-02" sepG="6.3088182359933853e-03" res="-4.6794557571411133e-01" rms="1.7614461481571198e-01" nType="0" CC="0.0000000000000000e+00">
        <Node pos="l" depth="1" Seq="0" IVar="-1" Cut="0.0000000000000000e+00" cType="1" nS="5.9209191894531250e+02" nB="7.6229559326171875e+02" nEv="1.3543874511718750e+03" nSuw="6.1700000000000000e+02" nBuw="6.7500000000000000e+02" nEvuw="1.2920000000000000e+03" sepI="2.4605186283588409e-01" sepG="-1.0000000000000000e+00" res="-6.8540782667696476e-03" rms="4.9603614211082458e-01" nType="-1" CC="0.0000000000000000e+00"/>
        <Node pos="r" depth="1" Seq="1" IVar="5" Cut="1.4950931072235107e+00" cType="0" nS="5.8068011474609375e+02" nB="3.4651847656250000e+04" nEv="3.5232527343750000e+04" nSuw="6.6200000000000000e+02" nBuw="3.4407000000000000e+04" nEvuw="3.5069000000000000e+04" sepI="1.6209729015827179e-02" sepG="3.9355098851956427e-04" res="-4.8351863026618958e-01" rms="1.2731742858886719e-01" nType="0" CC="0.0000000000000000e+00">
          <Node pos="l" depth="2" Seq="1" IVar="-1" Cut="0.0000000000000000e+00" cType="1" nS="2.6318905639648438e+02" nB="3.1544641113281250e+03" nEv="3.4176533203125000e+03" nSuw="2.8000000000000000e+02" nBuw="2.9120000000000000e+03" nEvuw="3.1920000000000000e+03" sepI="7.1078367531299591e-02" sepG="-1.0000000000000000e+00" res="-5.0117619335651398e-02" rms="2.6660525798797607e-01" nType="-1" CC="0.0000000000000000e+00"/>
          <Node pos="r" depth="2" Seq="3" IVar="-1" Cut="0.0000000000000000e+00" cType="1" nS="3.1749105834960938e+02" nB="3.1497384765625000e+04" nEv="3.1814876953125000e+04" nSuw="3.8200000000000000e+02" nBuw="3.1495000000000000e+04" nEvuw="3.1877000000000000e+04" sepI="9.8797408863902092e-03" sepG="-1.0000000000000000e+00" res="-6.0478016734123230e-02" rms="9.9396884441375732e-02" nType="-1" CC="0.0000000000000000e+00"/>
        </Node>
      </Node>
    </BinaryTree>
    <BinaryTree type="DecisionTree" boostWeight="1.0000000000000000e+00" itree="1">
      <Node pos="s" depth="0" Seq="0" IVar="5" Cut="2.1255390644073486e+00" cType="0" nS="1.3046021728515625e+03" nB="3.5184882812500000e+04" nEv="3.6489484375000000e+04" nSuw="1.2630000000000000e+03" nBuw="3.5098000000000000e+04" nEvuw="3.6361000000000000e+04" sepI="3.3566068857908249e-02" sepG="7.9656792804598808e-03" res="-4.3557438254356384e-01" rms="1.8321044743061066e-01" nType="0" CC="0.0000000000000000e+00">
        <Node pos="l" depth="1" Seq="0" IVar="-1" Cut="0.0000000000000000e+00" cType="1" nS="5.4259173583984375e+02" nB="3.0598324584960938e+02" nEv="8.4857495117187500e+02" nSuw="5.3100000000000000e+02" nBuw="2.7400000000000000e+02" nEvuw="8.0500000000000000e+02" sepI="2.3056338727474213e-01" sepG="-1.0000000000000000e+00" res="1.0485836304724216e-02" rms="4.8017016053199768e-01" nType="1" CC="0.0000000000000000e+00"/>
        <Node pos="r" depth="1" Seq="1" IVar="6" Cut="2.5268278121948242e+00" cType="1" nS="7.6201049804687500e+02" nB="3.4878902343750000e+04" nEv="3.5640910156250000e+04" nSuw="7.3200000000000000e+02" nBuw="3.4824000000000000e+04" nEvuw="3.5556000000000000e+04" sepI="2.0720420405268669e-02" sepG="9.4437709776684642e-04" res="-4.4934588670730591e-01" rms="1.4394588768482208e-01" nType="0" CC="0.0000000000000000e+00">
          <Node pos="l" depth="2" Seq="1" IVar="-1" Cut="0.0000000000000000e+00" cType="1" nS="2.9810903930664062e+02" nB="1.7198388671875000e+03" nEv="2.0179478759765625e+03" nSuw="2.5300000000000000e+02" nBuw="1.7710000000000000e+03" nEvuw="2.0240000000000000e+03" sepI="1.2446677684783936e-01" sepG="-1.0000000000000000e+00" res="-3.5034596920013428e-02" rms="3.5279849171638489e-01" nType="-1" CC="0.0000000000000000e+00"/>
          <Node pos="r" depth="2" Seq="3" IVar="-1" Cut="0.0000000000000000e+00" cType="1" nS="4.6390145874023438e+02" nB="3.3159062500000000e+04" nEv="3.3622964843750000e+04" nSuw="4.7900000000000000e+02" nBuw="3.3053000000000000e+04" nEvuw="3.3532000000000000e+04" sepI="1.3492824509739876e-02" sepG="-1.0000000000000000e+00" res="-5.6891173124313354e-02" rms="1.1615861952304840e-01" nType="-1" CC="0.0000000000000000e+00"/>
        </Node>
      </Node>
    </BinaryTree>
    <BinaryTree type="DecisionTree" boostWeight="1.0000000000000000e+00" itree="2">
      <Node pos="s" depth="0" Seq="0" IVar="5" Cut="2.0876879692077637e+00" cType="0" nS="1.2876353759765625e+03" nB="3.5363988281250000e+04" nEv="3.6651621093750000e+04" nSuw="1.2620000000000000e+03" nBuw="3.5099000000000000e+04" nEvuw="3.6361000000000000e+04" sepI="3.2226264476776123e-02" sepG="5.2819461561739445e-03" res="-4.0932214260101318e-01" rms="1.7951674759387970e-01" nType="0" CC="0.0000000000000000e+00">
        <Node pos="l" depth="1" Seq="0" IVar="-1" Cut="0.0000000000000000e+00" cType="1" nS="4.9560903930664062e+02" nB="4.1215240478515625e+02" nEv="9.0776141357421875e+02" nSuw="5.2000000000000000e+02" nBuw="3.5200000000000000e+02" nEvuw="8.7200000000000000e+02" sepI="2.4683991074562073e-01" sepG="-1.0000000000000000e+00" res="7.9595046117901802e-03" rms="4.9682986736297607e-01" nType="1" CC="0.0000000000000000e+00"/>
        <Node pos="r" depth="1" Seq="1" IVar="5" Cut="1.7966655492782593e+00" cType="0" nS="7.9202636718750000e+02" nB="3.4951835937500000e+04" nEv="3.5743859375000000e+04" nSuw="7.4200000000000000e+02" nBuw="3.4747000000000000e+04" nEvuw="3.5489000000000000e+04" sepI="2.1359786391258240e-02" sepG="7.1024440694600344e-04" res="-4.2090409994125366e-01" rms="1.4614987373352051e-01" nType="0" CC="0.0000000000000000e+00">
          <Node pos="l" depth="2" Seq="1" IVar="-1" Cut="0.0000000000000000e+00" cType="1" nS="1.8760978698730469e+02" nB="7.4836749267578125e+02" nEv="9.3597729492187500e+02" nSuw="1.4900000000000000e+02" nBuw="6.6800000000000000e+02" nEvuw="8.1700000000000000e+02" sepI="1.5846072137355804e-01" sepG="-1.0000000000000000e+00" res="-3.0115570873022079e-02" rms="3.9807125926017761e-01" nType="-1" CC="0.0000000000000000e+00"/>
          <Node pos="r" depth="2" Seq="3" IVar="-1" Cut="0.0000000000000000e+00" cType="1" nS="6.0441656494140625e+02" nB="3.4203468750000000e+04" nEv="3.4807882812500000e+04" nSuw="5.9300000000000000e+02" nBuw="3.4079000000000000e+04" nEvuw="3.4672000000000000e+04" sepI="1.6943825408816338e-02" sepG="-1.0000000000000000e+00" res="-5.3289584815502167e-02" rms="1.3016845285892487e-01" nType="-1" CC="0.0000000000000000e+00"/>
        </Node>
      </Node>
    </BinaryTree>
    <BinaryTree type="DecisionTree" boostWeight="1.0000000000000000e+00" itree="3">
      <Node pos="s" depth="0" Seq="0" IVar="5" Cut="2.1759254932403564e+00" cType="0" nS="1.2791320800781250e+03" nB="3.5368148437500000e+04" nEv="3.6647281250000000e+04" nSuw="1.2360000000000000e+03" nBuw="3.5125000000000000e+04" nEvuw="3.6361000000000000e+04" sepI="3.1229173764586449e-02" sepG="5.1472978666424751e-03" res="-3.8448670506477356e-01" rms="1.7671778798103333e-01" nType="0" CC="0.0000000000000000e+00">
        <Node pos="l" depth="1" Seq="0" IVar="-1" Cut="0.0000000000000000e+00" cType="1" nS="4.7134805297851562e+02" nB="3.0100997924804688e+02" nEv="7.7235803222656250e+02" nSuw="4.7700000000000000e+02" nBuw="2.6000000000000000e+02" nEvuw="7.3700000000000000e+02" sepI="2.3784020543098450e-01" sepG="-1.0000000000000000e+00" res="1.1532980948686600e-02" rms="4.8768863081932068e-01" nType="1" CC="0.0000000000000000e+00"/>
        <Node pos="r" depth="1" Seq="1" IVar="6" Cut="2.4102456569671631e+00" cType="1" nS="8.0778399658203125e+02" nB="3.5067136718750000e+04" nEv="3.5874921875000000e+04" nSuw="7.5900000000000000e+02" nBuw="3.4865000000000000e+04" nEvuw="3.5624000000000000e+04" sepI="2.1522890776395798e-02" sepG="1.0081793880090117e-03" res="-3.9501366019248962e-01" rms="1.4670681953430176e-01" nType="0" CC="0.0000000000000000e+00">
          <Node pos="l" depth="2" Seq="1" IVar="-1" Cut="0.0000000000000000e+00" cType="1" nS="2.6518310546875000e+02" nB="1.0987570800781250e+03" nEv="1.3639401855468750e+03" nSuw="2.1500000000000000e+02" nBuw="1.0690000000000000e+03" nEvuw="1.2840000000000000e+03" sepI="1.5371891856193542e-01" sepG="-1.0000000000000000e+00" res="-2.6858806610107422e-02" rms="3.9207002520561218e-01" nType="-1" CC="0.0000000000000000e+00"/>
          <Node pos="r" depth="2" Seq="3" IVar="-1" Cut="0.0000000000000000e+00" cType="1" nS="5.4260089111328125e+02" nB="3.3968378906250000e+04" nEv="3.4510980468750000e+04" nSuw="5.4400000000000000e+02" nBuw="3.3796000000000000e+04" nEvuw="3.4340000000000000e+04" sepI="1.5250225551426411e-02" sepG="-1.0000000000000000e+00" res="-5.1026239991188049e-02" rms="1.2349180132150650e-01" nType="-1" CC="0.0000000000000000e+00"/>
        </Node>
      </Node>
    </BinaryTree>
    <BinaryTree type="DecisionTree" boostWeight="1.0000000000000000e+00" itree="4">
      <Node pos="s" depth="0" Seq="0" IVar="5" Cut="2.0624582767486572e+00" cType="0" nS="1.3059067382812500e+03" nB="3.4898730468750000e+04" nEv="3.6204636718750000e+04" nSuw="1.3110000000000000e+03" nBuw="3.5050000000000000e+04" nEvuw="3.6361000000000000e+04" sepI="3.1458146870136261e-02" sepG="4.8853806219995022e-03" res="-3.5989627242088318e-01" rms="1.7736443877220154e-01" nType="0" CC="0.0000000000000000e+00">
        <Node pos="l" depth="1" Seq="0" IVar="-1" Cut="0.0000000000000000e+00" cType="1" nS="5.4327490234375000e+02" nB="4.2391870117187500e+02" nEv="9.6719360351562500e+02" nSuw="5.6700000000000000e+02" nBuw="3.7900000000000000e+02" nEvuw="9.4600000000000000e+02" sepI="2.4102054536342621e-01" sepG="-1.0000000000000000e+00" res="5.4419208317995071e-03" rms="4.9093842506408691e-01" nType="1" CC="0.0000000000000000e+00"/>
        <Node pos="r" depth="1" Seq="1" IVar="6" Cut="2.5965528488159180e+00" cType="1" nS="7.6263189697265625e+02" nB="3.4474812500000000e+04" nEv="3.5237441406250000e+04" nSuw="7.4400000000000000e+02" nBuw="3.4671000000000000e+04" nEvuw="3.5415000000000000e+04" sepI="2.0686624571681023e-02" sepG="6.7108718212693930e-04" res="-3.7147614359855652e-01" rms="1.4382845163345337e-01" nType="0" CC="0.0000000000000000e+00">
          <Node pos="l" depth="2" Seq="1" IVar="-1" Cut="0.0000000000000000e+00" cType="1" nS="3.4202005004882812e+02" nB="2.4108120117187500e+03" nEv="2.7528320312500000e+03" nSuw="3.0400000000000000e+02" nBuw="2.3680000000000000e+03" nEvuw="2.6720000000000000e+03" sepI="1.0644084960222244e-01" sepG="-1.0000000000000000e+00" res="-3.1917929649353027e-02" rms="3.2625272870063782e-01" nType="-1" CC="0.0000000000000000e+00"/>
          <Node pos="r" depth="2" Seq="3" IVar="-1" Cut="0.0000000000000000e+00" cType="1" nS="4.2061181640625000e+02" nB="3.2064000000000000e+04" nEv="3.2484611328125000e+04" nSuw="4.4000000000000000e+02" nBuw="3.2303000000000000e+04" nEvuw="3.2743000000000000e+04" sepI="1.2691628187894821e-02" sepG="-1.0000000000000000e+00" res="-4.9525704234838486e-02" rms="1.1265712976455688e-01" nType="-1" CC="0.0000000000000000e+00"/>
        </Node>
      </Node>
    </BinaryTree>
    <BinaryTree type="DecisionTree" boostWeight="1.0000000000000000e+00" itree="5">
      <Node pos="s" depth="0" Seq="0" IVar="5" Cut="2.1517732143402100e+00" cType="0" nS="1.2582828369140625e+03" nB="3.5184511718750000e+04" nEv="3.6442792968750000e+04" nSuw="1.2790000000000000e+03" nBuw="3.5082000000000000e+04" nEvuw="3.6361000000000000e+04" sepI="2.9706392437219620e-02" sepG="3.5562326665967703e-03" res="-3.3932000398635864e-01" rms="1.7235542833805084e-01" nType="0" CC="0.0000000000000000e+00">
        <Node pos="l" depth="1" Seq="0" IVar="-1" Cut="0.0000000000000000e+00" cType="1" nS="4.5824813842773438e+02" nB="3.4465457153320312e+02" nEv="8.0290270996093750e+02" nSuw="5.0800000000000000e+02" nBuw="3.0100000000000000e+02" nEvuw="8.0900000000000000e+02" sepI="2.4441082775592804e-01" sepG="-1.0000000000000000e+00" res="9.7743151709437370e-03" rms="4.9437922239303589e-01" nType="1" CC="0.0000000000000000e+00"/>
        <Node pos="r" depth="1" Seq="1" IVar="5" Cut="1.7951008081436157e+00" cType="0" nS="8.0003466796875000e+02" nB="3.4839855468750000e+04" nEv="3.5639890625000000e+04" nSuw="7.7100000000000000e+02" nBuw="3.4781000000000000e+04" nEvuw="3.5552000000000000e+04" sepI="2.1233139559626579e-02" sepG="6.1387731693685055e-04" res="-3.4827071428298950e-01" rms="1.4571595191955566e-01" nType="0" CC="0.0000000000000000e+00">
          <Node pos="l" depth="2" Seq="1" IVar="-1" Cut="0.0000000000000000e+00" cType="1" nS="2.1404501342773438e+02" nB="8.7659967041015625e+02" nEv="1.0906446533203125e+03" nSuw="1.7800000000000000e+02" nBuw="7.6500000000000000e+02" nEvuw="9.4300000000000000e+02" sepI="1.5283899009227753e-01" sepG="-1.0000000000000000e+00" res="-2.3801270872354507e-02" rms="3.9094626903533936e-01" nType="-1" CC="0.0000000000000000e+00"/>
          <Node pos="r" depth="2" Seq="3" IVar="-1" Cut="0.0000000000000000e+00" cType="1" nS="5.8598968505859375e+02" nB="3.3963257812500000e+04" nEv="3.4549246093750000e+04" nSuw="5.9300000000000000e+02" nBuw="3.4016000000000000e+04" nEvuw="3.4609000000000000e+04" sepI="1.6445372253656387e-02" sepG="-1.0000000000000000e+00" res="-4.6743217855691910e-02" rms="1.2823951244354248e-01" nType="-1" CC="0.0000000000000000e+00"/>
        </Node>
      </Node>
    </BinaryTree>
    <BinaryTree type="DecisionTree" boostWeight="1.0000000000000000e+00" itree="6">
      <Node pos="s" depth="0" Seq="0" IVar="5" Cut="2.3372848033905029e+00" cType="0" nS="1.2670305175781250e+03" nB="3.5239082031250000e+04" nEv="3.6506113281250000e+04" nSuw="1.2940000000000000e+03" nBuw="3.5067000000000000e+04" nEvuw="3.6361000000000000e+04" sepI="2.9046457260847092e-02" sepG="4.2521217837929726e-03" res="-3.1842115521430969e-01" rms="1.7043021321296692e-01" nType="0" CC="0.0000000000000000e+00">
        <Node pos="l" depth="1" Seq="0" IVar="-1" Cut="0.0000000000000000e+00" cType="1" nS="4.0596069335937500e+02" nB="1.5618327331542969e+02" nEv="5.6214392089843750e+02" nSuw="4.2200000000000000e+02" nBuw="1.4000000000000000e+02" nEvuw="5.6200000000000000e+02" sepI="2.0064271986484528e-01" sepG="-1.0000000000000000e+00" res="1.7601691186428070e-02" rms="4.4793158769607544e-01" nType="1" CC="0.0000000000000000e+00"/>
        <Node pos="r" depth="1" Seq="1" IVar="5" Cut="1.7279664278030396e+00" cType="0" nS="8.6106988525390625e+02" nB="3.5082898437500000e+04" nEv="3.5943968750000000e+04" nSuw="8.7200000000000000e+02" nBuw="3.4927000000000000e+04" nEvuw="3.5799000000000000e+04" sepI="2.2044163197278976e-02" sepG="7.4661412509158254e-04" res="-3.2657596468925476e-01" rms="1.4847277104854584e-01" nType="0" CC="0.0000000000000000e+00">
          <Node pos="l" depth="2" Seq="1" IVar="-1" Cut="0.0000000000000000e+00" cType="1" nS="3.3313088989257812e+02" nB="1.3535718994140625e+03" nEv="1.6867027587890625e+03" nSuw="3.1200000000000000e+02" nBuw="1.2070000000000000e+03" nEvuw="1.5190000000000000e+03" sepI="1.4895009994506836e-01" sepG="-1.0000000000000000e+00" res="-2.2677285596728325e-02" rms="3.8594052195549011e-01" nType="-1" CC="0.0000000000000000e+00"/>
          <Node pos="r" depth="2" Seq="3" IVar="-1" Cut="0.0000000000000000e+00" cType="1" nS="5.2793896484375000e+02" nB="3.3729328125000000e+04" nEv="3.4257265625000000e+04" nSuw="5.6000000000000000e+02" nBuw="3.3720000000000000e+04" nEvuw="3.4280000000000000e+04" sepI="1.5012403950095177e-02" sepG="-1.0000000000000000e+00" res="-4.5253280550241470e-02" rms="1.2252511084079742e-01" nType="-1" CC="0.0000000000000000e+00"/>
        </Node>
      </Node>
    </BinaryTree>
    <BinaryTree type="DecisionTree" boostWeight="1.0000000000000000e+00" itree="7">
      <Node pos="s" depth="0" Seq="0" IVar="5" Cut="1.8263038396835327e+00" cType="0" nS="1.2728863525390625e+03" nB="3.5485210937500000e+04" nEv="3.6758097656250000e+04" nSuw="1.2560000000000000e+03" nBuw="3.5105000000000000e+04" nEvuw="3.6361000000000000e+04" sepI="2.8932172805070877e-02" sepG="2.8465953655540943e-03" res="-2.9900884628295898e-01" rms="1.7009459435939789e-01" nType="0" CC="0.0000000000000000e+00">
        <Node pos="l" depth="1" Seq="0" IVar="-1" Cut="0.0000000000000000e+00" cType="1" nS="6.5915069580078125e+02" nB="1.0198159179687500e+03" nEv="1.6789665527343750e+03" nSuw="6.4800000000000000e+02" nBuw="8.9400000000000000e+02" nEvuw="1.5420000000000000e+03" sepI="2.1695171296596527e-01" sepG="-1.0000000000000000e+00" res="-6.5093724988400936e-03" rms="4.6578076481819153e-01" nType="-1" CC="0.0000000000000000e+00"/>
        <Node pos="r" depth="1" Seq="1" IVar="6" Cut="2.7920820713043213e+00" cType="1" nS="6.1373565673828125e+02" nB="3.4465394531250000e+04" nEv="3.5079128906250000e+04" nSuw="6.0800000000000000e+02" nBuw="3.4211000000000000e+04" nEvuw="3.4819000000000000e+04" sepI="1.6950292512774467e-02" sepG="2.2872896806802601e-04" res="-3.1068122386932373e-01" rms="1.3019329309463501e-01" nType="0" CC="0.0000000000000000e+00">
          <Node pos="l" depth="2" Seq="1" IVar="-1" Cut="0.0000000000000000e+00" cType="1" nS="3.4828445434570312e+02" nB="5.6274409179687500e+03" nEv="5.9757250976562500e+03" nSuw="3.1900000000000000e+02" nBuw="5.4220000000000000e+03" nEvuw="5.7410000000000000e+03" sepI="5.4282158613204956e-02" sepG="-1.0000000000000000e+00" res="-3.4867633134126663e-02" rms="2.3298531770706177e-01" nType="-1" CC="0.0000000000000000e+00"/>
          <Node pos="r" depth="2" Seq="3" IVar="-1" Cut="0.0000000000000000e+00" cType="1" nS="2.6545120239257812e+02" nB="2.8837953125000000e+04" nEv="2.9103404296875000e+04" nSuw="2.8900000000000000e+02" nBuw="2.8789000000000000e+04" nEvuw="2.9078000000000000e+04" sepI="9.0093445032835007e-03" sepG="-1.0000000000000000e+00" res="-4.5475233346223831e-02" rms="9.4917565584182739e-02" nType="-1" CC="0.0000000000000000e+00"/>
        </Node>
      </Node>
    </BinaryTree>
    <BinaryTree type="DecisionTree" boostWeight="1.0000000000000000e+00" itree="8">
      <Node pos="s" depth="0" Seq="0" IVar="5" Cut="2.1456863880157471e+00" cType="0" nS="1.1509517822265625e+03" nB="3.5222871093750000e+04" nEv="3.6373820312500000e+04" nSuw="1.2200000000000000e+03" nBuw="3.5141000000000000e+04" nEvuw="3.6361000000000000e+04" sepI="2.5846492499113083e-02" sepG="2.3071740288287401e-03" res="-2.8398740291595459e-01" rms="1.6076844930648804e-01" nType="0" CC="0.0000000000000000e+00">
        <Node pos="l" depth="1" Seq="0" IVar="-1" Cut="0.0000000000000000e+00" cType="1" nS="4.4553140258789062e+02" nB="3.6474597167968750e+02" nEv="8.1027734375000000e+02" nSuw="4.7100000000000000e+02" nBuw="3.1200000000000000e+02" nEvuw="7.8300000000000000e+02" sepI="2.4497722089290619e-01" sepG="-1.0000000000000000e+00" res="9.2940907925367355e-03" rms="4.9495172500610352e-01" nType="1" CC="0.0000000000000000e+00"/>
        <Node pos="r" depth="1" Seq="1" IVar="6" Cut="2.4176132678985596e+00" cType="1" nS="7.0542034912109375e+02" nB="3.4858125000000000e+04" nEv="3.5563542968750000e+04" nSuw="7.4900000000000000e+02" nBuw="3.4829000000000000e+04" nEvuw="3.5578000000000000e+04" sepI="1.8494091928005219e-02" sepG="3.9410238969139755e-04" res="-2.9123768210411072e-01" rms="1.3599298894405365e-01" nType="0" CC="0.0000000000000000e+00">
          <Node pos="l" depth="2" Seq="1" IVar="-1" Cut="0.0000000000000000e+00" cType="1" nS="2.1250198364257812e+02" nB="1.1960957031250000e+03" nEv="1.4085977783203125e+03" nSuw="1.7400000000000000e+02" nBuw="1.1520000000000000e+03" nEvuw="1.3260000000000000e+03" sepI="1.2104728072881699e-01" sepG="-1.0000000000000000e+00" res="-2.0478295162320137e-02" rms="3.4791851043701172e-01" nType="-1" CC="0.0000000000000000e+00"/>
          <Node pos="r" depth="2" Seq="3" IVar="-1" Cut="0.0000000000000000e+00" cType="1" nS="4.9291836547851562e+02" nB="3.3662027343750000e+04" nEv="3.4154945312500000e+04" nSuw="5.7500000000000000e+02" nBuw="3.3677000000000000e+04" nEvuw="3.4252000000000000e+04" sepI="1.3854299671947956e-02" sepG="-1.0000000000000000e+00" res="-4.2535413056612015e-02" rms="1.1770428717136383e-01" nType="-1" CC="0.0000000000000000e+00"/>
        </Node>
      </Node>
    </BinaryTree>
    <BinaryTree type="DecisionTree" boostWeight="1.0000000000000000e+00" itree="9">
      <Node pos="s" depth="0" Seq="0" IVar="5" Cut="2.0822927951812744e+00" cType="0" nS="1.2649434814453125e+03" nB="3.5090664062500000e+04" nEv="3.6355609375000000e+04" nSuw="1.3070000000000000e+03" nBuw="3.5054000000000000e+04" nEvuw="3.6361000000000000e+04" sepI="2.7939192950725555e-02" sepG="2.8605766128748655e-03" res="-2.6375237107276917e-01" rms="1.6715021431446075e-01" nType="0" CC="0.0000000000000000e+00">
        <Node pos="l" depth="1" Seq="0" IVar="-1" Cut="0.0000000000000000e+00" cType="1" nS="5.2409332275390625e+02" nB="3.7991418457031250e+02" nEv="9.0400750732421875e+02" nSuw="5.5200000000000000e+02" nBuw="3.3500000000000000e+02" nEvuw="8.8700000000000000e+02" sepI="2.3975113034248352e-01" sepG="-1.0000000000000000e+00" res="6.5613780170679092e-03" rms="4.8964387178421021e-01" nType="1" CC="0.0000000000000000e+00"/>
        <Node pos="r" depth="1" Seq="1" IVar="5" Cut="1.6630117893218994e+00" cType="0" nS="7.4085009765625000e+02" nB="3.4710750000000000e+04" nEv="3.5451601562500000e+04" nSuw="7.5500000000000000e+02" nBuw="3.4719000000000000e+04" nEvuw="3.5474000000000000e+04" sepI="1.9604517146945000e-02" sepG="4.1090158629231155e-04" res="-2.7229309082031250e-01" rms="1.4001613855361938e-01" nType="0" CC="0.0000000000000000e+00">
          <Node pos="l" depth="2" Seq="1" IVar="-1" Cut="0.0000000000000000e+00" cType="1" nS="2.6668713378906250e+02" nB="1.6291909179687500e+03" nEv="1.8958780517578125e+03" nSuw="2.3800000000000000e+02" nBuw="1.5090000000000000e+03" nEvuw="1.7470000000000000e+03" sepI="1.1586140841245651e-01" sepG="-1.0000000000000000e+00" res="-2.4132760241627693e-02" rms="3.4038421511650085e-01" nType="-1" CC="0.0000000000000000e+00"/>
          <Node pos="r" depth="2" Seq="3" IVar="-1" Cut="0.0000000000000000e+00" cType="1" nS="4.7416296386718750e+02" nB="3.3081558593750000e+04" nEv="3.3555722656250000e+04" nSuw="5.1700000000000000e+02" nBuw="3.3210000000000000e+04" nEvuw="3.3727000000000000e+04" sepI="1.3731943443417549e-02" sepG="-1.0000000000000000e+00" res="-4.1396830230951309e-02" rms="1.1718337237834930e-01" nType="-1" CC="0.0000000000000000e+00"/>
        </Node>
      </Node>
    </BinaryTree>
    <BinaryTree type="DecisionTree" boostWeight="1.0000000000000000e+00" itree="10">
      <Node pos="s" depth="0" Seq="0" IVar="5" Cut="2.0889723300933838e+00" cType="0" nS="1.2891630859375000e+03" nB="3.4891757812500000e+04" nEv="3.6180921875000000e+04" nSuw="1.2760000000000000e+03" nBuw="3.5085000000000000e+04" nEvuw="3.6361000000000000e+04" sepI="2.8057573363184929e-02" sepG="2.8372225351631641e-03" res="-2.4703136086463928e-01" rms="1.6750395298004150e-01" nType="0" CC="0.0000000000000000e+00">
        <Node pos="l" depth="1" Seq="0" IVar="-1" Cut="0.0000000000000000e+00" cType="1" nS="5.3077069091796875e+02" nB="3.4529379272460938e+02" nEv="8.7606445312500000e+02" nSuw="5.3100000000000000e+02" nBuw="3.0400000000000000e+02" nEvuw="8.3500000000000000e+02" sepI="2.3357798159122467e-01" sepG="-1.0000000000000000e+00" res="6.6823381930589676e-03" rms="4.8329904675483704e-01" nType="1" CC="0.0000000000000000e+00"/>
        <Node pos="r" depth="1" Seq="1" IVar="5" Cut="1.4454878568649292e+00" cType="0" nS="7.5839245605468750e+02" nB="3.4546464843750000e+04" nEv="3.5304859375000000e+04" nSuw="7.4500000000000000e+02" nBuw="3.4781000000000000e+04" nEvuw="3.5526000000000000e+04" sepI="2.0050106570124626e-02" sepG="5.4667680524289608e-04" res="-2.5542205572128296e-01" rms="1.4159840345382690e-01" nType="0" CC="0.0000000000000000e+00">
          <Node pos="l" depth="2" Seq="1" IVar="-1" Cut="0.0000000000000000e+00" cType="1" nS="4.7072879028320312e+02" nB="4.4141445312500000e+03" nEv="4.8848730468750000e+03" nSuw="4.0000000000000000e+02" nBuw="4.0660000000000000e+03" nEvuw="4.4660000000000000e+03" sepI="8.3345167338848114e-02" sepG="-1.0000000000000000e+00" res="-2.9649488627910614e-02" rms="2.8869563341140747e-01" nType="-1" CC="0.0000000000000000e+00"/>
          <Node pos="r" depth="2" Seq="3" IVar="-1" Cut="0.0000000000000000e+00" cType="1" nS="2.8766366577148438e+02" nB="3.0132320312500000e+04" nEv="3.0419984375000000e+04" nSuw="3.4500000000000000e+02" nBuw="3.0715000000000000e+04" nEvuw="3.1060000000000000e+04" sepI="9.2516560107469559e-03" sepG="-1.0000000000000000e+00" res="-4.0900383144617081e-02" rms="9.6185527741909027e-02" nType="-1" CC="0.0000000000000000e+00"/>
        </Node>
      </Node>
    </BinaryTree>
    <BinaryTree type="DecisionTree" boostWeight="1.0000000000000000e+00" itree="11">
      <Node pos="s" depth="0" Seq="0" IVar="5" Cut="2.3581948280334473e+00" cType="0" nS="1.2090527343750000e+03" nB="3.5319613281250000e+04" nEv="3.6528664062500000e+04" nSuw="1.2420000000000000e+03" nBuw="3.5119000000000000e+04" nEvuw="3.6361000000000000e+04" sepI="2.5967987254261971e-02" sepG="2.1132114343345165e-03" res="-2.3435199260711670e-01" rms="1.6114585101604462e-01" nType="0" CC="0.0000000000000000e+00">
        <Node pos="l" depth="1" Seq="0" IVar="-1" Cut="0.0000000000000000e+00" cType="1" nS="3.6625466918945312e+02" nB="1.7529595947265625e+02" nEv="5.4155065917968750e+02" nSuw="3.9500000000000000e+02" nBuw="1.5300000000000000e+02" nEvuw="5.4800000000000000e+02" sepI="2.1891571581363678e-01" sepG="-1.0000000000000000e+00" res="1.6420526430010796e-02" rms="4.6788430213928223e-01" nType="1" CC="0.0000000000000000e+00"/>
        <Node pos="r" depth="1" Seq="1" IVar="6" Cut="2.2990317344665527e+00" cType="1" nS="8.4279803466796875e+02" nB="3.5144316406250000e+04" nEv="3.5987113281250000e+04" nSuw="8.4700000000000000e+02" nBuw="3.4966000000000000e+04" nEvuw="3.5813000000000000e+04" sepI="2.0919408649206161e-02" sepG="6.4775336068123579e-04" res="-2.3999118804931641e-01" rms="1.4463543891906738e-01" nType="0" CC="0.0000000000000000e+00">
          <Node pos="l" depth="2" Seq="1" IVar="-1" Cut="0.0000000000000000e+00" cType="1" nS="2.0934869384765625e+02" nB="7.0958624267578125e+02" nEv="9.1893493652343750e+02" nSuw="1.9200000000000000e+02" nBuw="7.2000000000000000e+02" nEvuw="9.1200000000000000e+02" sepI="1.5815334022045135e-01" sepG="-1.0000000000000000e+00" res="-1.1180963367223740e-02" rms="3.9768499135971069e-01" nType="-1" CC="0.0000000000000000e+00"/>
          <Node pos="r" depth="2" Seq="3" IVar="-1" Cut="0.0000000000000000e+00" cType="1" nS="6.3344934082031250e+02" nB="3.4434730468750000e+04" nEv="3.5068179687500000e+04" nSuw="6.5500000000000000e+02" nBuw="3.4246000000000000e+04" nEvuw="3.4901000000000000e+04" sepI="1.6658570617437363e-02" sepG="-1.0000000000000000e+00" res="-3.8729321211576462e-02" rms="1.2906809151172638e-01" nType="-1" CC="0.0000000000000000e+00"/>
        </Node>
      </Node>
    </BinaryTree>
    <BinaryTree type="DecisionTree" boostWeight="1.0000000000000000e+00" itree="12">
      <Node pos="s" depth="0" Seq="0" IVar="5" Cut="2.0907630920410156e+00" cType="0" nS="1.2065628662109375e+03" nB="3.5021296875000000e+04" nEv="3.6227859375000000e+04" nSuw="1.2030000000000000e+03" nBuw="3.5158000000000000e+04" nEvuw="3.6361000000000000e+04" sepI="2.6204917579889297e-02" sepG="1.7599937273189425e-03" res="-2.1969680488109589e-01" rms="1.6187933087348938e-01" nType="0" CC="0.0000000000000000e+00">
        <Node pos="l" depth="1" Seq="0" IVar="-1" Cut="0.0000000000000000e+00" cType="1" nS="4.5879629516601562e+02" nB="3.4227719116210938e+02" nEv="8.0107348632812500e+02" nSuw="4.8100000000000000e+02" nBuw="3.0400000000000000e+02" nEvuw="7.8500000000000000e+02" sepI="2.3529009521007538e-01" sepG="-1.0000000000000000e+00" res="6.5166358835995197e-03" rms="4.8506709933280945e-01" nType="1" CC="0.0000000000000000e+00"/>
        <Node pos="r" depth="1" Seq="1" IVar="6" Cut="2.6643574237823486e+00" cType="1" nS="7.4776654052734375e+02" nB="3.4679019531250000e+04" nEv="3.5426785156250000e+04" nSuw="7.2200000000000000e+02" nBuw="3.4854000000000000e+04" nEvuw="3.5576000000000000e+04" sepI="1.9677273929119110e-02" sepG="3.7206729757599533e-04" res="-2.2600530087947845e-01" rms="1.4027571678161621e-01" nType="0" CC="0.0000000000000000e+00">
          <Node pos="l" depth="2" Seq="1" IVar="-1" Cut="0.0000000000000000e+00" cType="1" nS="3.5926403808593750e+02" nB="3.1718151855468750e+03" nEv="3.5310793457031250e+03" nSuw="3.0300000000000000e+02" nBuw="3.1190000000000000e+03" nEvuw="3.4220000000000000e+03" sepI="8.6800053715705872e-02" sepG="-1.0000000000000000e+00" res="-2.2684732452034950e-02" rms="2.9461848735809326e-01" nType="-1" CC="0.0000000000000000e+00"/>
          <Node pos="r" depth="2" Seq="3" IVar="-1" Cut="0.0000000000000000e+00" cType="1" nS="3.8850253295898438e+02" nB="3.1507205078125000e+04" nEv="3.1895707031250000e+04" nSuw="4.1900000000000000e+02" nBuw="3.1735000000000000e+04" nEvuw="3.2154000000000000e+04" sepI="1.1833052150905132e-02" sepG="-1.0000000000000000e+00" res="-3.9280727505683899e-02" rms="1.0877983272075653e-01" nType="-1" CC="0.0000000000000000e+00"/>
        </Node>
      </Node>
    </BinaryTree>
    <BinaryTree type="DecisionTree" boostWeight="1.0000000000000000e+00" itree="13">
      <Node pos="s" depth="0" Seq="0" IVar="5" Cut="2.2756803035736084e+00" cType="0" nS="1.3156320800781250e+03" nB="3.5190691406250000e+04" nEv="3.6506324218750000e+04" nSuw="1.2990000000000000e+03" nBuw="3.5062000000000000e+04" nEvuw="3.6361000000000000e+04" sepI="2.7789918705821037e-02" sepG="2.2033143322914839e-03" res="-2.0389357209205627e-01" rms="1.6670309007167816e-01" nType="0" CC="0.0000000000000000e+00">
        <Node pos="l" depth="1" Seq="0" IVar="-1" Cut="0.0000000000000000e+00" cType="1" nS="4.1708319091796875e+02" nB="1.7542692565917969e+02" nEv="5.9251013183593750e+02" nSuw="4.3300000000000000e+02" nBuw="1.5500000000000000e+02" nEvuw="5.8800000000000000e+02" sepI="2.0800706744194031e-01" sepG="-1.0000000000000000e+00" res="1.2817137874662876e-02" rms="4.5607790350914001e-01" nType="1" CC="0.0000000000000000e+00"/>
        <Node pos="r" depth="1" Seq="1" IVar="6" Cut="2.6859877109527588e+00" cType="1" nS="8.9854888916015625e+02" nB="3.5015265625000000e+04" nEv="3.5913812500000000e+04" nSuw="8.6600000000000000e+02" nBuw="3.4907000000000000e+04" nEvuw="3.5773000000000000e+04" sepI="2.2577011957764626e-02" sepG="4.5012307236902416e-04" res="-2.0992271602153778e-01" rms="1.5025648474693298e-01" nType="0" CC="0.0000000000000000e+00">
          <Node pos="l" depth="2" Seq="1" IVar="-1" Cut="0.0000000000000000e+00" cType="1" nS="4.4316116333007812e+02" nB="3.4976882324218750e+03" nEv="3.9408496093750000e+03" nSuw="4.1300000000000000e+02" nBuw="3.4530000000000000e+03" nEvuw="3.8660000000000000e+03" sepI="9.0680822730064392e-02" sepG="-1.0000000000000000e+00" res="-2.1147949621081352e-02" rms="3.0113255977630615e-01" nType="-1" CC="0.0000000000000000e+00"/>
          <Node pos="r" depth="2" Seq="3" IVar="-1" Cut="0.0000000000000000e+00" cType="1" nS="4.5538772583007812e+02" nB="3.1517576171875000e+04" nEv="3.1972964843750000e+04" nSuw="4.5300000000000000e+02" nBuw="3.1454000000000000e+04" nEvuw="3.1907000000000000e+04" sepI="1.3677226379513741e-02" sepG="-1.0000000000000000e+00" res="-3.8444239646196365e-02" rms="1.1694967746734619e-01" nType="-1" CC="0.0000000000000000e+00"/>
        </Node>
      </Node>
    </BinaryTree>
    <BinaryTree type="DecisionTree" boostWeight="1.0000000000000000e+00" itree="14">
      <Node pos="s" depth="0" Seq="0" IVar="5" Cut="1.8477779626846313e+00" cType="0" nS="1.2540008544921875e+03" nB="3.5177281250000000e+04" nEv="3.6431285156250000e+04" nSuw="1.2040000000000000e+03" nBuw="3.5157000000000000e+04" nEvuw="3.6361000000000000e+04" sepI="2.6347519829869270e-02" sepG="1.6561804804950953e-03" res="-1.9338610768318176e-01" rms="1.6231918334960938e-01" nType="0" CC="0.0000000000000000e+00">
        <Node pos="l" depth="1" Seq="0" IVar="-1" Cut="0.0000000000000000e+00" cType="1" nS="6.6021960449218750e+02" nB="9.7496166992187500e+02" nEv="1.6351812744140625e+03" nSuw="6.1600000000000000e+02" nBuw="8.7500000000000000e+02" nEvuw="1.4910000000000000e+03" sepI="2.0359994471073151e-01" sepG="-1.0000000000000000e+00" res="-1.5868783229961991e-03" rms="4.5122051239013672e-01" nType="-1" CC="0.0000000000000000e+00"/>
        <Node pos="r" depth="1" Seq="1" IVar="5" Cut="1.4329249858856201e+00" cType="0" nS="5.9378125000000000e+02" nB="3.4202320312500000e+04" nEv="3.4796101562500000e+04" nSuw="5.8800000000000000e+02" nBuw="3.4282000000000000e+04" nEvuw="3.4870000000000000e+04" sepI="1.6283845528960228e-02" sepG="2.4600554024800658e-04" res="-2.0220819115638733e-01" rms="1.2760816514492035e-01" nType="0" CC="0.0000000000000000e+00">
          <Node pos="l" depth="2" Seq="1" IVar="-1" Cut="0.0000000000000000e+00" cType="1" nS="3.0179489135742188e+02" nB="4.1144409179687500e+03" nEv="4.4162358398437500e+03" nSuw="2.5200000000000000e+02" nBuw="3.7540000000000000e+03" nEvuw="4.0060000000000000e+03" sepI="6.1656653881072998e-02" sepG="-1.0000000000000000e+00" res="-2.7745481580495834e-02" rms="2.4830758571624756e-01" nType="-1" CC="0.0000000000000000e+00"/>
          <Node pos="r" depth="2" Seq="3" IVar="-1" Cut="0.0000000000000000e+00" cType="1" nS="2.9198635864257812e+02" nB="3.0087880859375000e+04" nEv="3.0379867187500000e+04" nSuw="3.3600000000000000e+02" nBuw="3.0528000000000000e+04" nEvuw="3.0864000000000000e+04" sepI="9.4063607975840569e-03" sepG="-1.0000000000000000e+00" res="-3.7536248564720154e-02" rms="9.6986398100852966e-02" nType="-1" CC="0.0000000000000000e+00"/>
        </Node>
      </Node>
    </BinaryTree>
    <BinaryTree type="DecisionTree" boostWeight="1.0000000000000000e+00" itree="15">
      <Node pos="s" depth="0" Seq="0" IVar="6" Cut="2.3302378654479980e+00" cType="1" nS="1.3194046630859375e+03" nB="3.5236929687500000e+04" nEv="3.6556332031250000e+04" nSuw="1.3290000000000000e+03" nBuw="3.5032000000000000e+04" nEvuw="3.6361000000000000e+04" sepI="2.7995560318231583e-02" sepG="1.4216952258720994e-03" res="-1.7936156690120697e-01" rms="1.6731874644756317e-01" nType="0" CC="0.0000000000000000e+00">
        <Node pos="l" depth="1" Seq="0" IVar="-1" Cut="0.0000000000000000e+00" cType="1" nS="4.0943173217773438e+02" nB="7.3799298095703125e+02" nEv="1.1474246826171875e+03" nSuw="3.7800000000000000e+02" nBuw="7.9500000000000000e+02" nEvuw="1.1730000000000000e+03" sepI="1.6730128228664398e-01" sepG="-1.0000000000000000e+00" res="8.1411958672106266e-04" rms="4.0902480483055115e-01" nType="-1" CC="0.0000000000000000e+00"/>
        <Node pos="r" depth="1" Seq="1" IVar="6" Cut="2.7655675411224365e+00" cType="1" nS="9.0997290039062500e+02" nB="3.4498937500000000e+04" nEv="3.5408910156250000e+04" nSuw="9.5100000000000000e+02" nBuw="3.4237000000000000e+04" nEvuw="3.5188000000000000e+04" sepI="2.2013597190380096e-02" sepG="3.8343545747920871e-04" res="-1.8614904582500458e-01" rms="1.4836980402469635e-01" nType="0" CC="0.0000000000000000e+00">
          <Node pos="l" depth="2" Seq="1" IVar="-1" Cut="0.0000000000000000e+00" cType="1" nS="4.5949432373046875e+02" nB="4.4045439453125000e+03" nEv="4.8640385742187500e+03" nSuw="4.8000000000000000e+02" nBuw="4.2220000000000000e+03" nEvuw="4.7020000000000000e+03" sepI="7.0845663547515869e-02" sepG="-1.0000000000000000e+00" res="-2.2387288510799408e-02" rms="2.6616847515106201e-01" nType="-1" CC="0.0000000000000000e+00"/>
          <Node pos="r" depth="2" Seq="3" IVar="-1" Cut="0.0000000000000000e+00" cType="1" nS="4.5047857666015625e+02" nB="3.0094392578125000e+04" nEv="3.0544871093750000e+04" nSuw="4.7100000000000000e+02" nBuw="3.0015000000000000e+04" nEvuw="3.0486000000000000e+04" sepI="1.3792967423796654e-02" sepG="-1.0000000000000000e+00" res="-3.7369582802057266e-02" rms="1.1744346469640732e-01" nType="-1" CC="0.0000000000000000e+00"/>
        </Node>
      </Node>
    </BinaryTree>
    <BinaryTree type="DecisionTree" boostWeight="1.0000000000000000e+00" itree="16">
      <Node pos="s" depth="0" Seq="0" IVar="5" Cut="2.2792165279388428e+00" cType="0" nS="1.1333673095703125e+03" nB="3.5369582031250000e+04" nEv="3.6502949218750000e+04" nSuw="1.1610000000000000e+03" nBuw="3.5200000000000000e+04" nEvuw="3.6361000000000000e+04" sepI="2.3492570966482162e-02" sepG="1.3109893770888448e-03" res="-1.7356216907501221e-01" rms="1.5327286720275879e-01" nType="0" CC="0.0000000000000000e+00">
        <Node pos="l" depth="1" Seq="0" IVar="-1" Cut="0.0000000000000000e+00" cType="1" nS="3.6563644409179688e+02" nB="1.9542881774902344e+02" nEv="5.6106524658203125e+02" nSuw="3.8000000000000000e+02" nBuw="1.7600000000000000e+02" nEvuw="5.5600000000000000e+02" sepI="2.2188194096088409e-01" sepG="-1.0000000000000000e+00" res="1.3462826609611511e-02" rms="4.7104346752166748e-01" nType="1" CC="0.0000000000000000e+00"/>
        <Node pos="r" depth="1" Seq="1" IVar="6" Cut="2.4581806659698486e+00" cType="1" nS="7.6773083496093750e+02" nB="3.5174152343750000e+04" nEv="3.5941882812500000e+04" nSuw="7.8100000000000000e+02" nBuw="3.5024000000000000e+04" nEvuw="3.5805000000000000e+04" sepI="1.9064189866185188e-02" sepG="2.5644947891123593e-04" res="-1.7808599770069122e-01" rms="1.3807313144207001e-01" nType="0" CC="0.0000000000000000e+00">
          <Node pos="l" depth="2" Seq="1" IVar="-1" Cut="0.0000000000000000e+00" cType="1" nS="2.4578080749511719e+02" nB="1.3079080810546875e+03" nEv="1.5536888427734375e+03" nSuw="2.2400000000000000e+02" nBuw="1.3230000000000000e+03" nEvuw="1.5470000000000000e+03" sepI="1.1782108992338181e-01" sepG="-1.0000000000000000e+00" res="-1.2346149422228336e-02" rms="3.4325075149536133e-01" nType="-1" CC="0.0000000000000000e+00"/>
          <Node pos="r" depth="2" Seq="3" IVar="-1" Cut="0.0000000000000000e+00" cType="1" nS="5.2195001220703125e+02" nB="3.3866242187500000e+04" nEv="3.4388195312500000e+04" nSuw="5.5700000000000000e+02" nBuw="3.3701000000000000e+04" nEvuw="3.4258000000000000e+04" sepI="1.4334229752421379e-02" sepG="-1.0000000000000000e+00" res="-3.5287916660308838e-02" rms="1.1972564458847046e-01" nType="-1" CC="0.0000000000000000e+00"/>
        </Node>
      </Node>
    </BinaryTree>
    <BinaryTree type="DecisionTree" boostWeight="1.0000000000000000e+00" itree="17">
      <Node pos="s" depth="0" Seq="0" IVar="5" Cut="1.8950270414352417e+00" cType="0" nS="1.2169802246093750e+03" nB="3.5175058593750000e+04" nEv="3.6392039062500000e+04" nSuw="1.2310000000000000e+03" nBuw="3.5130000000000000e+04" nEvuw="3.6361000000000000e+04" sepI="2.5189520791172981e-02" sepG="1.0656071826815605e-03" res="-1.6152743995189667e-01" rms="1.5871207416057587e-01" nType="0" CC="0.0000000000000000e+00">
        <Node pos="l" depth="1" Seq="0" IVar="-1" Cut="0.0000000000000000e+00" cType="1" nS="5.9666082763671875e+02" nB="8.1414202880859375e+02" nEv="1.4108028564453125e+03" nSuw="5.9600000000000000e+02" nBuw="7.0200000000000000e+02" nEvuw="1.2980000000000000e+03" sepI="2.0727391541004181e-01" sepG="-1.0000000000000000e+00" res="2.0935819484293461e-03" rms="4.5527344942092896e-01" nType="-1" CC="0.0000000000000000e+00"/>
        <Node pos="r" depth="1" Seq="1" IVar="5" Cut="1.5162323713302612e+00" cType="0" nS="6.2031939697265625e+02" nB="3.4360914062500000e+04" nEv="3.4981234375000000e+04" nSuw="6.3500000000000000e+02" nBuw="3.4428000000000000e+04" nEvuw="3.5063000000000000e+04" sepI="1.6737423837184906e-02" sepG="1.7631001537665725e-04" res="-1.6808307170867920e-01" rms="1.2937319278717041e-01" nType="0" CC="0.0000000000000000e+00">
          <Node pos="l" depth="2" Seq="1" IVar="-1" Cut="0.0000000000000000e+00" cType="1" nS="2.4312474060058594e+02" nB="2.8599162597656250e+03" nEv="3.1030410156250000e+03" nSuw="2.3400000000000000e+02" nBuw="2.6330000000000000e+03" nEvuw="2.8670000000000000e+03" sepI="6.8583123385906219e-02" sepG="-1.0000000000000000e+00" res="-2.2073913365602493e-02" rms="2.6188379526138306e-01" nType="-1" CC="0.0000000000000000e+00"/>
          <Node pos="r" depth="2" Seq="3" IVar="-1" Cut="0.0000000000000000e+00" cType="1" nS="3.7719467163085938e+02" nB="3.1501000000000000e+04" nEv="3.1878193359375000e+04" nSuw="4.0100000000000000e+02" nBuw="3.1795000000000000e+04" nEvuw="3.2196000000000000e+04" sepI="1.1497262865304947e-02" sepG="-1.0000000000000000e+00" res="-3.5363975912332535e-02" rms="1.0722529143095016e-01" nType="-1" CC="0.0000000000000000e+00"/>
        </Node>
      </Node>
    </BinaryTree>
    <BinaryTree type="DecisionTree" boostWeight="1.0000000000000000e+00" itree="18">
      <Node pos="s" depth="0" Seq="0" IVar="5" Cut="1.7937029600143433e+00" cType="0" nS="1.3002832031250000e+03" nB="3.5412093750000000e+04" nEv="3.6712375000000000e+04" nSuw="1.2590000000000000e+03" nBuw="3.5102000000000000e+04" nEvuw="3.6361000000000000e+04" sepI="2.6234904304146767e-02" sepG="1.4182629529386759e-03" res="-1.4971207082271576e-01" rms="1.6197192668914795e-01" nType="0" CC="0.0000000000000000e+00">
        <Node pos="l" depth="1" Seq="0" IVar="-1" Cut="0.0000000000000000e+00" cType="1" nS="7.2606555175781250e+02" nB="1.1812467041015625e+03" nEv="1.9073122558593750e+03" nSuw="6.7900000000000000e+02" nBuw="1.0340000000000000e+03" nEvuw="1.7130000000000000e+03" sepI="1.9057439267635345e-01" sepG="-1.0000000000000000e+00" res="-9.2406087787821889e-04" rms="4.3654829263687134e-01" nType="-1" CC="0.0000000000000000e+00"/>
        <Node pos="r" depth="1" Seq="1" IVar="5" Cut="1.5402866601943970e+00" cType="0" nS="5.7421771240234375e+02" nB="3.4230843750000000e+04" nEv="3.4805062500000000e+04" nSuw="5.8000000000000000e+02" nBuw="3.4068000000000000e+04" nEvuw="3.4648000000000000e+04" sepI="1.5733139589428902e-02" sepG="1.2139246973674744e-04" res="-1.5852800011634827e-01" rms="1.2543182075023651e-01" nType="0" CC="0.0000000000000000e+00">
          <Node pos="l" depth="2" Seq="1" IVar="-1" Cut="0.0000000000000000e+00" cType="1" nS="1.7148089599609375e+02" nB="2.1762412109375000e+03" nEv="2.3477221679687500e+03" nSuw="1.5600000000000000e+02" nBuw="1.9160000000000000e+03" nEvuw="2.0720000000000000e+03" sepI="6.5114535391330719e-02" sepG="-1.0000000000000000e+00" res="-2.2964639589190483e-02" rms="2.5517550110816956e-01" nType="-1" CC="0.0000000000000000e+00"/>
          <Node pos="r" depth="2" Seq="3" IVar="-1" Cut="0.0000000000000000e+00" cType="1" nS="4.0273678588867188e+02" nB="3.2054603515625000e+04" nEv="3.2457341796875000e+04" nSuw="4.2400000000000000e+02" nBuw="3.2152000000000000e+04" nEvuw="3.2576000000000000e+04" sepI="1.2031084857881069e-02" sepG="-1.0000000000000000e+00" res="-3.4616861492395401e-02" rms="1.0968630015850067e-01" nType="-1" CC="0.0000000000000000e+00"/>
        </Node>
      </Node>
    </BinaryTree>
    <BinaryTree type="DecisionTree" boostWeight="1.0000000000000000e+00" itree="19">
      <Node pos="s" depth="0" Seq="0" IVar="5" Cut="2.2065877914428711e+00" cType="0" nS="1.2905688476562500e+03" nB="3.5080609375000000e+04" nEv="3.6371179687500000e+04" nSuw="1.2570000000000000e+03" nBuw="3.5104000000000000e+04" nEvuw="3.6361000000000000e+04" sepI="2.6308523491024971e-02" sepG="1.1844475520774722e-03" res="-1.4061644673347473e-01" rms="1.6219902038574219e-01" nType="0" CC="0.0000000000000000e+00">
        <Node pos="l" depth="1" Seq="0" IVar="-1" Cut="0.0000000000000000e+00" cType="1" nS="4.3530822753906250e+02" nB="2.3904829406738281e+02" nEv="6.7435650634765625e+02" nSuw="4.5300000000000000e+02" nBuw="2.1200000000000000e+02" nEvuw="6.6500000000000000e+02" sepI="2.2076222300529480e-01" sepG="-1.0000000000000000e+00" res="1.0204256512224674e-02" rms="4.6985340118408203e-01" nType="1" CC="0.0000000000000000e+00"/>
        <Node pos="r" depth="1" Seq="1" IVar="6" Cut="2.8176870346069336e+00" cType="1" nS="8.5526055908203125e+02" nB="3.4841562500000000e+04" nEv="3.5696824218750000e+04" nSuw="8.0400000000000000e+02" nBuw="3.4892000000000000e+04" nEvuw="3.5696000000000000e+04" sepI="2.1428233012557030e-02" sepG="2.9136374359950423e-04" res="-1.4534673094749451e-01" rms="1.4638385176658630e-01" nType="0" CC="0.0000000000000000e+00">
          <Node pos="l" depth="2" Seq="1" IVar="-1" Cut="0.0000000000000000e+00" cType="1" nS="5.4956988525390625e+02" nB="6.4945581054687500e+03" nEv="7.0441279296875000e+03" nSuw="5.1200000000000000e+02" nBuw="6.3330000000000000e+03" nEvuw="6.8450000000000000e+03" sepI="6.5117046236991882e-02" sepG="-1.0000000000000000e+00" res="-2.0554780960083008e-02" rms="2.5518041849136353e-01" nType="-1" CC="0.0000000000000000e+00"/>
          <Node pos="r" depth="2" Seq="3" IVar="-1" Cut="0.0000000000000000e+00" cType="1" nS="3.0569070434570312e+02" nB="2.8347003906250000e+04" nEv="2.8652695312500000e+04" nSuw="2.9200000000000000e+02" nBuw="2.8559000000000000e+04" nEvuw="2.8851000000000000e+04" sepI="1.0324553586542606e-02" sepG="-1.0000000000000000e+00" res="-3.5358600318431854e-02" rms="1.0160981118679047e-01" nType="-1" CC="0.0000000000000000e+00"/>
        </Node>
      </Node>
    </BinaryTree>
    <BinaryTree type="DecisionTree" boostWeight="1.0000000000000000e+00" itree="20">
      <Node pos="s" depth="0" Seq="0" IVar="5" Cut="1.7824943065643311e+00" cType="0" nS="1.3109855957031250e+03" nB="3.5139136718750000e+04" nEv="3.6450121093750000e+04" nSuw="1.2780000000000000e+03" nBuw="3.5083000000000000e+04" nEvuw="3.6361000000000000e+04" sepI="2.6291210204362869e-02" sepG="1.4134807279333472e-03" res="-1.3125020265579224e-01" rms="1.6214564442634583e-01" nType="0" CC="0.0000000000000000e+00">
        <Node pos="l" depth="1" Seq="0" IVar="-1" Cut="0.0000000000000000e+00" cType="1" nS="7.3028546142578125e+02" nB="1.1424858398437500e+03" nEv="1.8727712402343750e+03" nSuw="6.9200000000000000e+02" nBuw="1.0360000000000000e+03" nEvuw="1.7280000000000000e+03" sepI="1.8732948601245880e-01" sepG="-1.0000000000000000e+00" res="-3.4004315966740251e-04" rms="4.3281576037406921e-01" nType="-1" CC="0.0000000000000000e+00"/>
        <Node pos="r" depth="1" Seq="1" IVar="5" Cut="1.3876390457153320e+00" cType="0" nS="5.8070019531250000e+02" nB="3.3996648437500000e+04" nEv="3.4577351562500000e+04" nSuw="5.8600000000000000e+02" nBuw="3.4047000000000000e+04" nEvuw="3.4633000000000000e+04" sepI="1.6079051420092583e-02" sepG="1.3749659410677850e-04" res="-1.3999988138675690e-01" rms="1.2680320441722870e-01" nType="0" CC="0.0000000000000000e+00">
          <Node pos="l" depth="2" Seq="1" IVar="-1" Cut="0.0000000000000000e+00" cType="1" nS="2.7995642089843750e+02" nB="4.7981064453125000e+03" nEv="5.0780629882812500e+03" nSuw="2.5700000000000000e+02" nBuw="4.4730000000000000e+03" nEvuw="4.7300000000000000e+03" sepI="5.0600308924913406e-02" sepG="-1.0000000000000000e+00" res="-2.4729736149311066e-02" rms="2.2494512796401978e-01" nType="-1" CC="0.0000000000000000e+00"/>
          <Node pos="r" depth="2" Seq="3" IVar="-1" Cut="0.0000000000000000e+00" cType="1" nS="3.0074377441406250e+02" nB="2.9198542968750000e+04" nEv="2.9499287109375000e+04" nSuw="3.2900000000000000e+02" nBuw="2.9574000000000000e+04" nEvuw="2.9903000000000000e+04" sepI="9.9753327667713165e-03" sepG="-1.0000000000000000e+00" res="-3.4119531512260437e-02" rms="9.9876582622528076e-02" nType="-1" CC="0.0000000000000000e+00"/>
        </Node>
      </Node>
    </BinaryTree>
    <BinaryTree type="DecisionTree" boostWeight="1.0000000000000000e+00" itree="21">
      <Node pos="s" depth="0" Seq="0" IVar="6" Cut="2.4096872806549072e+00" cType="1" nS="1.2897612304687500e+03" nB="3.5245914062500000e+04" nEv="3.6535675781250000e+04" nSuw="1.2680000000000000e+03" nBuw="3.5093000000000000e+04" nEvuw="3.6361000000000000e+04" sepI="2.5705350562930107e-02" sepG="1.4170211507007480e-03" res="-1.2389963120222092e-01" rms="1.6032887995243073e-01" nType="0" CC="0.0000000000000000e+00">
        <Node pos="l" depth="1" Seq="0" IVar="-1" Cut="0.0000000000000000e+00" cType="1" nS="5.2624444580078125e+02" nB="1.0831237792968750e+03" nEv="1.6093682861328125e+03" nSuw="4.3300000000000000e+02" nBuw="1.1220000000000000e+03" nEvuw="1.5550000000000000e+03" sepI="1.5322108566761017e-01" sepG="-1.0000000000000000e+00" res="2.7526712510734797e-03" rms="3.9143463969230652e-01" nType="-1" CC="0.0000000000000000e+00"/>
        <Node pos="r" depth="1" Seq="1" IVar="8" Cut="1.0921964645385742e+00" cType="0" nS="7.6351672363281250e+02" nB="3.4162789062500000e+04" nEv="3.4926304687500000e+04" nSuw="8.3500000000000000e+02" nBuw="3.3971000000000000e+04" nEvuw="3.4806000000000000e+04" sepI="1.8347240984439850e-02" sepG="2.3448361025657505e-04" res="-1.3198016583919525e-01" rms="1.3545198738574982e-01" nType="0" CC="0.0000000000000000e+00">
          <Node pos="l" depth="2" Seq="1" IVar="-1" Cut="0.0000000000000000e+00" cType="1" nS="4.2168984985351562e+02" nB="7.2677070312500000e+03" nEv="7.6893969726562500e+03" nSuw="5.0900000000000000e+02" nBuw="7.9290000000000000e+03" nEvuw="8.4380000000000000e+03" sepI="3.9413504302501678e-02" sepG="-1.0000000000000000e+00" res="-2.4291243404150009e-02" rms="1.9852834939956665e-01" nType="-1" CC="0.0000000000000000e+00"/>
          <Node pos="r" depth="2" Seq="3" IVar="-1" Cut="0.0000000000000000e+00" cType="1" nS="3.4182690429687500e+02" nB="2.6895082031250000e+04" nEv="2.7236910156250000e+04" nSuw="3.2600000000000000e+02" nBuw="2.6042000000000000e+04" nEvuw="2.6368000000000000e+04" sepI="1.2099230661988258e-02" sepG="-1.0000000000000000e+00" res="-3.3957686275243759e-02" rms="1.0999650508165359e-01" nType="-1" CC="0.0000000000000000e+00"/>
        </Node>
      </Node>
    </BinaryTree>
    <BinaryTree type="DecisionTree" boostWeight="1.0000000000000000e+00" itree="22">
      <Node pos="s" depth="0" Seq="0" IVar="5" Cut="2.4095916748046875e+00" cType="0" nS="1.1938548583984375e+03" nB="3.5160632812500000e+04" nEv="3.6354488281250000e+04" nSuw="1.2090000000000000e+03" nBuw="3.5152000000000000e+04" nEvuw="3.6361000000000000e+04" sepI="2.4449203163385391e-02" sepG="8.1712519749999046e-04" res="-1.1880189925432205e-01" rms="1.5636241436004639e-01" nType="0" CC="0.0000000000000000e+00">
        <Node pos="l" depth="1" Seq="0" IVar="-1" Cut="0.0000000000000000e+00" cType="1" nS="3.1593209838867188e+02" nB="1.4847615051269531e+02" nEv="4.6440823364257812e+02" nSuw="3.6300000000000000e+02" nBuw="1.3600000000000000e+02" nEvuw="4.9900000000000000e+02" sepI="2.0955882966518402e-01" sepG="-1.0000000000000000e+00" res="1.6752637922763824e-02" rms="4.5777598023414612e-01" nType="1" CC="0.0000000000000000e+00"/>
        <Node pos="r" depth="1" Seq="1" IVar="6" Cut="2.6811811923980713e+00" cType="1" nS="8.7792279052734375e+02" nB="3.5012156250000000e+04" nEv="3.5890078125000000e+04" nSuw="8.4600000000000000e+02" nBuw="3.5016000000000000e+04" nEvuw="3.5862000000000000e+04" sepI="2.1226234734058380e-02" sepG="2.6437646010890603e-04" res="-1.2205357104539871e-01" rms="1.4569225907325745e-01" nType="0" CC="0.0000000000000000e+00">
          <Node pos="l" depth="2" Seq="1" IVar="-1" Cut="0.0000000000000000e+00" cType="1" nS="4.5299084472656250e+02" nB="3.5578293457031250e+03" nEv="4.0108203125000000e+03" nSuw="4.1500000000000000e+02" nBuw="3.4340000000000000e+03" nEvuw="3.8490000000000000e+03" sepI="8.5359305143356323e-02" sepG="-1.0000000000000000e+00" res="-1.2093628756701946e-02" rms="2.9216316342353821e-01" nType="-1" CC="0.0000000000000000e+00"/>
          <Node pos="r" depth="2" Seq="3" IVar="-1" Cut="0.0000000000000000e+00" cType="1" nS="4.2493197631835938e+02" nB="3.1454328125000000e+04" nEv="3.1879259765625000e+04" nSuw="4.3100000000000000e+02" nBuw="3.1582000000000000e+04" nEvuw="3.2013000000000000e+04" sepI="1.2859832495450974e-02" sepG="-1.0000000000000000e+00" res="-3.3008847385644913e-02" rms="1.1340120434761047e-01" nType="-1" CC="0.0000000000000000e+00"/>
        </Node>
      </Node>
    </BinaryTree>
    <BinaryTree type="DecisionTree" boostWeight="1.0000000000000000e+00" itree="23">
      <Node pos="s" depth="0" Seq="0" IVar="5" Cut="2.2618618011474609e+00" cType="0" nS="1.2835346679687500e+03" nB="3.5096875000000000e+04" nEv="3.6380410156250000e+04" nSuw="1.2560000000000000e+03" nBuw="3.5105000000000000e+04" nEvuw="3.6361000000000000e+04" sepI="2.5135857984423637e-02" sepG="1.1754051083698869e-03" res="-1.0974995046854019e-01" rms="1.5854293107986450e-01" nType="0" CC="0.0000000000000000e+00">
        <Node pos="l" depth="1" Seq="0" IVar="-1" Cut="0.0000000000000000e+00" cType="1" nS="4.3988580322265625e+02" nB="1.9462934875488281e+02" nEv="6.3451513671875000e+02" nSuw="4.2300000000000000e+02" nBuw="1.7200000000000000e+02" nEvuw="5.9500000000000000e+02" sepI="2.0333130657672882e-01" sepG="-1.0000000000000000e+00" res="1.2066612020134926e-02" rms="4.5092272758483887e-01" nType="1" CC="0.0000000000000000e+00"/>
        <Node pos="r" depth="1" Seq="1" IVar="6" Cut="2.5093545913696289e+00" cType="1" nS="8.4364892578125000e+02" nB="3.4902246093750000e+04" nEv="3.5745894531250000e+04" nSuw="8.3300000000000000e+02" nBuw="3.4933000000000000e+04" nEvuw="3.5766000000000000e+04" sepI="2.0776493474841118e-02" sepG="2.8403708711266518e-04" res="-1.1431770026683807e-01" rms="1.4414052665233612e-01" nType="0" CC="0.0000000000000000e+00">
          <Node pos="l" depth="2" Seq="1" IVar="-1" Cut="0.0000000000000000e+00" cType="1" nS="3.1372189331054688e+02" nB="1.6323891601562500e+03" nEv="1.9461110839843750e+03" nSuw="3.0000000000000000e+02" nBuw="1.6190000000000000e+03" nEvuw="1.9190000000000000e+03" sepI="1.1978656053543091e-01" sepG="-1.0000000000000000e+00" res="-8.0436160787940025e-03" rms="3.4610193967819214e-01" nType="-1" CC="0.0000000000000000e+00"/>
          <Node pos="r" depth="2" Seq="3" IVar="-1" Cut="0.0000000000000000e+00" cType="1" nS="5.2992706298828125e+02" nB="3.3269859375000000e+04" nEv="3.3799785156250000e+04" nSuw="5.3300000000000000e+02" nBuw="3.3314000000000000e+04" nEvuw="3.3847000000000000e+04" sepI="1.4775338582694530e-02" sepG="-1.0000000000000000e+00" res="-3.1470753252506256e-02" rms="1.2155384570360184e-01" nType="-1" CC="0.0000000000000000e+00"/>
        </Node>
      </Node>
    </BinaryTree>
    <BinaryTree type="DecisionTree" boostWeight="1.0000000000000000e+00" itree="24">
      <Node pos="s" depth="0" Seq="0" IVar="6" Cut="2.2803082466125488e+00" cType="1" nS="1.2346960449218750e+03" nB="3.5351847656250000e+04" nEv="3.6586542968750000e+04" nSuw="1.1980000000000000e+03" nBuw="3.5163000000000000e+04" nEvuw="3.6361000000000000e+04" sepI="2.4258114397525787e-02" sepG="1.0408536763861775e-03" res="-1.0388492047786713e-01" rms="1.5575017035007477e-01" nType="0" CC="0.0000000000000000e+00">
        <Node pos="l" depth="1" Seq="0" IVar="-1" Cut="0.0000000000000000e+00" cType="1" nS="4.0658297729492188e+02" nB="6.3805059814453125e+02" nEv="1.0446335449218750e+03" nSuw="3.3200000000000000e+02" nBuw="6.7300000000000000e+02" nEvuw="1.0050000000000000e+03" sepI="1.6439774632453918e-01" sepG="-1.0000000000000000e+00" res="6.6099269315600395e-03" rms="4.0545991063117981e-01" nType="-1" CC="0.0000000000000000e+00"/>
        <Node pos="r" depth="1" Seq="1" IVar="6" Cut="2.8742423057556152e+00" cType="1" nS="8.2811309814453125e+02" nB="3.4713796875000000e+04" nEv="3.5541910156250000e+04" nSuw="8.6600000000000000e+02" nBuw="3.4490000000000000e+04" nEvuw="3.5356000000000000e+04" sepI="1.9067740067839622e-02" sepG="2.4054263485595584e-04" res="-1.0941595584154129e-01" rms="1.3808599114418030e-01" nType="0" CC="0.0000000000000000e+00">
          <Node pos="l" depth="2" Seq="1" IVar="-1" Cut="0.0000000000000000e+00" cType="1" nS="5.6983203125000000e+02" nB="7.8458300781250000e+03" nEv="8.4156621093750000e+03" nSuw="5.9100000000000000e+02" nBuw="7.6710000000000000e+03" nEvuw="8.2620000000000000e+03" sepI="5.0513476133346558e-02" sepG="-1.0000000000000000e+00" res="-1.8459537997841835e-02" rms="2.2475203871726990e-01" nType="-1" CC="0.0000000000000000e+00"/>
          <Node pos="r" depth="2" Seq="3" IVar="-1" Cut="0.0000000000000000e+00" cType="1" nS="2.5828109741210938e+02" nB="2.6867966796875000e+04" nEv="2.7126246093750000e+04" nSuw="2.7500000000000000e+02" nBuw="2.6819000000000000e+04" nEvuw="2.7094000000000000e+04" sepI="8.9968275278806686e-03" sepG="-1.0000000000000000e+00" res="-3.3528693020343781e-02" rms="9.4851605594158173e-02" nType="-1" CC="0.0000000000000000e+00"/>
        </Node>
      </Node>
    </BinaryTree>
    <BinaryTree type="DecisionTree" boostWeight="1.0000000000000000e+00" itree="25">
      <Node pos="s" depth="0" Seq="0" IVar="5" Cut="1.8544518947601318e+00" cType="0" nS="1.3345698242187500e+03" nB="3.5169539062500000e+04" nEv="3.6504109375000000e+04" nSuw="1.2880000000000000e+03" nBuw="3.5073000000000000e+04" nEvuw="3.6361000000000000e+04" sepI="2.5881363078951836e-02" sepG="1.1927681043744087e-03" res="-9.5823623239994049e-02" rms="1.6087685525417328e-01" nType="0" CC="0.0000000000000000e+00">
        <Node pos="l" depth="1" Seq="0" IVar="-1" Cut="0.0000000000000000e+00" cType="1" nS="7.0113446044921875e+02" nB="9.0875469970703125e+02" nEv="1.6098891601562500e+03" nSuw="6.4900000000000000e+02" nBuw="7.8600000000000000e+02" nEvuw="1.4350000000000000e+03" sepI="1.9133967161178589e-01" sepG="-1.0000000000000000e+00" res="5.2343625575304031e-03" rms="4.3742388486862183e-01" nType="-1" CC="0.0000000000000000e+00"/>
        <Node pos="r" depth="1" Seq="1" IVar="5" Cut="1.3857145309448242e+00" cType="0" nS="6.3343530273437500e+02" nB="3.4260785156250000e+04" nEv="3.4894222656250000e+04" nSuw="6.3900000000000000e+02" nBuw="3.4287000000000000e+04" nEvuw="3.4926000000000000e+04" sepI="1.6999935731291771e-02" sepG="1.2351365876384079e-04" res="-1.0324183851480484e-01" rms="1.3038380444049835e-01" nType="0" CC="0.0000000000000000e+00">
          <Node pos="l" depth="2" Seq="1" IVar="-1" Cut="0.0000000000000000e+00" cType="1" nS="3.1055969238281250e+02" nB="5.2195566406250000e+03" nEv="5.5301166992187500e+03" nSuw="3.1200000000000000e+02" nBuw="4.8190000000000000e+03" nEvuw="5.1310000000000000e+03" sepI="4.9348253756761551e-02" sepG="-1.0000000000000000e+00" res="-1.9354658201336861e-02" rms="2.2214466333389282e-01" nType="-1" CC="0.0000000000000000e+00"/>
          <Node pos="r" depth="2" Seq="3" IVar="-1" Cut="0.0000000000000000e+00" cType="1" nS="3.2287564086914062e+02" nB="2.9041228515625000e+04" nEv="2.9364105468750000e+04" nSuw="3.2700000000000000e+02" nBuw="2.9468000000000000e+04" nEvuw="2.9795000000000000e+04" sepI="1.0761030018329620e-02" sepG="-1.0000000000000000e+00" res="-3.1986627727746964e-02" rms="1.0373538732528687e-01" nType="-1" CC="0.0000000000000000e+00"/>
        </Node>
      </Node>
    </BinaryTree>
    <BinaryTree type="DecisionTree" boostWeight="1.0000000000000000e+00" itree="26">
      <Node pos="s" depth="0" Seq="0" IVar="6" Cut="2.6401622295379639e+00" cType="1" nS="1.2816783447265625e+03" nB="3.5000195312500000e+04" nEv="3.6281875000000000e+04" nSuw="1.2210000000000000e+03" nBuw="3.5140000000000000e+04" nEvuw="3.6361000000000000e+04" sepI="2.5302903726696968e-02" sepG="7.9498713603243232e-04" res="-9.1202177107334137e-02" rms="1.5906886756420135e-01" nType="0" CC="0.0000000000000000e+00">
        <Node pos="l" depth="1" Seq="0" IVar="-1" Cut="0.0000000000000000e+00" cType="1" nS="7.2342016601562500e+02" nB="2.9071774902343750e+03" nEv="3.6305976562500000e+03" nSuw="6.4500000000000000e+02" nBuw="2.8420000000000000e+03" nEvuw="3.4870000000000000e+03" sepI="1.1037717014551163e-01" sepG="-1.0000000000000000e+00" res="-2.2413248661905527e-03" rms="3.3223059773445129e-01" nType="-1" CC="0.0000000000000000e+00"/>
        <Node pos="r" depth="1" Seq="1" IVar="0" Cut="6.7317817687988281e+01" cType="0" nS="5.5825817871093750e+02" nB="3.2093019531250000e+04" nEv="3.2651277343750000e+04" nSuw="5.7600000000000000e+02" nBuw="3.2298000000000000e+04" nEvuw="3.2874000000000000e+04" sepI="1.4959846623241901e-02" sepG="2.3157044779509306e-04" res="-1.0060414671897888e-01" rms="1.2231045216321945e-01" nType="0" CC="0.0000000000000000e+00">
          <Node pos="l" depth="2" Seq="1" IVar="-1" Cut="0.0000000000000000e+00" cType="1" nS="8.4819965362548828e+00" nB="8.5045562744140625e+01" nEv="9.3527557373046875e+01" nSuw="1.6000000000000000e+01" nBuw="8.8000000000000000e+01" nEvuw="1.0400000000000000e+02" sepI="8.8203310966491699e-02" sepG="-1.0000000000000000e+00" res="-6.0116641223430634e-02" rms="2.9699042439460754e-01" nType="-1" CC="0.0000000000000000e+00"/>
          <Node pos="r" depth="2" Seq="3" IVar="-1" Cut="0.0000000000000000e+00" cType="1" nS="5.4977618408203125e+02" nB="3.2007974609375000e+04" nEv="3.2557750000000000e+04" nSuw="5.6000000000000000e+02" nBuw="3.2210000000000000e+04" nEvuw="3.2770000000000000e+04" sepI="1.4517206698656082e-02" sepG="-1.0000000000000000e+00" res="-3.0525378882884979e-02" rms="1.2048736959695816e-01" nType="-1" CC="0.0000000000000000e+00"/>
        </Node>
      </Node>
    </BinaryTree>
    <BinaryTree type="DecisionTree" boostWeight="1.0000000000000000e+00" itree="27">
      <Node pos="s" depth="0" Seq="0" IVar="5" Cut="1.6807631254196167e+00" cType="0" nS="1.2782249755859375e+03" nB="3.5244492187500000e+04" nEv="3.6522718750000000e+04" nSuw="1.2930000000000000e+03" nBuw="3.5068000000000000e+04" nEvuw="3.6361000000000000e+04" sepI="2.5255598127841949e-02" sepG="7.3023414006456733e-04" res="-8.5926815867424011e-02" rms="1.5892009437084198e-01" nType="0" CC="0.0000000000000000e+00">
        <Node pos="l" depth="1" Seq="0" IVar="-1" Cut="0.0000000000000000e+00" cType="1" nS="7.5847930908203125e+02" nB="1.8995374755859375e+03" nEv="2.6580168457031250e+03" nSuw="7.7500000000000000e+02" nBuw="1.6660000000000000e+03" nEvuw="2.4410000000000000e+03" sepI="1.4837723970413208e-01" sepG="-1.0000000000000000e+00" res="2.1507034543901682e-03" rms="3.8519766926765442e-01" nType="-1" CC="0.0000000000000000e+00"/>
        <Node pos="r" depth="1" Seq="1" IVar="5" Cut="1.2916374206542969e+00" cType="0" nS="5.1974566650390625e+02" nB="3.3344957031250000e+04" nEv="3.3864703125000000e+04" nSuw="5.1800000000000000e+02" nBuw="3.3402000000000000e+04" nEvuw="3.3920000000000000e+04" sepI="1.4804316684603691e-02" sepG="1.0569443838903680e-04" res="-9.3497514724731445e-02" rms="1.2167298793792725e-01" nType="0" CC="0.0000000000000000e+00">
          <Node pos="l" depth="2" Seq="1" IVar="-1" Cut="0.0000000000000000e+00" cType="1" nS="2.9244293212890625e+02" nB="6.8405795898437500e+03" nEv="7.1330224609375000e+03" nSuw="2.6500000000000000e+02" nBuw="6.2470000000000000e+03" nEvuw="6.5120000000000000e+03" sepI="3.8375128060579300e-02" sepG="-1.0000000000000000e+00" res="-2.2144844755530357e-02" rms="1.9589571654796600e-01" nType="-1" CC="0.0000000000000000e+00"/>
          <Node pos="r" depth="2" Seq="3" IVar="-1" Cut="0.0000000000000000e+00" cType="1" nS="2.2730273437500000e+02" nB="2.6504376953125000e+04" nEv="2.6731679687500000e+04" nSuw="2.5300000000000000e+02" nBuw="2.7155000000000000e+04" nEvuw="2.7408000000000000e+04" sepI="8.3808340132236481e-03" sepG="-1.0000000000000000e+00" res="-3.2099694013595581e-02" rms="9.1546900570392609e-02" nType="-1" CC="0.0000000000000000e+00"/>
        </Node>
      </Node>
    </BinaryTree>
    <BinaryTree type="DecisionTree" boostWeight="1.0000000000000000e+00" itree="28">
      <Node pos="s" depth="0" Seq="0" IVar="5" Cut="1.8249160051345825e+00" cType="0" nS="1.2879464111328125e+03" nB="3.5268347656250000e+04" nEv="3.6556292968750000e+04" nSuw="1.2310000000000000e+03" nBuw="3.5130000000000000e+04" nEvuw="3.6361000000000000e+04" sepI="2.4685828015208244e-02" sepG="8.7169819744303823e-04" res="-8.0500759184360504e-02" rms="1.5711724758148193e-01" nType="0" CC="0.0000000000000000e+00">
        <Node pos="l" depth="1" Seq="0" IVar="-1" Cut="0.0000000000000000e+00" cType="1" nS="7.0311871337890625e+02" nB="1.0591824951171875e+03" nEv="1.7623011474609375e+03" nSuw="6.4200000000000000e+02" nBuw="9.0300000000000000e+02" nEvuw="1.5450000000000000e+03" sepI="1.8322753906250000e-01" sepG="-1.0000000000000000e+00" res="5.8624763041734695e-03" rms="4.2805087566375732e-01" nType="-1" CC="0.0000000000000000e+00"/>
        <Node pos="r" depth="1" Seq="1" IVar="0" Cut="3.5964782714843750e+01" cType="0" nS="5.8482769775390625e+02" nB="3.4209164062500000e+04" nEv="3.4793992187500000e+04" nSuw="5.8900000000000000e+02" nBuw="3.4227000000000000e+04" nEvuw="3.4816000000000000e+04" sepI="1.5739906579256058e-02" sepG="1.2936950952280313e-04" res="-8.7145388126373291e-02" rms="1.2545879185199738e-01" nType="0" CC="0.0000000000000000e+00">
          <Node pos="l" depth="2" Seq="1" IVar="-1" Cut="0.0000000000000000e+00" cType="1" nS="2.2354380798339844e+02" nB="3.2798425292968750e+03" nEv="3.5033862304687500e+03" nSuw="2.2600000000000000e+02" nBuw="4.1440000000000000e+03" nEvuw="4.3700000000000000e+03" sepI="5.4612696170806885e-02" sepG="-1.0000000000000000e+00" res="-1.8326805904507637e-02" rms="2.3369359970092773e-01" nType="-1" CC="0.0000000000000000e+00"/>
          <Node pos="r" depth="2" Seq="3" IVar="-1" Cut="0.0000000000000000e+00" cType="1" nS="3.6128387451171875e+02" nB="3.0929324218750000e+04" nEv="3.1290607421875000e+04" nSuw="3.6300000000000000e+02" nBuw="3.0083000000000000e+04" nEvuw="3.0446000000000000e+04" sepI="1.1243743821978569e-02" sepG="-1.0000000000000000e+00" res="-2.9799295589327812e-02" rms="1.0603652149438858e-01" nType="-1" CC="0.0000000000000000e+00"/>
        </Node>
      </Node>
    </BinaryTree>
    <BinaryTree type="DecisionTree" boostWeight="1.0000000000000000e+00" itree="29">
      <Node pos="s" depth="0" Seq="0" IVar="6" Cut="2.6339285373687744e+00" cType="1" nS="1.1811053466796875e+03" nB="3.5168910156250000e+04" nEv="3.6350015625000000e+04" nSuw="1.1930000000000000e+03" nBuw="3.5168000000000000e+04" nEvuw="3.6361000000000000e+04" sepI="2.3559115827083588e-02" sepG="5.6599319214001298e-04" res="-7.7979169785976410e-02" rms="1.5348979830741882e-01" nType="0" CC="0.0000000000000000e+00">
        <Node pos="l" depth="1" Seq="0" IVar="-1" Cut="0.0000000000000000e+00" cType="1" nS="6.4815112304687500e+02" nB="2.7378479003906250e+03" nEv="3.3859990234375000e+03" nSuw="6.3600000000000000e+02" nBuw="2.7890000000000000e+03" nEvuw="3.4250000000000000e+03" sepI="1.0552059113979340e-01" sepG="-1.0000000000000000e+00" res="3.3432678901590407e-04" rms="3.2483932375907898e-01" nType="-1" CC="0.0000000000000000e+00"/>
        <Node pos="r" depth="1" Seq="1" IVar="0" Cut="6.1794269561767578e+01" cType="0" nS="5.3295428466796875e+02" nB="3.2431062500000000e+04" nEv="3.2964015625000000e+04" nSuw="5.5700000000000000e+02" nBuw="3.2379000000000000e+04" nEvuw="3.2936000000000000e+04" sepI="1.4516063965857029e-02" sepG="2.3579433036502451e-04" res="-8.5603982210159302e-02" rms="1.2048263102769852e-01" nType="0" CC="0.0000000000000000e+00">
          <Node pos="l" depth="2" Seq="1" IVar="-1" Cut="0.0000000000000000e+00" cType="1" nS="2.6208395004272461e+01" nB="1.6436822509765625e+02" nEv="1.9057661437988281e+02" nSuw="3.2000000000000000e+01" nBuw="1.6900000000000000e+02" nEvuw="2.0100000000000000e+02" sepI="1.2252924591302872e-01" sepG="-1.0000000000000000e+00" res="-4.5367620885372162e-02" rms="3.5004177689552307e-01" nType="-1" CC="0.0000000000000000e+00"/>
          <Node pos="r" depth="2" Seq="3" IVar="-1" Cut="0.0000000000000000e+00" cType="1" nS="5.0674584960937500e+02" nB="3.2266693359375000e+04" nEv="3.2773441406250000e+04" nSuw="5.2500000000000000e+02" nBuw="3.2210000000000000e+04" nEvuw="3.2735000000000000e+04" sepI="1.3650804758071899e-02" sepG="-1.0000000000000000e+00" res="-2.9175013303756714e-02" rms="1.1683665961027145e-01" nType="-1" CC="0.0000000000000000e+00"/>
        </Node>
      </Node>
    </BinaryTree>
    <BinaryTree type="DecisionTree" boostWeight="1.0000000000000000e+00" itree="30">
      <Node pos="s" depth="0" Seq="0" IVar="6" Cut="2.2975661754608154e+00" cType="1" nS="1.2817585449218750e+03" nB="3.5034503906250000e+04" nEv="3.6316261718750000e+04" nSuw="1.2270000000000000e+03" nBuw="3.5134000000000000e+04" nEvuw="3.6361000000000000e+04" sepI="2.5184718891978264e-02" sepG="9.6872617723420262e-04" res="-7.0589341223239899e-02" rms="1.5869693458080292e-01" nType="0" CC="0.0000000000000000e+00">
        <Node pos="l" depth="1" Seq="0" IVar="-1" Cut="0.0000000000000000e+00" cType="1" nS="4.4929010009765625e+02" nB="7.3675622558593750e+02" nEv="1.1860463867187500e+03" nSuw="3.7000000000000000e+02" nBuw="7.4600000000000000e+02" nEvuw="1.1160000000000000e+03" sepI="1.5587027370929718e-01" sepG="-1.0000000000000000e+00" res="9.2968679964542389e-03" rms="3.9480409026145935e-01" nType="-1" CC="0.0000000000000000e+00"/>
        <Node pos="r" depth="1" Seq="1" IVar="8" Cut="9.3830156326293945e-01" cType="0" nS="8.3246838378906250e+02" nB="3.4297746093750000e+04" nEv="3.5130214843750000e+04" nSuw="8.5700000000000000e+02" nBuw="3.4388000000000000e+04" nEvuw="3.5245000000000000e+04" sepI="1.9771156832575798e-02" sepG="1.9428478844929487e-04" res="-7.6308220624923706e-02" rms="1.4060994982719421e-01" nType="0" CC="0.0000000000000000e+00">
          <Node pos="l" depth="2" Seq="1" IVar="-1" Cut="0.0000000000000000e+00" cType="1" nS="5.0458984375000000e+02" nB="9.4635205078125000e+03" nEv="9.9681103515625000e+03" nSuw="5.6200000000000000e+02" nBuw="1.0242000000000000e+04" nEvuw="1.0804000000000000e+04" sepI="3.6953527480363846e-02" sepG="-1.0000000000000000e+00" res="-1.7221795395016670e-02" rms="1.9223299622535706e-01" nType="-1" CC="0.0000000000000000e+00"/>
          <Node pos="r" depth="2" Seq="3" IVar="-1" Cut="0.0000000000000000e+00" cType="1" nS="3.2787857055664062e+02" nB="2.4834226562500000e+04" nEv="2.5162105468750000e+04" nSuw="2.9500000000000000e+02" nBuw="2.4146000000000000e+04" nEvuw="2.4441000000000000e+04" sepI="1.2693010270595551e-02" sepG="-1.0000000000000000e+00" res="-3.0403621494770050e-02" rms="1.1266326159238815e-01" nType="-1" CC="0.0000000000000000e+00"/>
        </Node>
      </Node>
    </BinaryTree>
    <BinaryTree type="DecisionTree" boostWeight="1.0000000000000000e+00" itree="31">
      <Node pos="s" depth="0" Seq="0" IVar="5" Cut="1.7664073705673218e+00" cType="0" nS="1.2057397460937500e+03" nB="3.5356796875000000e+04" nEv="3.6562535156250000e+04" nSuw="1.2270000000000000e+03" nBuw="3.5134000000000000e+04" nEvuw="3.6361000000000000e+04" sepI="2.3988321423530579e-02" sepG="4.3229476432316005e-04" res="-6.8583145737648010e-02" rms="1.5488164126873016e-01" nType="0" CC="0.0000000000000000e+00">
        <Node pos="l" depth="1" Seq="0" IVar="-1" Cut="0.0000000000000000e+00" cType="1" nS="6.4871893310546875e+02" nB="1.4220614013671875e+03" nEv="2.0707805175781250e+03" nSuw="6.7400000000000000e+02" nBuw="1.2290000000000000e+03" nEvuw="1.9030000000000000e+03" sepI="1.6110898554325104e-01" sepG="-1.0000000000000000e+00" res="6.5994006581604481e-03" rms="4.0138384699821472e-01" nType="-1" CC="0.0000000000000000e+00"/>
        <Node pos="r" depth="1" Seq="1" IVar="5" Cut="1.3866418600082397e+00" cType="0" nS="5.5702081298828125e+02" nB="3.3934734375000000e+04" nEv="3.4491757812500000e+04" nSuw="5.5300000000000000e+02" nBuw="3.3905000000000000e+04" nEvuw="3.4458000000000000e+04" sepI="1.5297764912247658e-02" sepG="1.3199901150073856e-04" res="-7.3677621781826019e-02" rms="1.2368413060903549e-01" nType="0" CC="0.0000000000000000e+00">
          <Node pos="l" depth="2" Seq="1" IVar="-1" Cut="0.0000000000000000e+00" cType="1" nS="2.8000463867187500e+02" nB="4.7119418945312500e+03" nEv="4.9919462890625000e+03" nSuw="2.4400000000000000e+02" nBuw="4.3610000000000000e+03" nEvuw="4.6050000000000000e+03" sepI="5.0729461014270782e-02" sepG="-1.0000000000000000e+00" res="-1.6493605449795723e-02" rms="2.2523202002048492e-01" nType="-1" CC="0.0000000000000000e+00"/>
          <Node pos="r" depth="2" Seq="3" IVar="-1" Cut="0.0000000000000000e+00" cType="1" nS="2.7701617431640625e+02" nB="2.9222792968750000e+04" nEv="2.9499810546875000e+04" nSuw="3.0900000000000000e+02" nBuw="2.9544000000000000e+04" nEvuw="2.9853000000000000e+04" sepI="9.1476915404200554e-03" sepG="-1.0000000000000000e+00" res="-2.9792036861181259e-02" rms="9.5643565058708191e-02" nType="-1" CC="0.0000000000000000e+00"/>
        </Node>
      </Node>
    </BinaryTree>
    <BinaryTree type="DecisionTree" boostWeight="1.0000000000000000e+00" itree="32">
      <Node pos="s" depth="0" Seq="0" IVar="5" Cut="2.0794475078582764e+00" cType="0" nS="1.2901746826171875e+03" nB="3.5118554687500000e+04" nEv="3.6408730468750000e+04" nSuw="1.2730000000000000e+03" nBuw="3.5088000000000000e+04" nEvuw="3.6361000000000000e+04" sepI="2.5266926735639572e-02" sepG="6.2457006424665451e-04" res="-6.1994027346372604e-02" rms="1.5895573794841766e-01" nType="0" CC="0.0000000000000000e+00">
        <Node pos="l" depth="1" Seq="0" IVar="-1" Cut="0.0000000000000000e+00" cType="1" nS="5.0618716430664062e+02" nB="4.0107687377929688e+02" nEv="9.0726403808593750e+02" nSuw="5.1200000000000000e+02" nBuw="3.3800000000000000e+02" nEvuw="8.5000000000000000e+02" sepI="2.0446439087390900e-01" sepG="-1.0000000000000000e+00" res="1.1634382419288158e-02" rms="4.5217737555503845e-01" nType="1" CC="0.0000000000000000e+00"/>
        <Node pos="r" depth="1" Seq="1" IVar="5" Cut="1.5166707038879395e+00" cType="0" nS="7.8398754882812500e+02" nB="3.4717480468750000e+04" nEv="3.5501468750000000e+04" nSuw="7.6100000000000000e+02" nBuw="3.4750000000000000e+04" nEvuw="3.5511000000000000e+04" sepI="2.0046884194016457e-02" sepG="1.8936555716209114e-04" res="-6.5989188849925995e-02" rms="1.4158701896667480e-01" nType="0" CC="0.0000000000000000e+00">
          <Node pos="l" depth="2" Seq="1" IVar="-1" Cut="0.0000000000000000e+00" cType="1" nS="3.5697433471679688e+02" nB="3.1710742187500000e+03" nEv="3.5280485839843750e+03" nSuw="3.2400000000000000e+02" nBuw="2.8530000000000000e+03" nEvuw="3.1770000000000000e+03" sepI="8.2337386906147003e-02" sepG="-1.0000000000000000e+00" res="-7.0352945476770401e-03" rms="2.8694492578506470e-01" nType="-1" CC="0.0000000000000000e+00"/>
          <Node pos="r" depth="2" Seq="3" IVar="-1" Cut="0.0000000000000000e+00" cType="1" nS="4.2701324462890625e+02" nB="3.1546404296875000e+04" nEv="3.1973417968750000e+04" nSuw="4.3700000000000000e+02" nBuw="3.1897000000000000e+04" nEvuw="3.2334000000000000e+04" sepI="1.2963290326297283e-02" sepG="-1.0000000000000000e+00" res="-2.8634976595640182e-02" rms="1.1385644972324371e-01" nType="-1" CC="0.0000000000000000e+00"/>
        </Node>
      </Node>
    </BinaryTree>
    <BinaryTree type="DecisionTree" boostWeight="1.0000000000000000e+00" itree="33">
      <Node pos="s" depth="0" Seq="0" IVar="6" Cut="2.6329326629638672e+00" cType="1" nS="1.3384953613281250e+03" nB="3.5501226562500000e+04" nEv="3.6839722656250000e+04" nSuw="1.2890000000000000e+03" nBuw="3.5072000000000000e+04" nEvuw="3.6361000000000000e+04" sepI="2.4852747097611427e-02" sepG="7.7789323404431343e-04" res="-5.8315847069025040e-02" rms="1.5764753520488739e-01" nType="0" CC="0.0000000000000000e+00">
        <Node pos="l" depth="1" Seq="0" IVar="-1" Cut="0.0000000000000000e+00" cType="1" nS="7.5352703857421875e+02" nB="2.7300385742187500e+03" nEv="3.4835654296875000e+03" nSuw="6.7900000000000000e+02" nBuw="2.7020000000000000e+03" nEvuw="3.3810000000000000e+03" sepI="1.0705823451280594e-01" sepG="-1.0000000000000000e+00" res="2.7137778233736753e-03" rms="3.2719755172729492e-01" nType="-1" CC="0.0000000000000000e+00"/>
        <Node pos="r" depth="1" Seq="1" IVar="10" Cut="1.5451686096191406e+02" cType="1" nS="5.8496826171875000e+02" nB="3.2771187500000000e+04" nEv="3.3356156250000000e+04" nSuw="6.1000000000000000e+02" nBuw="3.2370000000000000e+04" nEvuw="3.2980000000000000e+04" sepI="1.5408445149660110e-02" sepG="2.1164183272048831e-04" res="-6.7329145967960358e-02" rms="1.2413075566291809e-01" nType="0" CC="0.0000000000000000e+00">
          <Node pos="l" depth="2" Seq="1" IVar="-1" Cut="0.0000000000000000e+00" cType="1" nS="5.8112689208984375e+02" nB="3.1761636718750000e+04" nEv="3.2342763671875000e+04" nSuw="6.0300000000000000e+02" nBuw="3.1384000000000000e+04" nEvuw="3.1987000000000000e+04" sepI="1.4992898330092430e-02" sepG="-1.0000000000000000e+00" res="-2.6823606342077255e-02" rms="1.2244549393653870e-01" nType="-1" CC="0.0000000000000000e+00"/>
          <Node pos="r" depth="2" Seq="3" IVar="-1" Cut="0.0000000000000000e+00" cType="1" nS="3.8413598537445068e+00" nB="1.0095510864257812e+03" nEv="1.0133923950195312e+03" nSuw="7.0000000000000000e+00" nBuw="9.8600000000000000e+02" nEvuw="9.9300000000000000e+02" sepI="2.1704498678445816e-02" sepG="-1.0000000000000000e+00" res="-4.8768479377031326e-02" rms="1.4732445776462555e-01" nType="-1" CC="0.0000000000000000e+00"/>
        </Node>
      </Node>
    </BinaryTree>
    <BinaryTree type="DecisionTree" boostWeight="1.0000000000000000e+00" itree="34">
      <Node pos="s" depth="0" Seq="0" IVar="5" Cut="2.0284402370452881e+00" cType="0" nS="1.4070595703125000e+03" nB="3.5089238281250000e+04" nEv="3.6496296875000000e+04" nSuw="1.3450000000000000e+03" nBuw="3.5016000000000000e+04" nEvuw="3.6361000000000000e+04" sepI="2.6201926171779633e-02" sepG="1.2885936303064227e-03" res="-5.2210900932550430e-02" rms="1.6187009215354919e-01" nType="0" CC="0.0000000000000000e+00">
        <Node pos="l" depth="1" Seq="0" IVar="-1" Cut="0.0000000000000000e+00" cType="1" nS="6.1844146728515625e+02" nB="4.4497845458984375e+02" nEv="1.0634199218750000e+03" nSuw="5.9300000000000000e+02" nBuw="3.9200000000000000e+02" nEvuw="9.8500000000000000e+02" sepI="1.9138790667057037e-01" sepG="-1.0000000000000000e+00" res="1.0579444468021393e-02" rms="4.3747901916503906e-01" nType="1" CC="0.0000000000000000e+00"/>
        <Node pos="r" depth="1" Seq="1" IVar="6" Cut="2.1570012569427490e+00" cType="1" nS="7.8861810302734375e+02" nB="3.4644261718750000e+04" nEv="3.5432878906250000e+04" nSuw="7.5200000000000000e+02" nBuw="3.4624000000000000e+04" nEvuw="3.5376000000000000e+04" sepI="1.9917057827115059e-02" sepG="1.8842534336727113e-04" res="-5.8429710566997528e-02" rms="1.4112780988216400e-01" nType="0" CC="0.0000000000000000e+00">
          <Node pos="l" depth="2" Seq="1" IVar="-1" Cut="0.0000000000000000e+00" cType="1" nS="1.3580439758300781e+02" nB="4.4075219726562500e+02" nEv="5.7655657958984375e+02" nSuw="9.5000000000000000e+01" nBuw="4.6700000000000000e+02" nEvuw="5.6200000000000000e+02" sepI="1.5817511081695557e-01" sepG="-1.0000000000000000e+00" res="5.1199796143919230e-04" rms="3.9771234989166260e-01" nType="-1" CC="0.0000000000000000e+00"/>
          <Node pos="r" depth="2" Seq="3" IVar="-1" Cut="0.0000000000000000e+00" cType="1" nS="6.5281372070312500e+02" nB="3.4203507812500000e+04" nEv="3.4856320312500000e+04" nSuw="6.5700000000000000e+02" nBuw="3.4157000000000000e+04" nEvuw="3.4814000000000000e+04" sepI="1.7438596114516258e-02" sepG="-1.0000000000000000e+00" res="-2.5620246306061745e-02" rms="1.3205528259277344e-01" nType="-1" CC="0.0000000000000000e+00"/>
        </Node>
      </Node>
    </BinaryTree>
    <BinaryTree type="DecisionTree" boostWeight="1.0000000000000000e+00" itree="35">
      <Node pos="s" depth="0" Seq="0" IVar="5" Cut="2.0876879692077637e+00" cType="0" nS="1.3165139160156250e+03" nB="3.5281996093750000e+04" nEv="3.6598511718750000e+04" nSuw="1.2610000000000000e+03" nBuw="3.5100000000000000e+04" nEvuw="3.6361000000000000e+04" sepI="2.4762466549873352e-02" sepG="7.7682948904111981e-04" res="-5.1255550235509872e-02" rms="1.5736094117164612e-01" nType="0" CC="0.0000000000000000e+00">
        <Node pos="l" depth="1" Seq="0" IVar="-1" Cut="0.0000000000000000e+00" cType="1" nS="5.3839202880859375e+02" nB="3.6220730590820312e+02" nEv="9.0059930419921875e+02" nSuw="5.2700000000000000e+02" nBuw="3.2700000000000000e+02" nEvuw="8.5400000000000000e+02" sepI="1.9150178134441376e-01" sepG="-1.0000000000000000e+00" res="1.1672835797071457e-02" rms="4.3760916590690613e-01" nType="1" CC="0.0000000000000000e+00"/>
        <Node pos="r" depth="1" Seq="1" IVar="0" Cut="3.8788715362548828e+01" cType="0" nS="7.7812182617187500e+02" nB="3.4919789062500000e+04" nEv="3.5697910156250000e+04" nSuw="7.3400000000000000e+02" nBuw="3.4773000000000000e+04" nEvuw="3.5507000000000000e+04" sepI="1.9759481772780418e-02" sepG="2.6246046763844788e-04" res="-5.5682525038719177e-02" rms="1.4056842029094696e-01" nType="0" CC="0.0000000000000000e+00">
          <Node pos="l" depth="2" Seq="1" IVar="-1" Cut="0.0000000000000000e+00" cType="1" nS="2.9914505004882812e+02" nB="2.3918496093750000e+03" nEv="2.6909946289062500e+03" nSuw="2.7300000000000000e+02" nBuw="3.1020000000000000e+03" nEvuw="3.3750000000000000e+03" sepI="8.7531343102455139e-02" sepG="-1.0000000000000000e+00" res="-4.2857346124947071e-03" rms="2.9585695266723633e-01" nType="-1" CC="0.0000000000000000e+00"/>
          <Node pos="r" depth="2" Seq="3" IVar="-1" Cut="0.0000000000000000e+00" cType="1" nS="4.7897680664062500e+02" nB="3.2527939453125000e+04" nEv="3.3006917968750000e+04" nSuw="4.6100000000000000e+02" nBuw="3.1671000000000000e+04" nEvuw="3.2132000000000000e+04" sepI="1.3950305990874767e-02" sepG="-1.0000000000000000e+00" res="-2.6083758100867271e-02" rms="1.1811141669750214e-01" nType="-1" CC="0.0000000000000000e+00"/>
        </Node>
      </Node>
    </BinaryTree>
    <BinaryTree type="DecisionTree" boostWeight="1.0000000000000000e+00" itree="36">
      <Node pos="s" depth="0" Seq="0" IVar="6" Cut="2.3526771068572998e+00" cType="1" nS="1.2814327392578125e+03" nB="3.5269179687500000e+04" nEv="3.6550613281250000e+04" nSuw="1.2620000000000000e+03" nBuw="3.5099000000000000e+04" nEvuw="3.6361000000000000e+04" sepI="2.4203602224588394e-02" sepG="8.9511595433577895e-04" res="-4.8047777265310287e-02" rms="1.5557506680488586e-01" nType="0" CC="0.0000000000000000e+00">
        <Node pos="l" depth="1" Seq="0" IVar="-1" Cut="0.0000000000000000e+00" cType="1" nS="4.8785363769531250e+02" nB="8.4372302246093750e+02" nEv="1.3315766601562500e+03" nSuw="4.0900000000000000e+02" nBuw="8.7800000000000000e+02" nEvuw="1.2870000000000000e+03" sepI="1.4149776101112366e-01" sepG="-1.0000000000000000e+00" res="1.0091226547956467e-02" rms="3.7616190314292908e-01" nType="-1" CC="0.0000000000000000e+00"/>
        <Node pos="r" depth="1" Seq="1" IVar="10" Cut="1.4795391845703125e+02" cType="1" nS="7.9357904052734375e+02" nB="3.4425457031250000e+04" nEv="3.5219035156250000e+04" nSuw="8.5300000000000000e+02" nBuw="3.4221000000000000e+04" nEvuw="3.5074000000000000e+04" sepI="1.8839932978153229e-02" sepG="1.7354273586533964e-04" res="-5.3865246474742889e-02" rms="1.3725863397121429e-01" nType="0" CC="0.0000000000000000e+00">
          <Node pos="l" depth="2" Seq="1" IVar="-1" Cut="0.0000000000000000e+00" cType="1" nS="7.8528704833984375e+02" nB="3.3207519531250000e+04" nEv="3.3992808593750000e+04" nSuw="8.4400000000000000e+02" nBuw="3.2999000000000000e+04" nEvuw="3.3843000000000000e+04" sepI="1.8600167706608772e-02" sepG="-1.0000000000000000e+00" res="-2.2818064317107201e-02" rms="1.3638243079185486e-01" nType="-1" CC="0.0000000000000000e+00"/>
          <Node pos="r" depth="2" Seq="3" IVar="-1" Cut="0.0000000000000000e+00" cType="1" nS="8.2920188903808594e+00" nB="1.2179367675781250e+03" nEv="1.2262287597656250e+03" nSuw="9.0000000000000000e+00" nBuw="1.2220000000000000e+03" nEvuw="1.2310000000000000e+03" sepI="2.0502166822552681e-02" sepG="-1.0000000000000000e+00" res="-4.6704903244972229e-02" rms="1.4318577945232391e-01" nType="-1" CC="0.0000000000000000e+00"/>
        </Node>
      </Node>
    </BinaryTree>
    <BinaryTree type="DecisionTree" boostWeight="1.0000000000000000e+00" itree="37">
      <Node pos="s" depth="0" Seq="0" IVar="5" Cut="2.4371745586395264e+00" cType="0" nS="1.3222507324218750e+03" nB="3.5276746093750000e+04" nEv="3.6598996093750000e+04" nSuw="1.2830000000000000e+03" nBuw="3.5078000000000000e+04" nEvuw="3.6361000000000000e+04" sepI="2.3510642349720001e-02" sepG="1.0479057673364878e-03" res="-4.5814320445060730e-02" rms="1.5333180129528046e-01" nType="0" CC="0.0000000000000000e+00">
        <Node pos="l" depth="1" Seq="0" IVar="-1" Cut="0.0000000000000000e+00" cType="1" nS="3.9645819091796875e+02" nB="1.1356299591064453e+02" nEv="5.1002117919921875e+02" nSuw="3.6600000000000000e+02" nBuw="9.8000000000000000e+01" nEvuw="4.6400000000000000e+02" sepI="1.4487926661968231e-01" sepG="-1.0000000000000000e+00" res="1.7898894846439362e-02" rms="3.8063007593154907e-01" nType="1" CC="0.0000000000000000e+00"/>
        <Node pos="r" depth="1" Seq="1" IVar="5" Cut="1.7180135250091553e+00" cType="0" nS="9.2579260253906250e+02" nB="3.5163179687500000e+04" nEv="3.6088972656250000e+04" nSuw="9.1700000000000000e+02" nBuw="3.4980000000000000e+04" nEvuw="3.5897000000000000e+04" sepI="2.0732706412672997e-02" sepG="2.6909273583441973e-04" res="-4.9662608653306961e-02" rms="1.4398856461048126e-01" nType="0" CC="0.0000000000000000e+00">
          <Node pos="l" depth="2" Seq="1" IVar="-1" Cut="0.0000000000000000e+00" cType="1" nS="4.3854879760742188e+02" nB="1.5685026855468750e+03" nEv="2.0070515136718750e+03" nSuw="3.9100000000000000e+02" nBuw="1.4120000000000000e+03" nEvuw="1.8030000000000000e+03" sepI="1.3596051931381226e-01" sepG="-1.0000000000000000e+00" res="3.8559122476726770e-03" rms="3.6872825026512146e-01" nType="-1" CC="0.0000000000000000e+00"/>
          <Node pos="r" depth="2" Seq="3" IVar="-1" Cut="0.0000000000000000e+00" cType="1" nS="4.8724383544921875e+02" nB="3.3594679687500000e+04" nEv="3.4081921875000000e+04" nSuw="5.2600000000000000e+02" nBuw="3.3568000000000000e+04" nEvuw="3.4094000000000000e+04" sepI="1.3662112876772881e-02" sepG="-1.0000000000000000e+00" res="-2.5336872786283493e-02" rms="1.1688504368066788e-01" nType="-1" CC="0.0000000000000000e+00"/>
        </Node>
      </Node>
    </BinaryTree>
    <BinaryTree type="DecisionTree" boostWeight="1.0000000000000000e+00" itree="38">
      <Node pos="s" depth="0" Seq="0" IVar="6" Cut="2.7889666557312012e+00" cType="1" nS="1.2773919677734375e+03" nB="3.5030640625000000e+04" nEv="3.6308035156250000e+04" nSuw="1.2630000000000000e+03" nBuw="3.5098000000000000e+04" nEvuw="3.6361000000000000e+04" sepI="2.4135991930961609e-02" sepG="5.4921867558732629e-04" res="-4.3238077312707901e-02" rms="1.5535762906074524e-01" nType="0" CC="0.0000000000000000e+00">
        <Node pos="l" depth="1" Seq="0" IVar="-1" Cut="0.0000000000000000e+00" cType="1" nS="8.9171411132812500e+02" nB="5.5742983398437500e+03" nEv="6.4660126953125000e+03" nSuw="8.5000000000000000e+02" nBuw="5.5060000000000000e+03" nEvuw="6.3560000000000000e+03" sepI="7.6942674815654755e-02" sepG="-1.0000000000000000e+00" res="7.3611451080068946e-04" rms="2.7738541364669800e-01" nType="-1" CC="0.0000000000000000e+00"/>
        <Node pos="r" depth="1" Seq="1" IVar="0" Cut="6.8278251647949219e+01" cType="0" nS="3.8567785644531250e+02" nB="2.9456343750000000e+04" nEv="2.9842021484375000e+04" nSuw="4.1300000000000000e+02" nBuw="2.9592000000000000e+04" nEvuw="3.0005000000000000e+04" sepI="1.2025896459817886e-02" sepG="4.0366858593188226e-04" res="-5.4146870970726013e-02" rms="1.0966265201568604e-01" nType="0" CC="0.0000000000000000e+00">
          <Node pos="l" depth="2" Seq="1" IVar="-1" Cut="0.0000000000000000e+00" cType="1" nS="1.5917412042617798e+00" nB="9.8297111511230469e+01" nEv="9.9888854980468750e+01" nSuw="3.0000000000000000e+00" nBuw="9.8000000000000000e+01" nEvuw="1.0100000000000000e+02" sepI="2.0301254466176033e-02" sepG="-1.0000000000000000e+00" res="-6.6736966371536255e-02" rms="1.4248247444629669e-01" nType="-1" CC="0.0000000000000000e+00"/>
          <Node pos="r" depth="2" Seq="3" IVar="-1" Cut="0.0000000000000000e+00" cType="1" nS="3.8408612060546875e+02" nB="2.9358046875000000e+04" nEv="2.9742132812500000e+04" nSuw="4.1000000000000000e+02" nBuw="2.9494000000000000e+04" nEvuw="2.9904000000000000e+04" sepI="1.1593079194426537e-02" sepG="-1.0000000000000000e+00" res="-2.7346689254045486e-02" rms="1.0767116397619247e-01" nType="-1" CC="0.0000000000000000e+00"/>
        </Node>
      </Node>
    </BinaryTree>
    <BinaryTree type="DecisionTree" boostWeight="1.0000000000000000e+00" itree="39">
      <Node pos="s" depth="0" Seq="0" IVar="5" Cut="2.4557685852050781e+00" cType="0" nS="1.2879691162109375e+03" nB="3.5520273437500000e+04" nEv="3.6808242187500000e+04" nSuw="1.2470000000000000e+03" nBuw="3.5114000000000000e+04" nEvuw="3.6361000000000000e+04" sepI="2.3252982646226883e-02" sepG="7.1397231658920646e-04" res="-4.1143782436847687e-02" rms="1.5248928964138031e-01" nType="0" CC="0.0000000000000000e+00">
        <Node pos="l" depth="1" Seq="0" IVar="-1" Cut="0.0000000000000000e+00" cType="1" nS="3.5151248168945312e+02" nB="1.2093634796142578e+02" nEv="4.7244882202148438e+02" nSuw="3.5600000000000000e+02" nBuw="1.0000000000000000e+02" nEvuw="4.5600000000000000e+02" sepI="1.5880629420280457e-01" sepG="-1.0000000000000000e+00" res="1.8286222591996193e-02" rms="3.9850509166717529e-01" nType="1" CC="0.0000000000000000e+00"/>
        <Node pos="r" depth="1" Seq="1" IVar="6" Cut="2.6011443138122559e+00" cType="1" nS="9.3645666503906250e+02" nB="3.5399335937500000e+04" nEv="3.6335792968750000e+04" nSuw="8.9100000000000000e+02" nBuw="3.5014000000000000e+04" nEvuw="3.5905000000000000e+04" sepI="2.0767223089933395e-02" sepG="2.8049835236743093e-04" res="-4.4190630316734314e-02" rms="1.4410836994647980e-01" nType="0" CC="0.0000000000000000e+00">
          <Node pos="l" depth="2" Seq="1" IVar="-1" Cut="0.0000000000000000e+00" cType="1" nS="4.6399072265625000e+02" nB="2.4893417968750000e+03" nEv="2.9533325195312500e+03" nSuw="3.7700000000000000e+02" nBuw="2.4850000000000000e+03" nEvuw="2.8620000000000000e+03" sepI="1.0159480571746826e-01" sepG="-1.0000000000000000e+00" res="1.3747245538979769e-03" rms="3.1873938441276550e-01" nType="-1" CC="0.0000000000000000e+00"/>
          <Node pos="r" depth="2" Seq="3" IVar="-1" Cut="0.0000000000000000e+00" cType="1" nS="4.7246597290039062e+02" nB="3.2909996093750000e+04" nEv="3.3382460937500000e+04" nSuw="5.1400000000000000e+02" nBuw="3.2529000000000000e+04" nEvuw="3.3043000000000000e+04" sepI="1.3311125338077545e-02" sepG="-1.0000000000000000e+00" res="-2.5216195732355118e-02" rms="1.1537384986877441e-01" nType="-1" CC="0.0000000000000000e+00"/>
        </Node>
      </Node>
    </BinaryTree>
    <BinaryTree type="DecisionTree" boostWeight="1.0000000000000000e+00" itree="40">
      <Node pos="s" depth="0" Seq="0" IVar="5" Cut="1.6372755765914917e+00" cType="0" nS="1.2659814453125000e+03" nB="3.5315652343750000e+04" nEv="3.6581636718750000e+04" nSuw="1.2100000000000000e+03" nBuw="3.5151000000000000e+04" nEvuw="3.6361000000000000e+04" sepI="2.3622585460543633e-02" sepG="5.6281452998518944e-04" res="-3.8565348833799362e-02" rms="1.5369640290737152e-01" nType="0" CC="0.0000000000000000e+00">
        <Node pos="l" depth="1" Seq="0" IVar="-1" Cut="0.0000000000000000e+00" cType="1" nS="8.1145843505859375e+02" nB="2.3999970703125000e+03" nEv="3.2114555664062500e+03" nSuw="7.4800000000000000e+02" nBuw="2.0690000000000000e+03" nEvuw="2.8170000000000000e+03" sepI="1.2630419433116913e-01" sepG="-1.0000000000000000e+00" res="7.6892827637493610e-03" rms="3.5539299249649048e-01" nType="-1" CC="0.0000000000000000e+00"/>
        <Node pos="r" depth="1" Seq="1" IVar="5" Cut="1.2044140100479126e+00" cType="0" nS="4.5452307128906250e+02" nB="3.2915656250000000e+04" nEv="3.3370179687500000e+04" nSuw="4.6200000000000000e+02" nBuw="3.3082000000000000e+04" nEvuw="3.3544000000000000e+04" sepI="1.3123807497322559e-02" sepG="3.7420417356770486e-05" res="-4.5924950391054153e-02" rms="1.1455918848514557e-01" nType="0" CC="0.0000000000000000e+00">
          <Node pos="l" depth="2" Seq="1" IVar="-1" Cut="0.0000000000000000e+00" cType="1" nS="2.6772708129882812e+02" nB="9.7110263671875000e+03" nEv="9.9787539062500000e+03" nSuw="2.4900000000000000e+02" nBuw="8.9000000000000000e+03" nEvuw="9.1490000000000000e+03" sepI="2.5220120325684547e-02" sepG="-1.0000000000000000e+00" res="-1.6245303675532341e-02" rms="1.5880843997001648e-01" nType="-1" CC="0.0000000000000000e+00"/>
          <Node pos="r" depth="2" Seq="3" IVar="-1" Cut="0.0000000000000000e+00" cType="1" nS="1.8679597473144531e+02" nB="2.3204630859375000e+04" nEv="2.3391425781250000e+04" nSuw="2.1300000000000000e+02" nBuw="2.4182000000000000e+04" nEvuw="2.4395000000000000e+04" sepI="7.9101510345935822e-03" sepG="-1.0000000000000000e+00" res="-2.9049327597022057e-02" rms="8.8939033448696136e-02" nType="-1" CC="0.0000000000000000e+00"/>
        </Node>
      </Node>
    </BinaryTree>
    <BinaryTree type="DecisionTree" boostWeight="1.0000000000000000e+00" itree="41">
      <Node pos="s" depth="0" Seq="0" IVar="6" Cut="2.6339285373687744e+00" cType="1" nS="1.2590184326171875e+03" nB="3.5134175781250000e+04" nEv="3.6393195312500000e+04" nSuw="1.2970000000000000e+03" nBuw="3.5064000000000000e+04" nEvuw="3.6361000000000000e+04" sepI="2.3658147081732750e-02" sepG="5.4606131743639708e-04" res="-3.5574246197938919e-02" rms="1.5381205081939697e-01" nType="0" CC="0.0000000000000000e+00">
        <Node pos="l" depth="1" Seq="0" IVar="-1" Cut="0.0000000000000000e+00" cType="1" nS="7.0318206787109375e+02" nB="2.6678132324218750e+03" nEv="3.3709953613281250e+03" nSuw="6.8800000000000000e+02" nBuw="2.6540000000000000e+03" nEvuw="3.3420000000000000e+03" sepI="1.0499591380357742e-01" sepG="-1.0000000000000000e+00" res="6.3159740529954433e-03" rms="3.2403072714805603e-01" nType="-1" CC="0.0000000000000000e+00"/>
        <Node pos="r" depth="1" Seq="1" IVar="0" Cut="6.3559337615966797e+01" cType="0" nS="5.5583630371093750e+02" nB="3.2466363281250000e+04" nEv="3.3022199218750000e+04" nSuw="6.0900000000000000e+02" nBuw="3.2410000000000000e+04" nEvuw="3.3019000000000000e+04" sepI="1.4753162860870361e-02" sepG="2.1925059263594449e-04" res="-4.3040398508310318e-02" rms="1.2146259844303131e-01" nType="0" CC="0.0000000000000000e+00">
          <Node pos="l" depth="2" Seq="1" IVar="-1" Cut="0.0000000000000000e+00" cType="1" nS="9.2000646591186523e+00" nB="1.0608001708984375e+02" nEv="1.1528008270263672e+02" nSuw="1.8000000000000000e+01" nBuw="1.1700000000000000e+02" nEvuw="1.3500000000000000e+02" sepI="6.8793021142482758e-02" sepG="-1.0000000000000000e+00" res="-3.7427403032779694e-02" rms="2.6228424906730652e-01" nType="-1" CC="0.0000000000000000e+00"/>
          <Node pos="r" depth="2" Seq="3" IVar="-1" Cut="0.0000000000000000e+00" cType="1" nS="5.4663623046875000e+02" nB="3.2360283203125000e+04" nEv="3.2906917968750000e+04" nSuw="5.9100000000000000e+02" nBuw="3.2293000000000000e+04" nEvuw="3.2884000000000000e+04" sepI="1.4343831688165665e-02" sepG="-1.0000000000000000e+00" res="-2.4104747921228409e-02" rms="1.1976573616266251e-01" nType="-1" CC="0.0000000000000000e+00"/>
        </Node>
      </Node>
    </BinaryTree>
    <BinaryTree type="DecisionTree" boostWeight="1.0000000000000000e+00" itree="42">
      <Node pos="s" depth="0" Seq="0" IVar="6" Cut="2.6370942592620850e+00" cType="1" nS="1.2398414306640625e+03" nB="3.5130808593750000e+04" nEv="3.6370652343750000e+04" nSuw="1.2560000000000000e+03" nBuw="3.5105000000000000e+04" nEvuw="3.6361000000000000e+04" sepI="2.3357907310128212e-02" sepG="4.9757957458496094e-04" res="-3.3944554626941681e-02" rms="1.5283294022083282e-01" nType="0" CC="0.0000000000000000e+00">
        <Node pos="l" depth="1" Seq="0" IVar="-1" Cut="0.0000000000000000e+00" cType="1" nS="7.0346282958984375e+02" nB="2.7328007812500000e+03" nEv="3.4362636718750000e+03" nSuw="6.7100000000000000e+02" nBuw="2.7610000000000000e+03" nEvuw="3.4320000000000000e+03" sepI="1.0738839209079742e-01" sepG="-1.0000000000000000e+00" res="5.8105997741222382e-03" rms="3.2770168781280518e-01" nType="-1" CC="0.0000000000000000e+00"/>
